digraph Tree {
node [shape=box] ;
0 [label="certReason <= 12.5\ngini = 0.044\nsamples = 82170\nvalue = [80322, 1848]"] ;
1 [label="yearOfCaseInitiate <= 1988.5\ngini = 0.041\nsamples = 81294\nvalue = [79603, 1691]"] ;
0 -> 1 [labeldistance=2.5, labelangle=45, headlabel="True"] ;
2 [label="lawSupp <= 230.5\ngini = 0.053\nsamples = 60212\nvalue = [58569, 1643]"] ;
1 -> 2 ;
3 [label="petitionerState <= 0.5\ngini = 0.022\nsamples = 17543\nvalue = [17346, 197]"] ;
2 -> 3 ;
4 [label="caseSourceState <= 57.5\ngini = 0.014\nsamples = 13459\nvalue = [13362, 97]"] ;
3 -> 4 ;
5 [label="lawSupp <= 107.5\ngini = 0.013\nsamples = 13350\nvalue = [13260, 90]"] ;
4 -> 5 ;
6 [label="lcDisposition <= 4.0\ngini = 0.095\nsamples = 181\nvalue = [172, 9]"] ;
5 -> 6 ;
7 [label="gini = 0.0\nsamples = 167\nvalue = [167, 0]"] ;
6 -> 7 ;
8 [label="caseOrigin <= 69.5\ngini = 0.459\nsamples = 14\nvalue = [5, 9]"] ;
6 -> 8 ;
9 [label="gini = 0.0\nsamples = 5\nvalue = [5, 0]"] ;
8 -> 9 ;
10 [label="gini = 0.0\nsamples = 9\nvalue = [0, 9]"] ;
8 -> 10 ;
11 [label="caseOrigin <= 73.5\ngini = 0.012\nsamples = 13169\nvalue = [13088, 81]"] ;
5 -> 11 ;
12 [label="caseSource <= 72.0\ngini = 0.026\nsamples = 3558\nvalue = [3511, 47]"] ;
11 -> 12 ;
13 [label="decisionDirectionDissent <= 0.5\ngini = 0.022\nsamples = 3544\nvalue = [3504, 40]"] ;
12 -> 13 ;
14 [label="respondentState <= 9.0\ngini = 0.019\nsamples = 3518\nvalue = [3484, 34]"] ;
13 -> 14 ;
15 [label="petitioner <= 102.5\ngini = 0.006\nsamples = 3088\nvalue = [3078, 10]"] ;
14 -> 15 ;
16 [label="majVotes <= 8.5\ngini = 0.019\nsamples = 1056\nvalue = [1046, 10]"] ;
15 -> 16 ;
17 [label="caseOrigin <= 64.5\ngini = 0.011\nsamples = 921\nvalue = [916, 5]"] ;
16 -> 17 ;
18 [label="gini = 0.0\nsamples = 742\nvalue = [742, 0]"] ;
17 -> 18 ;
19 [label="respondent <= 63.5\ngini = 0.054\nsamples = 179\nvalue = [174, 5]"] ;
17 -> 19 ;
20 [label="lawSupp <= 206.5\ngini = 0.194\nsamples = 46\nvalue = [41, 5]"] ;
19 -> 20 ;
21 [label="gini = 0.0\nsamples = 33\nvalue = [33, 0]"] ;
20 -> 21 ;
22 [label="authorityDecision2 <= 1.5\ngini = 0.473\nsamples = 13\nvalue = [8, 5]"] ;
20 -> 22 ;
23 [label="gini = 0.0\nsamples = 5\nvalue = [0, 5]"] ;
22 -> 23 ;
24 [label="gini = 0.0\nsamples = 8\nvalue = [8, 0]"] ;
22 -> 24 ;
25 [label="gini = 0.0\nsamples = 133\nvalue = [133, 0]"] ;
19 -> 25 ;
26 [label="yearOfCaseInitiate <= 1981.0\ngini = 0.071\nsamples = 135\nvalue = [130, 5]"] ;
16 -> 26 ;
27 [label="gini = 0.0\nsamples = 113\nvalue = [113, 0]"] ;
26 -> 27 ;
28 [label="term <= 1983.0\ngini = 0.351\nsamples = 22\nvalue = [17, 5]"] ;
26 -> 28 ;
29 [label="gini = 0.0\nsamples = 5\nvalue = [0, 5]"] ;
28 -> 29 ;
30 [label="gini = 0.0\nsamples = 17\nvalue = [17, 0]"] ;
28 -> 30 ;
31 [label="gini = 0.0\nsamples = 2032\nvalue = [2032, 0]"] ;
15 -> 31 ;
32 [label="lcDisposition <= 8.5\ngini = 0.105\nsamples = 430\nvalue = [406, 24]"] ;
14 -> 32 ;
33 [label="respondent <= 3.5\ngini = 0.053\nsamples = 405\nvalue = [394, 11]"] ;
32 -> 33 ;
34 [label="gini = 0.0\nsamples = 5\nvalue = [0, 5]"] ;
33 -> 34 ;
35 [label="yearOfCaseInitiate <= 1983.5\ngini = 0.03\nsamples = 400\nvalue = [394, 6]"] ;
33 -> 35 ;
36 [label="gini = 0.0\nsamples = 343\nvalue = [343, 0]"] ;
35 -> 36 ;
37 [label="majOpinWriter <= 101.5\ngini = 0.188\nsamples = 57\nvalue = [51, 6]"] ;
35 -> 37 ;
38 [label="lcDisposition <= 2.5\ngini = 0.444\nsamples = 18\nvalue = [12, 6]"] ;
37 -> 38 ;
39 [label="gini = 0.0\nsamples = 12\nvalue = [12, 0]"] ;
38 -> 39 ;
40 [label="gini = 0.0\nsamples = 6\nvalue = [0, 6]"] ;
38 -> 40 ;
41 [label="gini = 0.0\nsamples = 39\nvalue = [39, 0]"] ;
37 -> 41 ;
42 [label="majOpinWriter <= 91.0\ngini = 0.499\nsamples = 25\nvalue = [12, 13]"] ;
32 -> 42 ;
43 [label="gini = 0.0\nsamples = 13\nvalue = [0, 13]"] ;
42 -> 43 ;
44 [label="gini = 0.0\nsamples = 12\nvalue = [12, 0]"] ;
42 -> 44 ;
45 [label="caseSource <= 30.0\ngini = 0.355\nsamples = 26\nvalue = [20, 6]"] ;
13 -> 45 ;
46 [label="gini = 0.0\nsamples = 20\nvalue = [20, 0]"] ;
45 -> 46 ;
47 [label="gini = 0.0\nsamples = 6\nvalue = [0, 6]"] ;
45 -> 47 ;
48 [label="petitioner <= 251.5\ngini = 0.5\nsamples = 14\nvalue = [7, 7]"] ;
12 -> 48 ;
49 [label="gini = 0.0\nsamples = 7\nvalue = [7, 0]"] ;
48 -> 49 ;
50 [label="gini = 0.0\nsamples = 7\nvalue = [0, 7]"] ;
48 -> 50 ;
51 [label="respondent <= 240.5\ngini = 0.007\nsamples = 9611\nvalue = [9577, 34]"] ;
11 -> 51 ;
52 [label="respondent <= 22.5\ngini = 0.005\nsamples = 9224\nvalue = [9199, 25]"] ;
51 -> 52 ;
53 [label="authorityDecision2 <= 1.5\ngini = 0.017\nsamples = 2062\nvalue = [2044, 18]"] ;
52 -> 53 ;
54 [label="respondent <= 20.5\ngini = 0.013\nsamples = 2029\nvalue = [2016, 13]"] ;
53 -> 54 ;
55 [label="petitioner <= 243.5\ngini = 0.007\nsamples = 1958\nvalue = [1951, 7]"] ;
54 -> 55 ;
56 [label="gini = 0.0\nsamples = 1710\nvalue = [1710, 0]"] ;
55 -> 56 ;
57 [label="yearOfDecision <= 1954.0\ngini = 0.055\nsamples = 248\nvalue = [241, 7]"] ;
55 -> 57 ;
58 [label="lcDisposition <= 2.5\ngini = 0.237\nsamples = 51\nvalue = [44, 7]"] ;
57 -> 58 ;
59 [label="gini = 0.0\nsamples = 7\nvalue = [0, 7]"] ;
58 -> 59 ;
60 [label="gini = 0.0\nsamples = 44\nvalue = [44, 0]"] ;
58 -> 60 ;
61 [label="gini = 0.0\nsamples = 197\nvalue = [197, 0]"] ;
57 -> 61 ;
62 [label="argumentMade <= 0.5\ngini = 0.155\nsamples = 71\nvalue = [65, 6]"] ;
54 -> 62 ;
63 [label="gini = 0.0\nsamples = 6\nvalue = [0, 6]"] ;
62 -> 63 ;
64 [label="gini = 0.0\nsamples = 65\nvalue = [65, 0]"] ;
62 -> 64 ;
65 [label="issue <= 100090.0\ngini = 0.257\nsamples = 33\nvalue = [28, 5]"] ;
53 -> 65 ;
66 [label="gini = 0.0\nsamples = 28\nvalue = [28, 0]"] ;
65 -> 66 ;
67 [label="gini = 0.0\nsamples = 5\nvalue = [0, 5]"] ;
65 -> 67 ;
68 [label="yearOfDecision <= 1984.5\ngini = 0.002\nsamples = 7162\nvalue = [7155, 7]"] ;
52 -> 68 ;
69 [label="gini = 0.0\nsamples = 6382\nvalue = [6382, 0]"] ;
68 -> 69 ;
70 [label="term <= 1984.5\ngini = 0.018\nsamples = 780\nvalue = [773, 7]"] ;
68 -> 70 ;
71 [label="caseOriginState <= 24.5\ngini = 0.13\nsamples = 100\nvalue = [93, 7]"] ;
70 -> 71 ;
72 [label="gini = 0.0\nsamples = 85\nvalue = [85, 0]"] ;
71 -> 72 ;
73 [label="issueArea <= 1.5\ngini = 0.498\nsamples = 15\nvalue = [8, 7]"] ;
71 -> 73 ;
74 [label="gini = 0.0\nsamples = 7\nvalue = [0, 7]"] ;
73 -> 74 ;
75 [label="gini = 0.0\nsamples = 8\nvalue = [8, 0]"] ;
73 -> 75 ;
76 [label="gini = 0.0\nsamples = 680\nvalue = [680, 0]"] ;
70 -> 76 ;
77 [label="respondent <= 242.5\ngini = 0.045\nsamples = 387\nvalue = [378, 9]"] ;
51 -> 77 ;
78 [label="gini = 0.0\nsamples = 9\nvalue = [0, 9]"] ;
77 -> 78 ;
79 [label="gini = 0.0\nsamples = 378\nvalue = [378, 0]"] ;
77 -> 79 ;
80 [label="issue <= 80105.0\ngini = 0.12\nsamples = 109\nvalue = [102, 7]"] ;
4 -> 80 ;
81 [label="gini = 0.0\nsamples = 102\nvalue = [102, 0]"] ;
80 -> 81 ;
82 [label="gini = 0.0\nsamples = 7\nvalue = [0, 7]"] ;
80 -> 82 ;
83 [label="voteUnclear <= 0.5\ngini = 0.048\nsamples = 4084\nvalue = [3984, 100]"] ;
3 -> 83 ;
84 [label="adminAction <= 58.5\ngini = 0.04\nsamples = 4018\nvalue = [3937, 81]"] ;
83 -> 84 ;
85 [label="lcDisagreement <= 0.5\ngini = 0.286\nsamples = 110\nvalue = [91, 19]"] ;
84 -> 85 ;
86 [label="gini = 0.0\nsamples = 91\nvalue = [91, 0]"] ;
85 -> 86 ;
87 [label="gini = 0.0\nsamples = 19\nvalue = [0, 19]"] ;
85 -> 87 ;
88 [label="lcDisposition <= 1.5\ngini = 0.031\nsamples = 3908\nvalue = [3846, 62]"] ;
84 -> 88 ;
89 [label="term <= 1966.5\ngini = 0.262\nsamples = 84\nvalue = [71, 13]"] ;
88 -> 89 ;
90 [label="gini = 0.0\nsamples = 13\nvalue = [0, 13]"] ;
89 -> 90 ;
91 [label="gini = 0.0\nsamples = 71\nvalue = [71, 0]"] ;
89 -> 91 ;
92 [label="majVotes <= 4.5\ngini = 0.025\nsamples = 3824\nvalue = [3775, 49]"] ;
88 -> 92 ;
93 [label="yearOfDecision <= 1983.0\ngini = 0.49\nsamples = 14\nvalue = [8, 6]"] ;
92 -> 93 ;
94 [label="gini = 0.0\nsamples = 8\nvalue = [8, 0]"] ;
93 -> 94 ;
95 [label="gini = 0.0\nsamples = 6\nvalue = [0, 6]"] ;
93 -> 95 ;
96 [label="caseOrigin <= 42.0\ngini = 0.022\nsamples = 3810\nvalue = [3767, 43]"] ;
92 -> 96 ;
97 [label="respondent <= 170.5\ngini = 0.388\nsamples = 19\nvalue = [14, 5]"] ;
96 -> 97 ;
98 [label="gini = 0.0\nsamples = 14\nvalue = [14, 0]"] ;
97 -> 98 ;
99 [label="gini = 0.0\nsamples = 5\nvalue = [0, 5]"] ;
97 -> 99 ;
100 [label="majOpinAssigner <= 78.5\ngini = 0.02\nsamples = 3791\nvalue = [3753, 38]"] ;
96 -> 100 ;
101 [label="minVotes <= 0.5\ngini = 0.18\nsamples = 70\nvalue = [63, 7]"] ;
100 -> 101 ;
102 [label="caseOriginState <= 19.0\ngini = 0.475\nsamples = 18\nvalue = [11, 7]"] ;
101 -> 102 ;
103 [label="gini = 0.0\nsamples = 6\nvalue = [6, 0]"] ;
102 -> 103 ;
104 [label="lcDisagreement <= 0.5\ngini = 0.486\nsamples = 12\nvalue = [5, 7]"] ;
102 -> 104 ;
105 [label="gini = 0.0\nsamples = 7\nvalue = [0, 7]"] ;
104 -> 105 ;
106 [label="gini = 0.0\nsamples = 5\nvalue = [5, 0]"] ;
104 -> 106 ;
107 [label="gini = 0.0\nsamples = 52\nvalue = [52, 0]"] ;
101 -> 107 ;
108 [label="caseSource <= 29.5\ngini = 0.017\nsamples = 3721\nvalue = [3690, 31]"] ;
100 -> 108 ;
109 [label="certReason <= 2.5\ngini = 0.037\nsamples = 1631\nvalue = [1600, 31]"] ;
108 -> 109 ;
110 [label="issue <= 10150.0\ngini = 0.096\nsamples = 455\nvalue = [432, 23]"] ;
109 -> 110 ;
111 [label="term <= 1983.5\ngini = 0.454\nsamples = 23\nvalue = [8, 15]"] ;
110 -> 111 ;
112 [label="gini = 0.0\nsamples = 8\nvalue = [8, 0]"] ;
111 -> 112 ;
113 [label="gini = 0.0\nsamples = 15\nvalue = [0, 15]"] ;
111 -> 113 ;
114 [label="caseOrigin <= 52.0\ngini = 0.036\nsamples = 432\nvalue = [424, 8]"] ;
110 -> 114 ;
115 [label="respondent <= 118.0\ngini = 0.426\nsamples = 26\nvalue = [18, 8]"] ;
114 -> 115 ;
116 [label="gini = 0.0\nsamples = 8\nvalue = [0, 8]"] ;
115 -> 116 ;
117 [label="gini = 0.0\nsamples = 18\nvalue = [18, 0]"] ;
115 -> 117 ;
118 [label="gini = 0.0\nsamples = 406\nvalue = [406, 0]"] ;
114 -> 118 ;
119 [label="majOpinWriter <= 89.5\ngini = 0.014\nsamples = 1176\nvalue = [1168, 8]"] ;
109 -> 119 ;
120 [label="majOpinWriter <= 87.0\ngini = 0.278\nsamples = 48\nvalue = [40, 8]"] ;
119 -> 120 ;
121 [label="gini = 0.0\nsamples = 40\nvalue = [40, 0]"] ;
120 -> 121 ;
122 [label="gini = 0.0\nsamples = 8\nvalue = [0, 8]"] ;
120 -> 122 ;
123 [label="gini = 0.0\nsamples = 1128\nvalue = [1128, 0]"] ;
119 -> 123 ;
124 [label="gini = 0.0\nsamples = 2090\nvalue = [2090, 0]"] ;
108 -> 124 ;
125 [label="respondentState <= 35.0\ngini = 0.41\nsamples = 66\nvalue = [47, 19]"] ;
83 -> 125 ;
126 [label="gini = 0.0\nsamples = 47\nvalue = [47, 0]"] ;
125 -> 126 ;
127 [label="gini = 0.0\nsamples = 19\nvalue = [0, 19]"] ;
125 -> 127 ;
128 [label="certReason <= 1.5\ngini = 0.065\nsamples = 42669\nvalue = [41223, 1446]"] ;
2 -> 128 ;
129 [label="caseOrigin <= 44.5\ngini = 0.112\nsamples = 10787\nvalue = [10146, 641]"] ;
128 -> 129 ;
130 [label="majOpinWriter <= 91.0\ngini = 0.347\nsamples = 390\nvalue = [303, 87]"] ;
129 -> 130 ;
131 [label="yearOfCaseInitiate <= 1963.5\ngini = 0.488\nsamples = 140\nvalue = [59, 81]"] ;
130 -> 131 ;
132 [label="naturalCourt <= 1354.5\ngini = 0.318\nsamples = 101\nvalue = [20, 81]"] ;
131 -> 132 ;
133 [label="gini = 0.0\nsamples = 20\nvalue = [20, 0]"] ;
132 -> 133 ;
134 [label="gini = 0.0\nsamples = 81\nvalue = [0, 81]"] ;
132 -> 134 ;
135 [label="gini = 0.0\nsamples = 39\nvalue = [39, 0]"] ;
131 -> 135 ;
136 [label="jurisdiction <= 10.5\ngini = 0.047\nsamples = 250\nvalue = [244, 6]"] ;
130 -> 136 ;
137 [label="gini = 0.0\nsamples = 244\nvalue = [244, 0]"] ;
136 -> 137 ;
138 [label="gini = 0.0\nsamples = 6\nvalue = [0, 6]"] ;
136 -> 138 ;
139 [label="jurisdiction <= 1.5\ngini = 0.101\nsamples = 10397\nvalue = [9843, 554]"] ;
129 -> 139 ;
140 [label="minVotes <= 1.5\ngini = 0.412\nsamples = 138\nvalue = [98, 40]"] ;
139 -> 140 ;
141 [label="caseOriginState <= 4.5\ngini = 0.484\nsamples = 68\nvalue = [28, 40]"] ;
140 -> 141 ;
142 [label="gini = 0.0\nsamples = 11\nvalue = [11, 0]"] ;
141 -> 142 ;
143 [label="majOpinAssigner <= 88.5\ngini = 0.419\nsamples = 57\nvalue = [17, 40]"] ;
141 -> 143 ;
144 [label="justice <= 79.5\ngini = 0.489\nsamples = 40\nvalue = [17, 23]"] ;
143 -> 144 ;
145 [label="opinion <= 0.5\ngini = 0.5\nsamples = 8\nvalue = [4, 4]"] ;
144 -> 145 ;
146 [label="gini = 0.5\nsamples = 4\nvalue = [2, 2]"] ;
145 -> 146 ;
147 [label="gini = 0.5\nsamples = 4\nvalue = [2, 2]"] ;
145 -> 147 ;
148 [label="justiceNameEncode <= 5.5\ngini = 0.482\nsamples = 32\nvalue = [13, 19]"] ;
144 -> 148 ;
149 [label="justiceNameEncode <= 1.5\ngini = 0.475\nsamples = 18\nvalue = [7, 11]"] ;
148 -> 149 ;
150 [label="vote <= 4.0\ngini = 0.48\nsamples = 10\nvalue = [4, 6]"] ;
149 -> 150 ;
151 [label="gini = 0.48\nsamples = 5\nvalue = [2, 3]"] ;
150 -> 151 ;
152 [label="gini = 0.48\nsamples = 5\nvalue = [2, 3]"] ;
150 -> 152 ;
153 [label="opinion <= 1.5\ngini = 0.469\nsamples = 8\nvalue = [3, 5]"] ;
149 -> 153 ;
154 [label="gini = 0.444\nsamples = 3\nvalue = [1, 2]"] ;
153 -> 154 ;
155 [label="gini = 0.48\nsamples = 5\nvalue = [2, 3]"] ;
153 -> 155 ;
156 [label="justiceNameEncode <= 8.5\ngini = 0.49\nsamples = 14\nvalue = [6, 8]"] ;
148 -> 156 ;
157 [label="gini = 0.5\nsamples = 4\nvalue = [2, 2]"] ;
156 -> 157 ;
158 [label="vote <= 0.5\ngini = 0.48\nsamples = 10\nvalue = [4, 6]"] ;
156 -> 158 ;
159 [label="gini = 0.48\nsamples = 5\nvalue = [2, 3]"] ;
158 -> 159 ;
160 [label="gini = 0.48\nsamples = 5\nvalue = [2, 3]"] ;
158 -> 160 ;
161 [label="gini = 0.0\nsamples = 17\nvalue = [0, 17]"] ;
143 -> 161 ;
162 [label="gini = 0.0\nsamples = 70\nvalue = [70, 0]"] ;
140 -> 162 ;
163 [label="majVotes <= 3.5\ngini = 0.095\nsamples = 10259\nvalue = [9745, 514]"] ;
139 -> 163 ;
164 [label="gini = 0.0\nsamples = 5\nvalue = [0, 5]"] ;
163 -> 164 ;
165 [label="adminActionState <= 6.5\ngini = 0.094\nsamples = 10254\nvalue = [9745, 509]"] ;
163 -> 165 ;
166 [label="petitionerState <= 36.0\ngini = 0.108\nsamples = 8897\nvalue = [8388, 509]"] ;
165 -> 166 ;
167 [label="jurisdiction <= 5.5\ngini = 0.094\nsamples = 8052\nvalue = [7656, 396]"] ;
166 -> 167 ;
168 [label="yearOfCaseInitiate <= 1974.5\ngini = 0.087\nsamples = 7759\nvalue = [7406, 353]"] ;
167 -> 168 ;
169 [label="adminActionState <= 5.5\ngini = 0.108\nsamples = 5777\nvalue = [5447, 330]"] ;
168 -> 169 ;
170 [label="yearOfDecision <= 1967.5\ngini = 0.104\nsamples = 5732\nvalue = [5417, 315]"] ;
169 -> 170 ;
171 [label="lcDisposition <= 3.5\ngini = 0.076\nsamples = 3936\nvalue = [3780, 156]"] ;
170 -> 171 ;
172 [label="adminAction <= 33.0\ngini = 0.095\nsamples = 2995\nvalue = [2845, 150]"] ;
171 -> 172 ;
173 [label="lcDisposition <= 2.5\ngini = 0.426\nsamples = 39\nvalue = [27, 12]"] ;
172 -> 173 ;
174 [label="gini = 0.0\nsamples = 27\nvalue = [27, 0]"] ;
173 -> 174 ;
175 [label="gini = 0.0\nsamples = 12\nvalue = [0, 12]"] ;
173 -> 175 ;
176 [label="yearOfDecision <= 1950.5\ngini = 0.089\nsamples = 2956\nvalue = [2818, 138]"] ;
172 -> 176 ;
177 [label="gini = 0.0\nsamples = 553\nvalue = [553, 0]"] ;
176 -> 177 ;
178 [label="yearOfCaseInitiate <= 1950.5\ngini = 0.108\nsamples = 2403\nvalue = [2265, 138]"] ;
176 -> 178 ;
179 [label="caseOriginState <= 29.0\ngini = 0.433\nsamples = 60\nvalue = [41, 19]"] ;
178 -> 179 ;
180 [label="gini = 0.0\nsamples = 41\nvalue = [41, 0]"] ;
179 -> 180 ;
181 [label="gini = 0.0\nsamples = 19\nvalue = [0, 19]"] ;
179 -> 181 ;
182 [label="caseSourceState <= 20.5\ngini = 0.096\nsamples = 2343\nvalue = [2224, 119]"] ;
178 -> 182 ;
183 [label="argumentMade <= 0.5\ngini = 0.123\nsamples = 1813\nvalue = [1694, 119]"] ;
182 -> 183 ;
184 [label="caseOriginState <= 9.0\ngini = 0.239\nsamples = 332\nvalue = [286, 46]"] ;
183 -> 184 ;
185 [label="caseOrigin <= 54.5\ngini = 0.156\nsamples = 305\nvalue = [279, 26]"] ;
184 -> 185 ;
186 [label="caseSource <= 51.5\ngini = 0.494\nsamples = 45\nvalue = [25, 20]"] ;
185 -> 186 ;
187 [label="gini = 0.0\nsamples = 25\nvalue = [25, 0]"] ;
186 -> 187 ;
188 [label="gini = 0.0\nsamples = 20\nvalue = [0, 20]"] ;
186 -> 188 ;
189 [label="respondent <= 235.0\ngini = 0.045\nsamples = 260\nvalue = [254, 6]"] ;
185 -> 189 ;
190 [label="gini = 0.0\nsamples = 246\nvalue = [246, 0]"] ;
189 -> 190 ;
191 [label="yearOfCaseInitiate <= 1963.5\ngini = 0.49\nsamples = 14\nvalue = [8, 6]"] ;
189 -> 191 ;
192 [label="gini = 0.0\nsamples = 6\nvalue = [0, 6]"] ;
191 -> 192 ;
193 [label="gini = 0.0\nsamples = 8\nvalue = [8, 0]"] ;
191 -> 193 ;
194 [label="minVotes <= 0.5\ngini = 0.384\nsamples = 27\nvalue = [7, 20]"] ;
184 -> 194 ;
195 [label="gini = 0.0\nsamples = 20\nvalue = [0, 20]"] ;
194 -> 195 ;
196 [label="gini = 0.0\nsamples = 7\nvalue = [7, 0]"] ;
194 -> 196 ;
197 [label="issue <= 80025.0\ngini = 0.094\nsamples = 1481\nvalue = [1408, 73]"] ;
183 -> 197 ;
198 [label="caseOrigin <= 111.0\ngini = 0.148\nsamples = 905\nvalue = [832, 73]"] ;
197 -> 198 ;
199 [label="petitioner <= 367.0\ngini = 0.096\nsamples = 769\nvalue = [730, 39]"] ;
198 -> 199 ;
200 [label="lawSupp <= 314.0\ngini = 0.082\nsamples = 751\nvalue = [719, 32]"] ;
199 -> 200 ;
201 [label="yearOfDecision <= 1954.5\ngini = 0.245\nsamples = 175\nvalue = [150, 25]"] ;
200 -> 201 ;
202 [label="threeJudgeFdc <= 0.5\ngini = 0.375\nsamples = 16\nvalue = [4, 12]"] ;
201 -> 202 ;
203 [label="gini = 0.0\nsamples = 12\nvalue = [0, 12]"] ;
202 -> 203 ;
204 [label="gini = 0.0\nsamples = 4\nvalue = [4, 0]"] ;
202 -> 204 ;
205 [label="authorityDecision1 <= 2.5\ngini = 0.15\nsamples = 159\nvalue = [146, 13]"] ;
201 -> 205 ;
206 [label="gini = 0.0\nsamples = 109\nvalue = [109, 0]"] ;
205 -> 206 ;
207 [label="minVotes <= 0.5\ngini = 0.385\nsamples = 50\nvalue = [37, 13]"] ;
205 -> 207 ;
208 [label="gini = 0.0\nsamples = 32\nvalue = [32, 0]"] ;
207 -> 208 ;
209 [label="lcDisagreement <= 0.5\ngini = 0.401\nsamples = 18\nvalue = [5, 13]"] ;
207 -> 209 ;
210 [label="gini = 0.0\nsamples = 13\nvalue = [0, 13]"] ;
209 -> 210 ;
211 [label="gini = 0.0\nsamples = 5\nvalue = [5, 0]"] ;
209 -> 211 ;
212 [label="term <= 1953.5\ngini = 0.024\nsamples = 576\nvalue = [569, 7]"] ;
200 -> 212 ;
213 [label="issue <= 75025.0\ngini = 0.117\nsamples = 112\nvalue = [105, 7]"] ;
212 -> 213 ;
214 [label="gini = 0.0\nsamples = 97\nvalue = [97, 0]"] ;
213 -> 214 ;
215 [label="lawSupp <= 470.5\ngini = 0.498\nsamples = 15\nvalue = [8, 7]"] ;
213 -> 215 ;
216 [label="gini = 0.0\nsamples = 8\nvalue = [8, 0]"] ;
215 -> 216 ;
217 [label="gini = 0.0\nsamples = 7\nvalue = [0, 7]"] ;
215 -> 217 ;
218 [label="gini = 0.0\nsamples = 464\nvalue = [464, 0]"] ;
212 -> 218 ;
219 [label="respondent <= 158.5\ngini = 0.475\nsamples = 18\nvalue = [11, 7]"] ;
199 -> 219 ;
220 [label="gini = 0.0\nsamples = 7\nvalue = [0, 7]"] ;
219 -> 220 ;
221 [label="gini = 0.0\nsamples = 11\nvalue = [11, 0]"] ;
219 -> 221 ;
222 [label="caseSource <= 115.0\ngini = 0.375\nsamples = 136\nvalue = [102, 34]"] ;
198 -> 222 ;
223 [label="gini = 0.0\nsamples = 24\nvalue = [0, 24]"] ;
222 -> 223 ;
224 [label="term <= 1953.5\ngini = 0.163\nsamples = 112\nvalue = [102, 10]"] ;
222 -> 224 ;
225 [label="gini = 0.0\nsamples = 10\nvalue = [0, 10]"] ;
224 -> 225 ;
226 [label="gini = 0.0\nsamples = 102\nvalue = [102, 0]"] ;
224 -> 226 ;
227 [label="gini = 0.0\nsamples = 576\nvalue = [576, 0]"] ;
197 -> 227 ;
228 [label="gini = 0.0\nsamples = 530\nvalue = [530, 0]"] ;
182 -> 228 ;
229 [label="lcDisposition <= 10.0\ngini = 0.013\nsamples = 941\nvalue = [935, 6]"] ;
171 -> 229 ;
230 [label="gini = 0.0\nsamples = 900\nvalue = [900, 0]"] ;
229 -> 230 ;
231 [label="petitioner <= 305.5\ngini = 0.25\nsamples = 41\nvalue = [35, 6]"] ;
229 -> 231 ;
232 [label="gini = 0.0\nsamples = 31\nvalue = [31, 0]"] ;
231 -> 232 ;
233 [label="threeJudgeFdc <= 0.5\ngini = 0.48\nsamples = 10\nvalue = [4, 6]"] ;
231 -> 233 ;
234 [label="gini = 0.0\nsamples = 4\nvalue = [4, 0]"] ;
233 -> 234 ;
235 [label="gini = 0.0\nsamples = 6\nvalue = [0, 6]"] ;
233 -> 235 ;
236 [label="lcDisposition <= 8.5\ngini = 0.161\nsamples = 1796\nvalue = [1637, 159]"] ;
170 -> 236 ;
237 [label="majOpinWriter <= 85.5\ngini = 0.111\nsamples = 1665\nvalue = [1567, 98]"] ;
236 -> 237 ;
238 [label="caseSource <= 70.5\ngini = 0.316\nsamples = 244\nvalue = [196, 48]"] ;
237 -> 238 ;
239 [label="gini = 0.0\nsamples = 114\nvalue = [114, 0]"] ;
238 -> 239 ;
240 [label="authorityDecision1 <= 3.5\ngini = 0.466\nsamples = 130\nvalue = [82, 48]"] ;
238 -> 240 ;
241 [label="caseOrigin <= 78.0\ngini = 0.273\nsamples = 98\nvalue = [82, 16]"] ;
240 -> 241 ;
242 [label="gini = 0.0\nsamples = 6\nvalue = [0, 6]"] ;
241 -> 242 ;
243 [label="majOpinAssigner <= 79.5\ngini = 0.194\nsamples = 92\nvalue = [82, 10]"] ;
241 -> 243 ;
244 [label="lcDispositionDirection <= 1.5\ngini = 0.466\nsamples = 27\nvalue = [17, 10]"] ;
243 -> 244 ;
245 [label="gini = 0.0\nsamples = 10\nvalue = [0, 10]"] ;
244 -> 245 ;
246 [label="gini = 0.0\nsamples = 17\nvalue = [17, 0]"] ;
244 -> 246 ;
247 [label="gini = 0.0\nsamples = 65\nvalue = [65, 0]"] ;
243 -> 247 ;
248 [label="gini = 0.0\nsamples = 32\nvalue = [0, 32]"] ;
240 -> 248 ;
249 [label="majVotes <= 8.5\ngini = 0.068\nsamples = 1421\nvalue = [1371, 50]"] ;
237 -> 249 ;
250 [label="issue <= 20035.0\ngini = 0.035\nsamples = 1176\nvalue = [1155, 21]"] ;
249 -> 250 ;
251 [label="petitionerState <= 8.5\ngini = 0.195\nsamples = 192\nvalue = [171, 21]"] ;
250 -> 251 ;
252 [label="issue <= 20025.0\ngini = 0.148\nsamples = 186\nvalue = [171, 15]"] ;
251 -> 252 ;
253 [label="gini = 0.0\nsamples = 151\nvalue = [151, 0]"] ;
252 -> 253 ;
254 [label="respondentState <= 3.0\ngini = 0.49\nsamples = 35\nvalue = [20, 15]"] ;
252 -> 254 ;
255 [label="gini = 0.0\nsamples = 6\nvalue = [6, 0]"] ;
254 -> 255 ;
256 [label="lcDispositionDirection <= 1.5\ngini = 0.499\nsamples = 29\nvalue = [14, 15]"] ;
254 -> 256 ;
257 [label="caseSource <= 86.0\ngini = 0.463\nsamples = 22\nvalue = [14, 8]"] ;
256 -> 257 ;
258 [label="gini = 0.0\nsamples = 8\nvalue = [8, 0]"] ;
257 -> 258 ;
259 [label="justiceNameEncode <= 22.5\ngini = 0.49\nsamples = 14\nvalue = [6, 8]"] ;
257 -> 259 ;
260 [label="justiceNameEncode <= 20.5\ngini = 0.497\nsamples = 13\nvalue = [6, 7]"] ;
259 -> 260 ;
261 [label="justiceNameEncode <= 19.5\ngini = 0.5\nsamples = 10\nvalue = [5, 5]"] ;
260 -> 261 ;
262 [label="justiceNameEncode <= 17.5\ngini = 0.494\nsamples = 9\nvalue = [4, 5]"] ;
261 -> 262 ;
263 [label="opinion <= 1.5\ngini = 0.5\nsamples = 8\nvalue = [4, 4]"] ;
262 -> 263 ;
264 [label="justice <= 93.0\ngini = 0.5\nsamples = 4\nvalue = [2, 2]"] ;
263 -> 264 ;
265 [label="gini = 0.5\nsamples = 2\nvalue = [1, 1]"] ;
264 -> 265 ;
266 [label="gini = 0.5\nsamples = 2\nvalue = [1, 1]"] ;
264 -> 266 ;
267 [label="vote <= 1.5\ngini = 0.5\nsamples = 4\nvalue = [2, 2]"] ;
263 -> 267 ;
268 [label="gini = 0.5\nsamples = 2\nvalue = [1, 1]"] ;
267 -> 268 ;
269 [label="gini = 0.5\nsamples = 2\nvalue = [1, 1]"] ;
267 -> 269 ;
270 [label="gini = 0.0\nsamples = 1\nvalue = [0, 1]"] ;
262 -> 270 ;
271 [label="gini = 0.0\nsamples = 1\nvalue = [1, 0]"] ;
261 -> 271 ;
272 [label="justice <= 100.5\ngini = 0.444\nsamples = 3\nvalue = [1, 2]"] ;
260 -> 272 ;
273 [label="gini = 0.0\nsamples = 1\nvalue = [0, 1]"] ;
272 -> 273 ;
274 [label="gini = 0.5\nsamples = 2\nvalue = [1, 1]"] ;
272 -> 274 ;
275 [label="gini = 0.0\nsamples = 1\nvalue = [0, 1]"] ;
259 -> 275 ;
276 [label="gini = 0.0\nsamples = 7\nvalue = [0, 7]"] ;
256 -> 276 ;
277 [label="gini = 0.0\nsamples = 6\nvalue = [0, 6]"] ;
251 -> 277 ;
278 [label="gini = 0.0\nsamples = 984\nvalue = [984, 0]"] ;
250 -> 278 ;
279 [label="caseOrigin <= 55.5\ngini = 0.209\nsamples = 245\nvalue = [216, 29]"] ;
249 -> 279 ;
280 [label="yearOfDecision <= 1972.5\ngini = 0.483\nsamples = 54\nvalue = [32, 22]"] ;
279 -> 280 ;
281 [label="gini = 0.0\nsamples = 26\nvalue = [26, 0]"] ;
280 -> 281 ;
282 [label="authorityDecision2 <= 5.0\ngini = 0.337\nsamples = 28\nvalue = [6, 22]"] ;
280 -> 282 ;
283 [label="gini = 0.0\nsamples = 22\nvalue = [0, 22]"] ;
282 -> 283 ;
284 [label="gini = 0.0\nsamples = 6\nvalue = [6, 0]"] ;
282 -> 284 ;
285 [label="reargMade <= 0.5\ngini = 0.071\nsamples = 191\nvalue = [184, 7]"] ;
279 -> 285 ;
286 [label="gini = 0.0\nsamples = 184\nvalue = [184, 0]"] ;
285 -> 286 ;
287 [label="gini = 0.0\nsamples = 7\nvalue = [0, 7]"] ;
285 -> 287 ;
288 [label="respondentState <= 11.5\ngini = 0.498\nsamples = 131\nvalue = [70, 61]"] ;
236 -> 288 ;
289 [label="majOpinWriter <= 87.5\ngini = 0.442\nsamples = 91\nvalue = [30, 61]"] ;
288 -> 289 ;
290 [label="gini = 0.0\nsamples = 30\nvalue = [30, 0]"] ;
289 -> 290 ;
291 [label="gini = 0.0\nsamples = 61\nvalue = [0, 61]"] ;
289 -> 291 ;
292 [label="gini = 0.0\nsamples = 40\nvalue = [40, 0]"] ;
288 -> 292 ;
293 [label="respondent <= 71.0\ngini = 0.444\nsamples = 45\nvalue = [30, 15]"] ;
169 -> 293 ;
294 [label="gini = 0.0\nsamples = 15\nvalue = [0, 15]"] ;
293 -> 294 ;
295 [label="gini = 0.0\nsamples = 30\nvalue = [30, 0]"] ;
293 -> 295 ;
296 [label="caseOrigin <= 48.5\ngini = 0.023\nsamples = 1982\nvalue = [1959, 23]"] ;
168 -> 296 ;
297 [label="caseSource <= 37.0\ngini = 0.147\nsamples = 150\nvalue = [138, 12]"] ;
296 -> 297 ;
298 [label="decisionDirection <= 1.5\ngini = 0.42\nsamples = 40\nvalue = [28, 12]"] ;
297 -> 298 ;
299 [label="gini = 0.0\nsamples = 28\nvalue = [28, 0]"] ;
298 -> 299 ;
300 [label="gini = 0.0\nsamples = 12\nvalue = [0, 12]"] ;
298 -> 300 ;
301 [label="gini = 0.0\nsamples = 110\nvalue = [110, 0]"] ;
297 -> 301 ;
302 [label="majVotes <= 8.5\ngini = 0.012\nsamples = 1832\nvalue = [1821, 11]"] ;
296 -> 302 ;
303 [label="gini = 0.0\nsamples = 1293\nvalue = [1293, 0]"] ;
302 -> 303 ;
304 [label="petitioner <= 27.5\ngini = 0.04\nsamples = 539\nvalue = [528, 11]"] ;
302 -> 304 ;
305 [label="lcDisposition <= 2.5\ngini = 0.198\nsamples = 54\nvalue = [48, 6]"] ;
304 -> 305 ;
306 [label="gini = 0.0\nsamples = 48\nvalue = [48, 0]"] ;
305 -> 306 ;
307 [label="gini = 0.0\nsamples = 6\nvalue = [0, 6]"] ;
305 -> 307 ;
308 [label="term <= 1975.5\ngini = 0.02\nsamples = 485\nvalue = [480, 5]"] ;
304 -> 308 ;
309 [label="caseSource <= 94.5\ngini = 0.183\nsamples = 49\nvalue = [44, 5]"] ;
308 -> 309 ;
310 [label="gini = 0.0\nsamples = 37\nvalue = [37, 0]"] ;
309 -> 310 ;
311 [label="caseSource <= 198.0\ngini = 0.486\nsamples = 12\nvalue = [7, 5]"] ;
309 -> 311 ;
312 [label="gini = 0.0\nsamples = 5\nvalue = [0, 5]"] ;
311 -> 312 ;
313 [label="gini = 0.0\nsamples = 7\nvalue = [7, 0]"] ;
311 -> 313 ;
314 [label="gini = 0.0\nsamples = 436\nvalue = [436, 0]"] ;
308 -> 314 ;
315 [label="caseSource <= 226.5\ngini = 0.25\nsamples = 293\nvalue = [250, 43]"] ;
167 -> 315 ;
316 [label="majOpinAssigner <= 100.5\ngini = 0.17\nsamples = 267\nvalue = [242, 25]"] ;
315 -> 316 ;
317 [label="majOpinAssigner <= 79.0\ngini = 0.129\nsamples = 260\nvalue = [242, 18]"] ;
316 -> 317 ;
318 [label="naturalCourt <= 1404.0\ngini = 0.486\nsamples = 12\nvalue = [5, 7]"] ;
317 -> 318 ;
319 [label="gini = 0.0\nsamples = 5\nvalue = [5, 0]"] ;
318 -> 319 ;
320 [label="gini = 0.0\nsamples = 7\nvalue = [0, 7]"] ;
318 -> 320 ;
321 [label="issue <= 90405.0\ngini = 0.085\nsamples = 248\nvalue = [237, 11]"] ;
317 -> 321 ;
322 [label="gini = 0.0\nsamples = 182\nvalue = [182, 0]"] ;
321 -> 322 ;
323 [label="caseSource <= 25.0\ngini = 0.278\nsamples = 66\nvalue = [55, 11]"] ;
321 -> 323 ;
324 [label="gini = 0.0\nsamples = 7\nvalue = [0, 7]"] ;
323 -> 324 ;
325 [label="petitioner <= 245.5\ngini = 0.126\nsamples = 59\nvalue = [55, 4]"] ;
323 -> 325 ;
326 [label="gini = 0.0\nsamples = 55\nvalue = [55, 0]"] ;
325 -> 326 ;
327 [label="gini = 0.0\nsamples = 4\nvalue = [0, 4]"] ;
325 -> 327 ;
328 [label="gini = 0.0\nsamples = 7\nvalue = [0, 7]"] ;
316 -> 328 ;
329 [label="respondentState <= 20.5\ngini = 0.426\nsamples = 26\nvalue = [8, 18]"] ;
315 -> 329 ;
330 [label="gini = 0.0\nsamples = 18\nvalue = [0, 18]"] ;
329 -> 330 ;
331 [label="gini = 0.0\nsamples = 8\nvalue = [8, 0]"] ;
329 -> 331 ;
332 [label="lcDisposition <= 10.5\ngini = 0.232\nsamples = 845\nvalue = [732, 113]"] ;
166 -> 332 ;
333 [label="respondent <= 245.5\ngini = 0.197\nsamples = 823\nvalue = [732, 91]"] ;
332 -> 333 ;
334 [label="issue <= 15030.0\ngini = 0.082\nsamples = 559\nvalue = [535, 24]"] ;
333 -> 334 ;
335 [label="gini = 0.0\nsamples = 6\nvalue = [0, 6]"] ;
334 -> 335 ;
336 [label="lcDisposition <= 7.0\ngini = 0.063\nsamples = 553\nvalue = [535, 18]"] ;
334 -> 336 ;
337 [label="respondentState <= 58.0\ngini = 0.041\nsamples = 527\nvalue = [516, 11]"] ;
336 -> 337 ;
338 [label="petitionerState <= 37.5\ngini = 0.027\nsamples = 505\nvalue = [498, 7]"] ;
337 -> 338 ;
339 [label="majVotes <= 8.0\ngini = 0.178\nsamples = 71\nvalue = [64, 7]"] ;
338 -> 339 ;
340 [label="gini = 0.0\nsamples = 50\nvalue = [50, 0]"] ;
339 -> 340 ;
341 [label="caseOrigin <= 95.0\ngini = 0.444\nsamples = 21\nvalue = [14, 7]"] ;
339 -> 341 ;
342 [label="gini = 0.0\nsamples = 14\nvalue = [14, 0]"] ;
341 -> 342 ;
343 [label="gini = 0.0\nsamples = 7\nvalue = [0, 7]"] ;
341 -> 343 ;
344 [label="gini = 0.0\nsamples = 434\nvalue = [434, 0]"] ;
338 -> 344 ;
345 [label="lawSupp <= 342.0\ngini = 0.298\nsamples = 22\nvalue = [18, 4]"] ;
337 -> 345 ;
346 [label="gini = 0.0\nsamples = 4\nvalue = [0, 4]"] ;
345 -> 346 ;
347 [label="gini = 0.0\nsamples = 18\nvalue = [18, 0]"] ;
345 -> 347 ;
348 [label="decisionDirection <= 1.5\ngini = 0.393\nsamples = 26\nvalue = [19, 7]"] ;
336 -> 348 ;
349 [label="gini = 0.0\nsamples = 7\nvalue = [0, 7]"] ;
348 -> 349 ;
350 [label="gini = 0.0\nsamples = 19\nvalue = [19, 0]"] ;
348 -> 350 ;
351 [label="caseSource <= 102.5\ngini = 0.379\nsamples = 264\nvalue = [197, 67]"] ;
333 -> 351 ;
352 [label="gini = 0.0\nsamples = 138\nvalue = [138, 0]"] ;
351 -> 352 ;
353 [label="minVotes <= 0.5\ngini = 0.498\nsamples = 126\nvalue = [59, 67]"] ;
351 -> 353 ;
354 [label="gini = 0.0\nsamples = 43\nvalue = [43, 0]"] ;
353 -> 354 ;
355 [label="petitioner <= 23.5\ngini = 0.311\nsamples = 83\nvalue = [16, 67]"] ;
353 -> 355 ;
356 [label="gini = 0.0\nsamples = 67\nvalue = [0, 67]"] ;
355 -> 356 ;
357 [label="gini = 0.0\nsamples = 16\nvalue = [16, 0]"] ;
355 -> 357 ;
358 [label="gini = 0.0\nsamples = 22\nvalue = [0, 22]"] ;
332 -> 358 ;
359 [label="gini = 0.0\nsamples = 1357\nvalue = [1357, 0]"] ;
165 -> 359 ;
360 [label="decisionDirectionDissent <= 0.5\ngini = 0.049\nsamples = 31882\nvalue = [31077, 805]"] ;
128 -> 360 ;
361 [label="jurisdiction <= 7.0\ngini = 0.046\nsamples = 31533\nvalue = [30790, 743]"] ;
360 -> 361 ;
362 [label="lawType <= 8.5\ngini = 0.046\nsamples = 31525\nvalue = [30790, 735]"] ;
361 -> 362 ;
363 [label="respondentState <= 60.5\ngini = 0.045\nsamples = 31484\nvalue = [30764, 720]"] ;
362 -> 363 ;
364 [label="respondent <= 410.0\ngini = 0.044\nsamples = 31480\nvalue = [30764, 716]"] ;
363 -> 364 ;
365 [label="majOpinWriter <= 100.5\ngini = 0.043\nsamples = 31238\nvalue = [30554, 684]"] ;
364 -> 365 ;
366 [label="argumentMade <= 0.5\ngini = 0.036\nsamples = 26765\nvalue = [26278, 487]"] ;
365 -> 366 ;
367 [label="yearOfCaseInitiate <= 1951.5\ngini = 0.08\nsamples = 3167\nvalue = [3034, 133]"] ;
366 -> 367 ;
368 [label="naturalCourt <= 1302.0\ngini = 0.5\nsamples = 66\nvalue = [32, 34]"] ;
367 -> 368 ;
369 [label="gini = 0.0\nsamples = 26\nvalue = [26, 0]"] ;
368 -> 369 ;
370 [label="lawMinorPresent <= 0.5\ngini = 0.255\nsamples = 40\nvalue = [6, 34]"] ;
368 -> 370 ;
371 [label="gini = 0.0\nsamples = 34\nvalue = [0, 34]"] ;
370 -> 371 ;
372 [label="gini = 0.0\nsamples = 6\nvalue = [6, 0]"] ;
370 -> 372 ;
373 [label="voteUnclear <= 0.5\ngini = 0.062\nsamples = 3101\nvalue = [3002, 99]"] ;
367 -> 373 ;
374 [label="certReason <= 10.5\ngini = 0.058\nsamples = 3095\nvalue = [3002, 93]"] ;
373 -> 374 ;
375 [label="caseSource <= 31.5\ngini = 0.23\nsamples = 257\nvalue = [223, 34]"] ;
374 -> 375 ;
376 [label="lcDisposition <= 8.5\ngini = 0.041\nsamples = 190\nvalue = [186, 4]"] ;
375 -> 376 ;
377 [label="gini = 0.0\nsamples = 151\nvalue = [151, 0]"] ;
376 -> 377 ;
378 [label="issue <= 55215.0\ngini = 0.184\nsamples = 39\nvalue = [35, 4]"] ;
376 -> 378 ;
379 [label="gini = 0.0\nsamples = 4\nvalue = [0, 4]"] ;
378 -> 379 ;
380 [label="gini = 0.0\nsamples = 35\nvalue = [35, 0]"] ;
378 -> 380 ;
381 [label="minVotes <= 1.5\ngini = 0.495\nsamples = 67\nvalue = [37, 30]"] ;
375 -> 381 ;
382 [label="gini = 0.0\nsamples = 37\nvalue = [37, 0]"] ;
381 -> 382 ;
383 [label="gini = 0.0\nsamples = 30\nvalue = [0, 30]"] ;
381 -> 383 ;
384 [label="petitionerState <= 53.0\ngini = 0.041\nsamples = 2838\nvalue = [2779, 59]"] ;
374 -> 384 ;
385 [label="respondent <= 3.5\ngini = 0.032\nsamples = 2788\nvalue = [2743, 45]"] ;
384 -> 385 ;
386 [label="petitioner <= 23.5\ngini = 0.301\nsamples = 76\nvalue = [62, 14]"] ;
385 -> 386 ;
387 [label="gini = 0.0\nsamples = 14\nvalue = [0, 14]"] ;
386 -> 387 ;
388 [label="gini = 0.0\nsamples = 62\nvalue = [62, 0]"] ;
386 -> 388 ;
389 [label="term <= 1954.5\ngini = 0.023\nsamples = 2712\nvalue = [2681, 31]"] ;
385 -> 389 ;
390 [label="petitioner <= 113.0\ngini = 0.403\nsamples = 25\nvalue = [18, 7]"] ;
389 -> 390 ;
391 [label="gini = 0.0\nsamples = 7\nvalue = [0, 7]"] ;
390 -> 391 ;
392 [label="gini = 0.0\nsamples = 18\nvalue = [18, 0]"] ;
390 -> 392 ;
393 [label="issue <= 90505.0\ngini = 0.018\nsamples = 2687\nvalue = [2663, 24]"] ;
389 -> 393 ;
394 [label="respondent <= 180.5\ngini = 0.013\nsamples = 2609\nvalue = [2592, 17]"] ;
393 -> 394 ;
395 [label="caseOriginState <= 43.0\ngini = 0.004\nsamples = 2046\nvalue = [2042, 4]"] ;
394 -> 395 ;
396 [label="gini = 0.0\nsamples = 1859\nvalue = [1859, 0]"] ;
395 -> 396 ;
397 [label="caseSourceState <= 46.5\ngini = 0.042\nsamples = 187\nvalue = [183, 4]"] ;
395 -> 397 ;
398 [label="term <= 1965.0\ngini = 0.346\nsamples = 18\nvalue = [14, 4]"] ;
397 -> 398 ;
399 [label="gini = 0.0\nsamples = 4\nvalue = [0, 4]"] ;
398 -> 399 ;
400 [label="gini = 0.0\nsamples = 14\nvalue = [14, 0]"] ;
398 -> 400 ;
401 [label="gini = 0.0\nsamples = 169\nvalue = [169, 0]"] ;
397 -> 401 ;
402 [label="respondent <= 184.5\ngini = 0.045\nsamples = 563\nvalue = [550, 13]"] ;
394 -> 402 ;
403 [label="yearOfCaseInitiate <= 1967.0\ngini = 0.455\nsamples = 20\nvalue = [7, 13]"] ;
402 -> 403 ;
404 [label="gini = 0.0\nsamples = 13\nvalue = [0, 13]"] ;
403 -> 404 ;
405 [label="gini = 0.0\nsamples = 7\nvalue = [7, 0]"] ;
403 -> 405 ;
406 [label="gini = 0.0\nsamples = 543\nvalue = [543, 0]"] ;
402 -> 406 ;
407 [label="issue <= 90515.0\ngini = 0.163\nsamples = 78\nvalue = [71, 7]"] ;
393 -> 407 ;
408 [label="gini = 0.0\nsamples = 7\nvalue = [0, 7]"] ;
407 -> 408 ;
409 [label="gini = 0.0\nsamples = 71\nvalue = [71, 0]"] ;
407 -> 409 ;
410 [label="caseOrigin <= 128.0\ngini = 0.403\nsamples = 50\nvalue = [36, 14]"] ;
384 -> 410 ;
411 [label="gini = 0.0\nsamples = 31\nvalue = [31, 0]"] ;
410 -> 411 ;
412 [label="minVotes <= 1.5\ngini = 0.388\nsamples = 19\nvalue = [5, 14]"] ;
410 -> 412 ;
413 [label="gini = 0.0\nsamples = 14\nvalue = [0, 14]"] ;
412 -> 413 ;
414 [label="gini = 0.0\nsamples = 5\nvalue = [5, 0]"] ;
412 -> 414 ;
415 [label="gini = 0.0\nsamples = 6\nvalue = [0, 6]"] ;
373 -> 415 ;
416 [label="authorityDecision2 <= 6.5\ngini = 0.03\nsamples = 23598\nvalue = [23244, 354]"] ;
366 -> 416 ;
417 [label="issue <= 70085.0\ngini = 0.027\nsamples = 22958\nvalue = [22648, 310]"] ;
416 -> 417 ;
418 [label="lcDisposition <= 10.5\ngini = 0.012\nsamples = 9680\nvalue = [9620, 60]"] ;
417 -> 418 ;
419 [label="certReason <= 10.5\ngini = 0.01\nsamples = 9510\nvalue = [9461, 49]"] ;
418 -> 419 ;
420 [label="gini = 0.0\nsamples = 3842\nvalue = [3842, 0]"] ;
419 -> 420 ;
421 [label="voteUnclear <= 0.5\ngini = 0.017\nsamples = 5668\nvalue = [5619, 49]"] ;
419 -> 421 ;
422 [label="lawSupp <= 346.0\ngini = 0.015\nsamples = 5571\nvalue = [5529, 42]"] ;
421 -> 422 ;
423 [label="majOpinAssigner <= 79.5\ngini = 0.005\nsamples = 2573\nvalue = [2567, 6]"] ;
422 -> 423 ;
424 [label="majOpinAssigner <= 78.5\ngini = 0.07\nsamples = 164\nvalue = [158, 6]"] ;
423 -> 424 ;
425 [label="gini = 0.0\nsamples = 145\nvalue = [145, 0]"] ;
424 -> 425 ;
426 [label="issue <= 10315.0\ngini = 0.432\nsamples = 19\nvalue = [13, 6]"] ;
424 -> 426 ;
427 [label="gini = 0.0\nsamples = 6\nvalue = [0, 6]"] ;
426 -> 427 ;
428 [label="gini = 0.0\nsamples = 13\nvalue = [13, 0]"] ;
426 -> 428 ;
429 [label="gini = 0.0\nsamples = 2409\nvalue = [2409, 0]"] ;
423 -> 429 ;
430 [label="lawSupp <= 348.5\ngini = 0.024\nsamples = 2998\nvalue = [2962, 36]"] ;
422 -> 430 ;
431 [label="authorityDecision2 <= 1.5\ngini = 0.245\nsamples = 35\nvalue = [30, 5]"] ;
430 -> 431 ;
432 [label="gini = 0.0\nsamples = 30\nvalue = [30, 0]"] ;
431 -> 432 ;
433 [label="gini = 0.0\nsamples = 5\nvalue = [0, 5]"] ;
431 -> 433 ;
434 [label="respondent <= 143.5\ngini = 0.021\nsamples = 2963\nvalue = [2932, 31]"] ;
430 -> 434 ;
435 [label="issue <= 10055.0\ngini = 0.004\nsamples = 1849\nvalue = [1845, 4]"] ;
434 -> 435 ;
436 [label="caseSource <= 27.5\ngini = 0.027\nsamples = 297\nvalue = [293, 4]"] ;
435 -> 436 ;
437 [label="caseOrigin <= 67.0\ngini = 0.095\nsamples = 80\nvalue = [76, 4]"] ;
436 -> 437 ;
438 [label="majVotes <= 5.5\ngini = 0.463\nsamples = 11\nvalue = [7, 4]"] ;
437 -> 438 ;
439 [label="gini = 0.0\nsamples = 7\nvalue = [7, 0]"] ;
438 -> 439 ;
440 [label="gini = 0.0\nsamples = 4\nvalue = [0, 4]"] ;
438 -> 440 ;
441 [label="gini = 0.0\nsamples = 69\nvalue = [69, 0]"] ;
437 -> 441 ;
442 [label="gini = 0.0\nsamples = 217\nvalue = [217, 0]"] ;
436 -> 442 ;
443 [label="gini = 0.0\nsamples = 1552\nvalue = [1552, 0]"] ;
435 -> 443 ;
444 [label="adminAction <= 115.5\ngini = 0.047\nsamples = 1114\nvalue = [1087, 27]"] ;
434 -> 444 ;
445 [label="majOpinWriter <= 99.5\ngini = 0.034\nsamples = 1054\nvalue = [1036, 18]"] ;
444 -> 445 ;
446 [label="caseOrigin <= 112.5\ngini = 0.025\nsamples = 1033\nvalue = [1020, 13]"] ;
445 -> 446 ;
447 [label="gini = 0.0\nsamples = 882\nvalue = [882, 0]"] ;
446 -> 447 ;
448 [label="respondent <= 148.0\ngini = 0.157\nsamples = 151\nvalue = [138, 13]"] ;
446 -> 448 ;
449 [label="term <= 1963.0\ngini = 0.496\nsamples = 11\nvalue = [5, 6]"] ;
448 -> 449 ;
450 [label="gini = 0.0\nsamples = 6\nvalue = [0, 6]"] ;
449 -> 450 ;
451 [label="gini = 0.0\nsamples = 5\nvalue = [5, 0]"] ;
449 -> 451 ;
452 [label="caseOrigin <= 114.5\ngini = 0.095\nsamples = 140\nvalue = [133, 7]"] ;
448 -> 452 ;
453 [label="majOpinAssigner <= 94.5\ngini = 0.492\nsamples = 16\nvalue = [9, 7]"] ;
452 -> 453 ;
454 [label="gini = 0.0\nsamples = 7\nvalue = [0, 7]"] ;
453 -> 454 ;
455 [label="gini = 0.0\nsamples = 9\nvalue = [9, 0]"] ;
453 -> 455 ;
456 [label="gini = 0.0\nsamples = 124\nvalue = [124, 0]"] ;
452 -> 456 ;
457 [label="caseOrigin <= 54.0\ngini = 0.363\nsamples = 21\nvalue = [16, 5]"] ;
445 -> 457 ;
458 [label="gini = 0.0\nsamples = 5\nvalue = [0, 5]"] ;
457 -> 458 ;
459 [label="gini = 0.0\nsamples = 16\nvalue = [16, 0]"] ;
457 -> 459 ;
460 [label="adminActionState <= 10.0\ngini = 0.255\nsamples = 60\nvalue = [51, 9]"] ;
444 -> 460 ;
461 [label="gini = 0.0\nsamples = 9\nvalue = [0, 9]"] ;
460 -> 461 ;
462 [label="gini = 0.0\nsamples = 51\nvalue = [51, 0]"] ;
460 -> 462 ;
463 [label="petitioner <= 20.0\ngini = 0.134\nsamples = 97\nvalue = [90, 7]"] ;
421 -> 463 ;
464 [label="gini = 0.0\nsamples = 7\nvalue = [0, 7]"] ;
463 -> 464 ;
465 [label="gini = 0.0\nsamples = 90\nvalue = [90, 0]"] ;
463 -> 465 ;
466 [label="issue <= 60050.0\ngini = 0.121\nsamples = 170\nvalue = [159, 11]"] ;
418 -> 466 ;
467 [label="authorityDecision1 <= 1.5\ngini = 0.07\nsamples = 165\nvalue = [159, 6]"] ;
466 -> 467 ;
468 [label="gini = 0.0\nsamples = 152\nvalue = [152, 0]"] ;
467 -> 468 ;
469 [label="issue <= 10470.0\ngini = 0.497\nsamples = 13\nvalue = [7, 6]"] ;
467 -> 469 ;
470 [label="gini = 0.0\nsamples = 7\nvalue = [7, 0]"] ;
469 -> 470 ;
471 [label="gini = 0.0\nsamples = 6\nvalue = [0, 6]"] ;
469 -> 471 ;
472 [label="gini = 0.0\nsamples = 5\nvalue = [0, 5]"] ;
466 -> 472 ;
473 [label="respondent <= 145.5\ngini = 0.037\nsamples = 13278\nvalue = [13028, 250]"] ;
417 -> 473 ;
474 [label="issue <= 70105.0\ngini = 0.06\nsamples = 5213\nvalue = [5051, 162]"] ;
473 -> 474 ;
475 [label="yearOfCaseInitiate <= 1977.5\ngini = 0.427\nsamples = 42\nvalue = [29, 13]"] ;
474 -> 475 ;
476 [label="gini = 0.0\nsamples = 29\nvalue = [29, 0]"] ;
475 -> 476 ;
477 [label="gini = 0.0\nsamples = 13\nvalue = [0, 13]"] ;
475 -> 477 ;
478 [label="petitioner <= 3.5\ngini = 0.056\nsamples = 5171\nvalue = [5022, 149]"] ;
474 -> 478 ;
479 [label="term <= 1959.5\ngini = 0.422\nsamples = 43\nvalue = [30, 13]"] ;
478 -> 479 ;
480 [label="gini = 0.0\nsamples = 30\nvalue = [30, 0]"] ;
479 -> 480 ;
481 [label="gini = 0.0\nsamples = 13\nvalue = [0, 13]"] ;
479 -> 481 ;
482 [label="adminAction <= 8.5\ngini = 0.052\nsamples = 5128\nvalue = [4992, 136]"] ;
478 -> 482 ;
483 [label="minVotes <= 2.5\ngini = 0.331\nsamples = 67\nvalue = [53, 14]"] ;
482 -> 483 ;
484 [label="gini = 0.0\nsamples = 48\nvalue = [48, 0]"] ;
483 -> 484 ;
485 [label="petitioner <= 228.0\ngini = 0.388\nsamples = 19\nvalue = [5, 14]"] ;
483 -> 485 ;
486 [label="gini = 0.0\nsamples = 14\nvalue = [0, 14]"] ;
485 -> 486 ;
487 [label="gini = 0.0\nsamples = 5\nvalue = [5, 0]"] ;
485 -> 487 ;
488 [label="respondent <= 130.5\ngini = 0.047\nsamples = 5061\nvalue = [4939, 122]"] ;
482 -> 488 ;
489 [label="voteUnclear <= 0.5\ngini = 0.035\nsamples = 4325\nvalue = [4247, 78]"] ;
488 -> 489 ;
490 [label="respondent <= 64.0\ngini = 0.033\nsamples = 4288\nvalue = [4217, 71]"] ;
489 -> 490 ;
491 [label="lcDisagreement <= 0.5\ngini = 0.049\nsamples = 2710\nvalue = [2642, 68]"] ;
490 -> 491 ;
492 [label="issue <= 90115.0\ngini = 0.032\nsamples = 2279\nvalue = [2242, 37]"] ;
491 -> 492 ;
493 [label="petitioner <= 143.0\ngini = 0.077\nsamples = 928\nvalue = [891, 37]"] ;
492 -> 493 ;
494 [label="gini = 0.0\nsamples = 502\nvalue = [502, 0]"] ;
493 -> 494 ;
495 [label="issue <= 80270.0\ngini = 0.159\nsamples = 426\nvalue = [389, 37]"] ;
493 -> 495 ;
496 [label="petitioner <= 158.5\ngini = 0.078\nsamples = 345\nvalue = [331, 14]"] ;
495 -> 496 ;
497 [label="yearOfDecision <= 1959.5\ngini = 0.45\nsamples = 41\nvalue = [27, 14]"] ;
496 -> 497 ;
498 [label="gini = 0.0\nsamples = 27\nvalue = [27, 0]"] ;
497 -> 498 ;
499 [label="gini = 0.0\nsamples = 14\nvalue = [0, 14]"] ;
497 -> 499 ;
500 [label="gini = 0.0\nsamples = 304\nvalue = [304, 0]"] ;
496 -> 500 ;
501 [label="caseSource <= 26.5\ngini = 0.407\nsamples = 81\nvalue = [58, 23]"] ;
495 -> 501 ;
502 [label="petitioner <= 216.0\ngini = 0.422\nsamples = 33\nvalue = [10, 23]"] ;
501 -> 502 ;
503 [label="gini = 0.0\nsamples = 23\nvalue = [0, 23]"] ;
502 -> 503 ;
504 [label="gini = 0.0\nsamples = 10\nvalue = [10, 0]"] ;
502 -> 504 ;
505 [label="gini = 0.0\nsamples = 48\nvalue = [48, 0]"] ;
501 -> 505 ;
506 [label="gini = 0.0\nsamples = 1351\nvalue = [1351, 0]"] ;
492 -> 506 ;
507 [label="caseSourceState <= 23.5\ngini = 0.134\nsamples = 431\nvalue = [400, 31]"] ;
491 -> 507 ;
508 [label="petitioner <= 244.5\ngini = 0.108\nsamples = 418\nvalue = [394, 24]"] ;
507 -> 508 ;
509 [label="caseSourceState <= 3.5\ngini = 0.064\nsamples = 365\nvalue = [353, 12]"] ;
508 -> 509 ;
510 [label="respondent <= 6.0\ngini = 0.03\nsamples = 331\nvalue = [326, 5]"] ;
509 -> 510 ;
511 [label="lawMinorPresent <= 0.5\ngini = 0.375\nsamples = 20\nvalue = [15, 5]"] ;
510 -> 511 ;
512 [label="gini = 0.0\nsamples = 15\nvalue = [15, 0]"] ;
511 -> 512 ;
513 [label="gini = 0.0\nsamples = 5\nvalue = [0, 5]"] ;
511 -> 513 ;
514 [label="gini = 0.0\nsamples = 311\nvalue = [311, 0]"] ;
510 -> 514 ;
515 [label="yearOfCaseInitiate <= 1951.5\ngini = 0.327\nsamples = 34\nvalue = [27, 7]"] ;
509 -> 515 ;
516 [label="gini = 0.0\nsamples = 7\nvalue = [0, 7]"] ;
515 -> 516 ;
517 [label="gini = 0.0\nsamples = 27\nvalue = [27, 0]"] ;
515 -> 517 ;
518 [label="majOpinAssigner <= 84.0\ngini = 0.35\nsamples = 53\nvalue = [41, 12]"] ;
508 -> 518 ;
519 [label="gini = 0.0\nsamples = 12\nvalue = [0, 12]"] ;
518 -> 519 ;
520 [label="gini = 0.0\nsamples = 41\nvalue = [41, 0]"] ;
518 -> 520 ;
521 [label="adminAction <= 93.0\ngini = 0.497\nsamples = 13\nvalue = [6, 7]"] ;
507 -> 521 ;
522 [label="gini = 0.0\nsamples = 7\nvalue = [0, 7]"] ;
521 -> 522 ;
523 [label="gini = 0.0\nsamples = 6\nvalue = [6, 0]"] ;
521 -> 523 ;
524 [label="majOpinAssigner <= 80.5\ngini = 0.004\nsamples = 1578\nvalue = [1575, 3]"] ;
490 -> 524 ;
525 [label="majOpinAssigner <= 79.5\ngini = 0.064\nsamples = 90\nvalue = [87, 3]"] ;
524 -> 525 ;
526 [label="gini = 0.0\nsamples = 87\nvalue = [87, 0]"] ;
525 -> 526 ;
527 [label="gini = 0.0\nsamples = 3\nvalue = [0, 3]"] ;
525 -> 527 ;
528 [label="gini = 0.0\nsamples = 1488\nvalue = [1488, 0]"] ;
524 -> 528 ;
529 [label="majOpinWriter <= 79.5\ngini = 0.307\nsamples = 37\nvalue = [30, 7]"] ;
489 -> 529 ;
530 [label="gini = 0.0\nsamples = 7\nvalue = [0, 7]"] ;
529 -> 530 ;
531 [label="gini = 0.0\nsamples = 30\nvalue = [30, 0]"] ;
529 -> 531 ;
532 [label="respondent <= 133.0\ngini = 0.112\nsamples = 736\nvalue = [692, 44]"] ;
488 -> 532 ;
533 [label="petitioner <= 287.5\ngini = 0.48\nsamples = 60\nvalue = [36, 24]"] ;
532 -> 533 ;
534 [label="caseOrigin <= 116.5\ngini = 0.35\nsamples = 31\nvalue = [7, 24]"] ;
533 -> 534 ;
535 [label="gini = 0.0\nsamples = 24\nvalue = [0, 24]"] ;
534 -> 535 ;
536 [label="gini = 0.0\nsamples = 7\nvalue = [7, 0]"] ;
534 -> 536 ;
537 [label="gini = 0.0\nsamples = 29\nvalue = [29, 0]"] ;
533 -> 537 ;
538 [label="opinion <= 2.5\ngini = 0.057\nsamples = 676\nvalue = [656, 20]"] ;
532 -> 538 ;
539 [label="caseOrigin <= 127.5\ngini = 0.047\nsamples = 670\nvalue = [654, 16]"] ;
538 -> 539 ;
540 [label="gini = 0.0\nsamples = 514\nvalue = [514, 0]"] ;
539 -> 540 ;
541 [label="caseSource <= 164.5\ngini = 0.184\nsamples = 156\nvalue = [140, 16]"] ;
539 -> 541 ;
542 [label="gini = 0.0\nsamples = 7\nvalue = [0, 7]"] ;
541 -> 542 ;
543 [label="petitioner <= 207.5\ngini = 0.114\nsamples = 149\nvalue = [140, 9]"] ;
541 -> 543 ;
544 [label="gini = 0.0\nsamples = 121\nvalue = [121, 0]"] ;
543 -> 544 ;
545 [label="decisionDirection <= 1.5\ngini = 0.436\nsamples = 28\nvalue = [19, 9]"] ;
543 -> 545 ;
546 [label="gini = 0.0\nsamples = 19\nvalue = [19, 0]"] ;
545 -> 546 ;
547 [label="gini = 0.0\nsamples = 9\nvalue = [0, 9]"] ;
545 -> 547 ;
548 [label="caseOrigin <= 191.0\ngini = 0.444\nsamples = 6\nvalue = [2, 4]"] ;
538 -> 548 ;
549 [label="gini = 0.0\nsamples = 2\nvalue = [2, 0]"] ;
548 -> 549 ;
550 [label="gini = 0.0\nsamples = 4\nvalue = [0, 4]"] ;
548 -> 550 ;
551 [label="adminAction <= 26.5\ngini = 0.022\nsamples = 8065\nvalue = [7977, 88]"] ;
473 -> 551 ;
552 [label="petitioner <= 18.5\ngini = 0.081\nsamples = 449\nvalue = [430, 19]"] ;
551 -> 552 ;
553 [label="gini = 0.0\nsamples = 7\nvalue = [0, 7]"] ;
552 -> 553 ;
554 [label="adminAction <= 25.5\ngini = 0.053\nsamples = 442\nvalue = [430, 12]"] ;
552 -> 554 ;
555 [label="gini = 0.0\nsamples = 346\nvalue = [346, 0]"] ;
554 -> 555 ;
556 [label="petitionerState <= 3.0\ngini = 0.219\nsamples = 96\nvalue = [84, 12]"] ;
554 -> 556 ;
557 [label="yearOfCaseInitiate <= 1978.5\ngini = 0.106\nsamples = 89\nvalue = [84, 5]"] ;
556 -> 557 ;
558 [label="gini = 0.0\nsamples = 73\nvalue = [73, 0]"] ;
557 -> 558 ;
559 [label="caseSource <= 29.5\ngini = 0.43\nsamples = 16\nvalue = [11, 5]"] ;
557 -> 559 ;
560 [label="gini = 0.0\nsamples = 5\nvalue = [0, 5]"] ;
559 -> 560 ;
561 [label="gini = 0.0\nsamples = 11\nvalue = [11, 0]"] ;
559 -> 561 ;
562 [label="gini = 0.0\nsamples = 7\nvalue = [0, 7]"] ;
556 -> 562 ;
563 [label="respondent <= 183.5\ngini = 0.018\nsamples = 7616\nvalue = [7547, 69]"] ;
551 -> 563 ;
564 [label="gini = 0.0\nsamples = 2303\nvalue = [2303, 0]"] ;
563 -> 564 ;
565 [label="issue <= 80015.0\ngini = 0.026\nsamples = 5313\nvalue = [5244, 69]"] ;
563 -> 565 ;
566 [label="caseOriginState <= 14.5\ngini = 0.065\nsamples = 775\nvalue = [749, 26]"] ;
565 -> 566 ;
567 [label="petitioner <= 247.5\ngini = 0.053\nsamples = 770\nvalue = [749, 21]"] ;
566 -> 567 ;
568 [label="gini = 0.0\nsamples = 494\nvalue = [494, 0]"] ;
567 -> 568 ;
569 [label="lcDisposition <= 10.5\ngini = 0.141\nsamples = 276\nvalue = [255, 21]"] ;
567 -> 569 ;
570 [label="certReason <= 2.5\ngini = 0.123\nsamples = 273\nvalue = [255, 18]"] ;
569 -> 570 ;
571 [label="adminAction <= 69.5\ngini = 0.475\nsamples = 18\nvalue = [11, 7]"] ;
570 -> 571 ;
572 [label="gini = 0.0\nsamples = 11\nvalue = [11, 0]"] ;
571 -> 572 ;
573 [label="gini = 0.0\nsamples = 7\nvalue = [0, 7]"] ;
571 -> 573 ;
574 [label="term <= 1966.0\ngini = 0.083\nsamples = 255\nvalue = [244, 11]"] ;
570 -> 574 ;
575 [label="gini = 0.0\nsamples = 198\nvalue = [198, 0]"] ;
574 -> 575 ;
576 [label="adminAction <= 63.0\ngini = 0.311\nsamples = 57\nvalue = [46, 11]"] ;
574 -> 576 ;
577 [label="respondent <= 218.0\ngini = 0.475\nsamples = 18\nvalue = [7, 11]"] ;
576 -> 577 ;
578 [label="gini = 0.0\nsamples = 7\nvalue = [7, 0]"] ;
577 -> 578 ;
579 [label="gini = 0.0\nsamples = 11\nvalue = [0, 11]"] ;
577 -> 579 ;
580 [label="gini = 0.0\nsamples = 39\nvalue = [39, 0]"] ;
576 -> 580 ;
581 [label="gini = 0.0\nsamples = 3\nvalue = [0, 3]"] ;
569 -> 581 ;
582 [label="gini = 0.0\nsamples = 5\nvalue = [0, 5]"] ;
566 -> 582 ;
583 [label="majOpinWriter <= 78.5\ngini = 0.019\nsamples = 4538\nvalue = [4495, 43]"] ;
565 -> 583 ;
584 [label="lcDisposition <= 4.0\ngini = 0.086\nsamples = 288\nvalue = [275, 13]"] ;
583 -> 584 ;
585 [label="majOpinAssigner <= 79.0\ngini = 0.05\nsamples = 275\nvalue = [268, 7]"] ;
584 -> 585 ;
586 [label="yearOfCaseInitiate <= 1965.5\ngini = 0.334\nsamples = 33\nvalue = [26, 7]"] ;
585 -> 586 ;
587 [label="gini = 0.0\nsamples = 26\nvalue = [26, 0]"] ;
586 -> 587 ;
588 [label="gini = 0.0\nsamples = 7\nvalue = [0, 7]"] ;
586 -> 588 ;
589 [label="gini = 0.0\nsamples = 242\nvalue = [242, 0]"] ;
585 -> 589 ;
590 [label="term <= 1946.5\ngini = 0.497\nsamples = 13\nvalue = [7, 6]"] ;
584 -> 590 ;
591 [label="gini = 0.0\nsamples = 7\nvalue = [7, 0]"] ;
590 -> 591 ;
592 [label="gini = 0.0\nsamples = 6\nvalue = [0, 6]"] ;
590 -> 592 ;
593 [label="naturalCourt <= 1602.5\ngini = 0.014\nsamples = 4250\nvalue = [4220, 30]"] ;
583 -> 593 ;
594 [label="decisionDirection <= 1.5\ngini = 0.012\nsamples = 4122\nvalue = [4098, 24]"] ;
593 -> 594 ;
595 [label="lawSupp <= 342.0\ngini = 0.029\nsamples = 1651\nvalue = [1627, 24]"] ;
594 -> 595 ;
596 [label="lcDisposition <= 3.5\ngini = 0.069\nsamples = 534\nvalue = [515, 19]"] ;
595 -> 596 ;
597 [label="petitioner <= 331.0\ngini = 0.028\nsamples = 419\nvalue = [413, 6]"] ;
596 -> 597 ;
598 [label="certReason <= 2.5\ngini = 0.015\nsamples = 391\nvalue = [388, 3]"] ;
597 -> 598 ;
599 [label="lcDisposition <= 2.5\ngini = 0.185\nsamples = 29\nvalue = [26, 3]"] ;
598 -> 599 ;
600 [label="gini = 0.0\nsamples = 26\nvalue = [26, 0]"] ;
599 -> 600 ;
601 [label="gini = 0.0\nsamples = 3\nvalue = [0, 3]"] ;
599 -> 601 ;
602 [label="gini = 0.0\nsamples = 362\nvalue = [362, 0]"] ;
598 -> 602 ;
603 [label="caseSource <= 28.0\ngini = 0.191\nsamples = 28\nvalue = [25, 3]"] ;
597 -> 603 ;
604 [label="gini = 0.0\nsamples = 21\nvalue = [21, 0]"] ;
603 -> 604 ;
605 [label="majOpinWriter <= 92.5\ngini = 0.49\nsamples = 7\nvalue = [4, 3]"] ;
603 -> 605 ;
606 [label="gini = 0.0\nsamples = 3\nvalue = [0, 3]"] ;
605 -> 606 ;
607 [label="gini = 0.0\nsamples = 4\nvalue = [4, 0]"] ;
605 -> 607 ;
608 [label="issue <= 90125.0\ngini = 0.201\nsamples = 115\nvalue = [102, 13]"] ;
596 -> 608 ;
609 [label="gini = 0.0\nsamples = 93\nvalue = [93, 0]"] ;
608 -> 609 ;
610 [label="yearOfDecision <= 1967.5\ngini = 0.483\nsamples = 22\nvalue = [9, 13]"] ;
608 -> 610 ;
611 [label="caseOriginState <= 8.5\ngini = 0.36\nsamples = 17\nvalue = [4, 13]"] ;
610 -> 611 ;
612 [label="gini = 0.0\nsamples = 13\nvalue = [0, 13]"] ;
611 -> 612 ;
613 [label="gini = 0.0\nsamples = 4\nvalue = [4, 0]"] ;
611 -> 613 ;
614 [label="gini = 0.0\nsamples = 5\nvalue = [5, 0]"] ;
610 -> 614 ;
615 [label="caseOriginState <= 41.5\ngini = 0.009\nsamples = 1117\nvalue = [1112, 5]"] ;
595 -> 615 ;
616 [label="gini = 0.0\nsamples = 1074\nvalue = [1074, 0]"] ;
615 -> 616 ;
617 [label="petitioner <= 157.0\ngini = 0.206\nsamples = 43\nvalue = [38, 5]"] ;
615 -> 617 ;
618 [label="gini = 0.0\nsamples = 38\nvalue = [38, 0]"] ;
617 -> 618 ;
619 [label="gini = 0.0\nsamples = 5\nvalue = [0, 5]"] ;
617 -> 619 ;
620 [label="gini = 0.0\nsamples = 2471\nvalue = [2471, 0]"] ;
594 -> 620 ;
621 [label="lcDisagreement <= 0.5\ngini = 0.089\nsamples = 128\nvalue = [122, 6]"] ;
593 -> 621 ;
622 [label="gini = 0.0\nsamples = 103\nvalue = [103, 0]"] ;
621 -> 622 ;
623 [label="petitioner <= 170.5\ngini = 0.365\nsamples = 25\nvalue = [19, 6]"] ;
621 -> 623 ;
624 [label="gini = 0.0\nsamples = 19\nvalue = [19, 0]"] ;
623 -> 624 ;
625 [label="gini = 0.0\nsamples = 6\nvalue = [0, 6]"] ;
623 -> 625 ;
626 [label="adminActionState <= 43.5\ngini = 0.128\nsamples = 640\nvalue = [596, 44]"] ;
416 -> 626 ;
627 [label="adminAction <= 7.5\ngini = 0.091\nsamples = 626\nvalue = [596, 30]"] ;
626 -> 627 ;
628 [label="gini = 0.0\nsamples = 13\nvalue = [0, 13]"] ;
627 -> 628 ;
629 [label="reargMade <= 0.5\ngini = 0.054\nsamples = 613\nvalue = [596, 17]"] ;
627 -> 629 ;
630 [label="lcDisposition <= 1.5\ngini = 0.03\nsamples = 596\nvalue = [587, 9]"] ;
629 -> 630 ;
631 [label="adminAction <= 60.5\ngini = 0.368\nsamples = 37\nvalue = [28, 9]"] ;
630 -> 631 ;
632 [label="gini = 0.0\nsamples = 28\nvalue = [28, 0]"] ;
631 -> 632 ;
633 [label="gini = 0.0\nsamples = 9\nvalue = [0, 9]"] ;
631 -> 633 ;
634 [label="gini = 0.0\nsamples = 559\nvalue = [559, 0]"] ;
630 -> 634 ;
635 [label="majOpinAssigner <= 79.0\ngini = 0.498\nsamples = 17\nvalue = [9, 8]"] ;
629 -> 635 ;
636 [label="gini = 0.0\nsamples = 9\nvalue = [9, 0]"] ;
635 -> 636 ;
637 [label="gini = 0.0\nsamples = 8\nvalue = [0, 8]"] ;
635 -> 637 ;
638 [label="gini = 0.0\nsamples = 14\nvalue = [0, 14]"] ;
626 -> 638 ;
639 [label="caseSource <= 24.5\ngini = 0.084\nsamples = 4473\nvalue = [4276, 197]"] ;
365 -> 639 ;
640 [label="gini = 0.0\nsamples = 1405\nvalue = [1405, 0]"] ;
639 -> 640 ;
641 [label="decisionDirection <= 1.5\ngini = 0.12\nsamples = 3068\nvalue = [2871, 197]"] ;
639 -> 641 ;
642 [label="caseSource <= 25.5\ngini = 0.064\nsamples = 1961\nvalue = [1896, 65]"] ;
641 -> 642 ;
643 [label="term <= 1985.5\ngini = 0.326\nsamples = 234\nvalue = [186, 48]"] ;
642 -> 643 ;
644 [label="gini = 0.0\nsamples = 167\nvalue = [167, 0]"] ;
643 -> 644 ;
645 [label="majOpinWriter <= 104.5\ngini = 0.406\nsamples = 67\nvalue = [19, 48]"] ;
643 -> 645 ;
646 [label="gini = 0.0\nsamples = 48\nvalue = [0, 48]"] ;
645 -> 646 ;
647 [label="gini = 0.0\nsamples = 19\nvalue = [19, 0]"] ;
645 -> 647 ;
648 [label="minVotes <= 3.5\ngini = 0.019\nsamples = 1727\nvalue = [1710, 17]"] ;
642 -> 648 ;
649 [label="gini = 0.0\nsamples = 1413\nvalue = [1413, 0]"] ;
648 -> 649 ;
650 [label="adminAction <= 6.5\ngini = 0.102\nsamples = 314\nvalue = [297, 17]"] ;
648 -> 650 ;
651 [label="gini = 0.0\nsamples = 5\nvalue = [0, 5]"] ;
650 -> 651 ;
652 [label="issue <= 10275.0\ngini = 0.075\nsamples = 309\nvalue = [297, 12]"] ;
650 -> 652 ;
653 [label="issue <= 10165.0\ngini = 0.391\nsamples = 45\nvalue = [33, 12]"] ;
652 -> 653 ;
654 [label="gini = 0.0\nsamples = 33\nvalue = [33, 0]"] ;
653 -> 654 ;
655 [label="gini = 0.0\nsamples = 12\nvalue = [0, 12]"] ;
653 -> 655 ;
656 [label="gini = 0.0\nsamples = 264\nvalue = [264, 0]"] ;
652 -> 656 ;
657 [label="lcDispositionDirection <= 1.5\ngini = 0.21\nsamples = 1107\nvalue = [975, 132]"] ;
641 -> 657 ;
658 [label="petitioner <= 375.5\ngini = 0.044\nsamples = 576\nvalue = [563, 13]"] ;
657 -> 658 ;
659 [label="petitionerState <= 53.5\ngini = 0.021\nsamples = 563\nvalue = [557, 6]"] ;
658 -> 659 ;
660 [label="gini = 0.0\nsamples = 548\nvalue = [548, 0]"] ;
659 -> 660 ;
661 [label="caseSource <= 30.5\ngini = 0.48\nsamples = 15\nvalue = [9, 6]"] ;
659 -> 661 ;
662 [label="gini = 0.0\nsamples = 6\nvalue = [0, 6]"] ;
661 -> 662 ;
663 [label="gini = 0.0\nsamples = 9\nvalue = [9, 0]"] ;
661 -> 663 ;
664 [label="caseSource <= 29.0\ngini = 0.497\nsamples = 13\nvalue = [6, 7]"] ;
658 -> 664 ;
665 [label="gini = 0.0\nsamples = 7\nvalue = [0, 7]"] ;
664 -> 665 ;
666 [label="gini = 0.0\nsamples = 6\nvalue = [6, 0]"] ;
664 -> 666 ;
667 [label="majVotes <= 8.5\ngini = 0.348\nsamples = 531\nvalue = [412, 119]"] ;
657 -> 667 ;
668 [label="respondent <= 4.5\ngini = 0.18\nsamples = 360\nvalue = [324, 36]"] ;
667 -> 668 ;
669 [label="gini = 0.0\nsamples = 9\nvalue = [0, 9]"] ;
668 -> 669 ;
670 [label="caseSource <= 30.5\ngini = 0.142\nsamples = 351\nvalue = [324, 27]"] ;
668 -> 670 ;
671 [label="gini = 0.0\nsamples = 255\nvalue = [255, 0]"] ;
670 -> 671 ;
672 [label="respondent <= 217.5\ngini = 0.404\nsamples = 96\nvalue = [69, 27]"] ;
670 -> 672 ;
673 [label="petitioner <= 361.5\ngini = 0.126\nsamples = 74\nvalue = [69, 5]"] ;
672 -> 673 ;
674 [label="gini = 0.0\nsamples = 69\nvalue = [69, 0]"] ;
673 -> 674 ;
675 [label="gini = 0.0\nsamples = 5\nvalue = [0, 5]"] ;
673 -> 675 ;
676 [label="gini = 0.0\nsamples = 22\nvalue = [0, 22]"] ;
672 -> 676 ;
677 [label="adminAction <= 66.0\ngini = 0.5\nsamples = 171\nvalue = [88, 83]"] ;
667 -> 677 ;
678 [label="gini = 0.0\nsamples = 41\nvalue = [41, 0]"] ;
677 -> 678 ;
679 [label="petitionerState <= 2.0\ngini = 0.462\nsamples = 130\nvalue = [47, 83]"] ;
677 -> 679 ;
680 [label="caseSource <= 29.5\ngini = 0.234\nsamples = 96\nvalue = [13, 83]"] ;
679 -> 680 ;
681 [label="gini = 0.0\nsamples = 79\nvalue = [0, 79]"] ;
680 -> 681 ;
682 [label="lawMinorPresent <= 0.5\ngini = 0.36\nsamples = 17\nvalue = [13, 4]"] ;
680 -> 682 ;
683 [label="gini = 0.0\nsamples = 4\nvalue = [0, 4]"] ;
682 -> 683 ;
684 [label="gini = 0.0\nsamples = 13\nvalue = [13, 0]"] ;
682 -> 684 ;
685 [label="gini = 0.0\nsamples = 34\nvalue = [34, 0]"] ;
679 -> 685 ;
686 [label="majOpinAssigner <= 88.5\ngini = 0.229\nsamples = 242\nvalue = [210, 32]"] ;
364 -> 686 ;
687 [label="majOpinWriter <= 85.0\ngini = 0.375\nsamples = 28\nvalue = [7, 21]"] ;
686 -> 687 ;
688 [label="gini = 0.0\nsamples = 7\nvalue = [7, 0]"] ;
687 -> 688 ;
689 [label="gini = 0.0\nsamples = 21\nvalue = [0, 21]"] ;
687 -> 689 ;
690 [label="caseOrigin <= 27.0\ngini = 0.098\nsamples = 214\nvalue = [203, 11]"] ;
686 -> 690 ;
691 [label="gini = 0.0\nsamples = 11\nvalue = [0, 11]"] ;
690 -> 691 ;
692 [label="gini = 0.0\nsamples = 203\nvalue = [203, 0]"] ;
690 -> 692 ;
693 [label="gini = 0.0\nsamples = 4\nvalue = [0, 4]"] ;
363 -> 693 ;
694 [label="caseSource <= 24.0\ngini = 0.464\nsamples = 41\nvalue = [26, 15]"] ;
362 -> 694 ;
695 [label="majVotes <= 5.5\ngini = 0.375\nsamples = 20\nvalue = [5, 15]"] ;
694 -> 695 ;
696 [label="gini = 0.0\nsamples = 5\nvalue = [5, 0]"] ;
695 -> 696 ;
697 [label="gini = 0.0\nsamples = 15\nvalue = [0, 15]"] ;
695 -> 697 ;
698 [label="gini = 0.0\nsamples = 21\nvalue = [21, 0]"] ;
694 -> 698 ;
699 [label="gini = 0.0\nsamples = 8\nvalue = [0, 8]"] ;
361 -> 699 ;
700 [label="naturalCourt <= 1554.0\ngini = 0.292\nsamples = 349\nvalue = [287, 62]"] ;
360 -> 700 ;
701 [label="minVotes <= 1.5\ngini = 0.246\nsamples = 335\nvalue = [287, 48]"] ;
700 -> 701 ;
702 [label="majVotes <= 7.5\ngini = 0.404\nsamples = 153\nvalue = [110, 43]"] ;
701 -> 702 ;
703 [label="majOpinAssigner <= 93.0\ngini = 0.26\nsamples = 39\nvalue = [6, 33]"] ;
702 -> 703 ;
704 [label="gini = 0.0\nsamples = 6\nvalue = [6, 0]"] ;
703 -> 704 ;
705 [label="gini = 0.0\nsamples = 33\nvalue = [0, 33]"] ;
703 -> 705 ;
706 [label="majOpinWriter <= 81.0\ngini = 0.16\nsamples = 114\nvalue = [104, 10]"] ;
702 -> 706 ;
707 [label="gini = 0.0\nsamples = 10\nvalue = [0, 10]"] ;
706 -> 707 ;
708 [label="gini = 0.0\nsamples = 104\nvalue = [104, 0]"] ;
706 -> 708 ;
709 [label="issue <= 90245.0\ngini = 0.053\nsamples = 182\nvalue = [177, 5]"] ;
701 -> 709 ;
710 [label="gini = 0.0\nsamples = 172\nvalue = [172, 0]"] ;
709 -> 710 ;
711 [label="yearOfDecision <= 1948.0\ngini = 0.5\nsamples = 10\nvalue = [5, 5]"] ;
709 -> 711 ;
712 [label="gini = 0.0\nsamples = 5\nvalue = [5, 0]"] ;
711 -> 712 ;
713 [label="gini = 0.0\nsamples = 5\nvalue = [0, 5]"] ;
711 -> 713 ;
714 [label="gini = 0.0\nsamples = 14\nvalue = [0, 14]"] ;
700 -> 714 ;
715 [label="majOpinWriter <= 93.5\ngini = 0.005\nsamples = 21082\nvalue = [21034, 48]"] ;
1 -> 715 ;
716 [label="adminAction <= 50.5\ngini = 0.114\nsamples = 148\nvalue = [139, 9]"] ;
715 -> 716 ;
717 [label="lcDispositionDirection <= 1.5\ngini = 0.498\nsamples = 17\nvalue = [8, 9]"] ;
716 -> 717 ;
718 [label="gini = 0.0\nsamples = 8\nvalue = [8, 0]"] ;
717 -> 718 ;
719 [label="gini = 0.0\nsamples = 9\nvalue = [0, 9]"] ;
717 -> 719 ;
720 [label="gini = 0.0\nsamples = 131\nvalue = [131, 0]"] ;
716 -> 720 ;
721 [label="petitionerState <= 57.5\ngini = 0.004\nsamples = 20934\nvalue = [20895, 39]"] ;
715 -> 721 ;
722 [label="respondentState <= 59.5\ngini = 0.003\nsamples = 20700\nvalue = [20669, 31]"] ;
721 -> 722 ;
723 [label="term <= 1997.5\ngini = 0.002\nsamples = 20381\nvalue = [20356, 25]"] ;
722 -> 723 ;
724 [label="yearOfDecision <= 1997.5\ngini = 0.006\nsamples = 7842\nvalue = [7817, 25]"] ;
723 -> 724 ;
725 [label="caseOrigin <= 29.5\ngini = 0.001\nsamples = 7215\nvalue = [7210, 5]"] ;
724 -> 725 ;
726 [label="minVotes <= 3.5\ngini = 0.024\nsamples = 416\nvalue = [411, 5]"] ;
725 -> 726 ;
727 [label="gini = 0.0\nsamples = 381\nvalue = [381, 0]"] ;
726 -> 727 ;
728 [label="respondent <= 143.0\ngini = 0.245\nsamples = 35\nvalue = [30, 5]"] ;
726 -> 728 ;
729 [label="gini = 0.0\nsamples = 5\nvalue = [0, 5]"] ;
728 -> 729 ;
730 [label="gini = 0.0\nsamples = 30\nvalue = [30, 0]"] ;
728 -> 730 ;
731 [label="gini = 0.0\nsamples = 6799\nvalue = [6799, 0]"] ;
725 -> 731 ;
732 [label="petitioner <= 194.0\ngini = 0.062\nsamples = 627\nvalue = [607, 20]"] ;
724 -> 732 ;
733 [label="gini = 0.0\nsamples = 508\nvalue = [508, 0]"] ;
732 -> 733 ;
734 [label="petitioner <= 213.5\ngini = 0.28\nsamples = 119\nvalue = [99, 20]"] ;
732 -> 734 ;
735 [label="issue <= 90030.0\ngini = 0.5\nsamples = 39\nvalue = [19, 20]"] ;
734 -> 735 ;
736 [label="lcDisposition <= 2.5\ngini = 0.32\nsamples = 25\nvalue = [5, 20]"] ;
735 -> 736 ;
737 [label="gini = 0.0\nsamples = 20\nvalue = [0, 20]"] ;
736 -> 737 ;
738 [label="gini = 0.0\nsamples = 5\nvalue = [5, 0]"] ;
736 -> 738 ;
739 [label="gini = 0.0\nsamples = 14\nvalue = [14, 0]"] ;
735 -> 739 ;
740 [label="gini = 0.0\nsamples = 80\nvalue = [80, 0]"] ;
734 -> 740 ;
741 [label="gini = 0.0\nsamples = 12539\nvalue = [12539, 0]"] ;
723 -> 741 ;
742 [label="authorityDecision2 <= 1.5\ngini = 0.037\nsamples = 319\nvalue = [313, 6]"] ;
722 -> 742 ;
743 [label="gini = 0.0\nsamples = 258\nvalue = [258, 0]"] ;
742 -> 743 ;
744 [label="respondent <= 7.0\ngini = 0.177\nsamples = 61\nvalue = [55, 6]"] ;
742 -> 744 ;
745 [label="authorityDecision1 <= 3.5\ngini = 0.496\nsamples = 11\nvalue = [5, 6]"] ;
744 -> 745 ;
746 [label="gini = 0.0\nsamples = 6\nvalue = [0, 6]"] ;
745 -> 746 ;
747 [label="gini = 0.0\nsamples = 5\nvalue = [5, 0]"] ;
745 -> 747 ;
748 [label="gini = 0.0\nsamples = 50\nvalue = [50, 0]"] ;
744 -> 748 ;
749 [label="petitioner <= 5.0\ngini = 0.066\nsamples = 234\nvalue = [226, 8]"] ;
721 -> 749 ;
750 [label="respondent <= 108.0\ngini = 0.49\nsamples = 14\nvalue = [6, 8]"] ;
749 -> 750 ;
751 [label="gini = 0.0\nsamples = 6\nvalue = [6, 0]"] ;
750 -> 751 ;
752 [label="gini = 0.0\nsamples = 8\nvalue = [0, 8]"] ;
750 -> 752 ;
753 [label="gini = 0.0\nsamples = 220\nvalue = [220, 0]"] ;
749 -> 753 ;
754 [label="yearOfCaseInitiate <= 1947.0\ngini = 0.294\nsamples = 876\nvalue = [719, 157]"] ;
0 -> 754 [labeldistance=2.5, labelangle=-45, headlabel="False"] ;
755 [label="issue <= 60055.0\ngini = 0.094\nsamples = 142\nvalue = [7, 135]"] ;
754 -> 755 ;
756 [label="gini = 0.0\nsamples = 135\nvalue = [0, 135]"] ;
755 -> 756 ;
757 [label="gini = 0.0\nsamples = 7\nvalue = [7, 0]"] ;
755 -> 757 ;
758 [label="caseOriginState <= 55.5\ngini = 0.058\nsamples = 734\nvalue = [712, 22]"] ;
754 -> 758 ;
759 [label="yearOfDecision <= 1957.5\ngini = 0.037\nsamples = 696\nvalue = [683, 13]"] ;
758 -> 759 ;
760 [label="caseSourceState <= 2.5\ngini = 0.247\nsamples = 90\nvalue = [77, 13]"] ;
759 -> 760 ;
761 [label="gini = 0.0\nsamples = 65\nvalue = [65, 0]"] ;
760 -> 761 ;
762 [label="naturalCourt <= 1353.0\ngini = 0.499\nsamples = 25\nvalue = [12, 13]"] ;
760 -> 762 ;
763 [label="gini = 0.0\nsamples = 12\nvalue = [12, 0]"] ;
762 -> 763 ;
764 [label="gini = 0.0\nsamples = 13\nvalue = [0, 13]"] ;
762 -> 764 ;
765 [label="gini = 0.0\nsamples = 606\nvalue = [606, 0]"] ;
759 -> 765 ;
766 [label="lawSupp <= 286.0\ngini = 0.361\nsamples = 38\nvalue = [29, 9]"] ;
758 -> 766 ;
767 [label="gini = 0.0\nsamples = 29\nvalue = [29, 0]"] ;
766 -> 767 ;
768 [label="gini = 0.0\nsamples = 9\nvalue = [0, 9]"] ;
766 -> 768 ;
}