digraph Tree {
node [shape=box] ;
0 [label="respondent <= 343.5\ngini = 0.472\nsamples = 82170\nvalue = [31273, 50882, 15]"] ;
1 [label="respondent <= 64.0\ngini = 0.464\nsamples = 77758\nvalue = [28467, 49276, 15]"] ;
0 -> 1 [labeldistance=2.5, labelangle=45, headlabel="True"] ;
2 [label="decisionDirection <= 1.5\ngini = 0.492\nsamples = 32681\nvalue = [14226, 18440, 15]"] ;
1 -> 2 ;
3 [label="lcDispositionDirection <= 1.5\ngini = 0.422\nsamples = 14644\nvalue = [10231, 4398, 15]"] ;
2 -> 3 ;
4 [label="decisionDirectionDissent <= 0.5\ngini = 0.135\nsamples = 10621\nvalue = [9851, 755, 15]"] ;
3 -> 4 ;
5 [label="issue <= 80055.0\ngini = 0.101\nsamples = 10408\nvalue = [9851, 542, 15]"] ;
4 -> 5 ;
6 [label="yearOfDecision <= 2002.5\ngini = 0.048\nsamples = 7834\nvalue = [7642, 192, 0]"] ;
5 -> 6 ;
7 [label="petitioner <= 27.5\ngini = 0.032\nsamples = 7097\nvalue = [6980, 117, 0]"] ;
6 -> 7 ;
8 [label="petitioner <= 26.5\ngini = 0.114\nsamples = 430\nvalue = [404, 26, 0]"] ;
7 -> 8 ;
9 [label="gini = 0.0\nsamples = 384\nvalue = [384, 0, 0]"] ;
8 -> 9 ;
10 [label="yearOfDecision <= 1979.0\ngini = 0.491\nsamples = 46\nvalue = [20, 26, 0]"] ;
8 -> 10 ;
11 [label="gini = 0.0\nsamples = 21\nvalue = [0, 21, 0]"] ;
10 -> 11 ;
12 [label="minVotes <= 2.5\ngini = 0.32\nsamples = 25\nvalue = [20, 5, 0]"] ;
10 -> 12 ;
13 [label="gini = 0.0\nsamples = 5\nvalue = [0, 5, 0]"] ;
12 -> 13 ;
14 [label="gini = 0.0\nsamples = 20\nvalue = [20, 0, 0]"] ;
12 -> 14 ;
15 [label="petitioner <= 247.0\ngini = 0.027\nsamples = 6667\nvalue = [6576, 91, 0]"] ;
7 -> 15 ;
16 [label="adminActionState <= 3.5\ngini = 0.02\nsamples = 6151\nvalue = [6089, 62, 0]"] ;
15 -> 16 ;
17 [label="respondent <= 5.5\ngini = 0.015\nsamples = 5841\nvalue = [5796, 45, 0]"] ;
16 -> 17 ;
18 [label="authorityDecision1 <= 3.5\ngini = 0.068\nsamples = 338\nvalue = [326, 12, 0]"] ;
17 -> 18 ;
19 [label="petitioner <= 214.5\ngini = 0.036\nsamples = 326\nvalue = [320, 6, 0]"] ;
18 -> 19 ;
20 [label="gini = 0.0\nsamples = 273\nvalue = [273, 0, 0]"] ;
19 -> 20 ;
21 [label="yearOfCaseInitiate <= 1970.5\ngini = 0.201\nsamples = 53\nvalue = [47, 6, 0]"] ;
19 -> 21 ;
22 [label="gini = 0.0\nsamples = 47\nvalue = [47, 0, 0]"] ;
21 -> 22 ;
23 [label="gini = 0.0\nsamples = 6\nvalue = [0, 6, 0]"] ;
21 -> 23 ;
24 [label="respondentState <= 3.0\ngini = 0.5\nsamples = 12\nvalue = [6, 6, 0]"] ;
18 -> 24 ;
25 [label="gini = 0.0\nsamples = 6\nvalue = [6, 0, 0]"] ;
24 -> 25 ;
26 [label="gini = 0.0\nsamples = 6\nvalue = [0, 6, 0]"] ;
24 -> 26 ;
27 [label="respondentState <= 49.5\ngini = 0.012\nsamples = 5503\nvalue = [5470, 33, 0]"] ;
17 -> 27 ;
28 [label="lawSupp <= 200.5\ngini = 0.007\nsamples = 4831\nvalue = [4814, 17, 0]"] ;
27 -> 28 ;
29 [label="petitioner <= 115.0\ngini = 0.036\nsamples = 380\nvalue = [373, 7, 0]"] ;
28 -> 29 ;
30 [label="petitioner <= 112.0\ngini = 0.163\nsamples = 78\nvalue = [71, 7, 0]"] ;
29 -> 30 ;
31 [label="gini = 0.0\nsamples = 71\nvalue = [71, 0, 0]"] ;
30 -> 31 ;
32 [label="gini = 0.0\nsamples = 7\nvalue = [0, 7, 0]"] ;
30 -> 32 ;
33 [label="gini = 0.0\nsamples = 302\nvalue = [302, 0, 0]"] ;
29 -> 33 ;
34 [label="caseOrigin <= 67.0\ngini = 0.004\nsamples = 4451\nvalue = [4441, 10, 0]"] ;
28 -> 34 ;
35 [label="caseOrigin <= 65.5\ngini = 0.022\nsamples = 919\nvalue = [909, 10, 0]"] ;
34 -> 35 ;
36 [label="gini = 0.0\nsamples = 811\nvalue = [811, 0, 0]"] ;
35 -> 36 ;
37 [label="certReason <= 11.5\ngini = 0.168\nsamples = 108\nvalue = [98, 10, 0]"] ;
35 -> 37 ;
38 [label="issue <= 10325.0\ngini = 0.422\nsamples = 33\nvalue = [23, 10, 0]"] ;
37 -> 38 ;
39 [label="majVotes <= 5.0\ngini = 0.408\nsamples = 14\nvalue = [4, 10, 0]"] ;
38 -> 39 ;
40 [label="gini = 0.0\nsamples = 4\nvalue = [4, 0, 0]"] ;
39 -> 40 ;
41 [label="gini = 0.0\nsamples = 10\nvalue = [0, 10, 0]"] ;
39 -> 41 ;
42 [label="gini = 0.0\nsamples = 19\nvalue = [19, 0, 0]"] ;
38 -> 42 ;
43 [label="gini = 0.0\nsamples = 75\nvalue = [75, 0, 0]"] ;
37 -> 43 ;
44 [label="gini = 0.0\nsamples = 3532\nvalue = [3532, 0, 0]"] ;
34 -> 44 ;
45 [label="threeJudgeFdc <= 0.5\ngini = 0.046\nsamples = 672\nvalue = [656, 16, 0]"] ;
27 -> 45 ;
46 [label="lawSupp <= 210.0\ngini = 0.025\nsamples = 633\nvalue = [625, 8, 0]"] ;
45 -> 46 ;
47 [label="lawSupp <= 205.5\ngini = 0.367\nsamples = 33\nvalue = [25, 8, 0]"] ;
46 -> 47 ;
48 [label="gini = 0.0\nsamples = 25\nvalue = [25, 0, 0]"] ;
47 -> 48 ;
49 [label="gini = 0.0\nsamples = 8\nvalue = [0, 8, 0]"] ;
47 -> 49 ;
50 [label="gini = 0.0\nsamples = 600\nvalue = [600, 0, 0]"] ;
46 -> 50 ;
51 [label="respondentState <= 51.5\ngini = 0.326\nsamples = 39\nvalue = [31, 8, 0]"] ;
45 -> 51 ;
52 [label="justice <= 101.5\ngini = 0.49\nsamples = 14\nvalue = [6, 8, 0]"] ;
51 -> 52 ;
53 [label="justiceNameEncode <= 20.5\ngini = 0.497\nsamples = 13\nvalue = [6, 7, 0]"] ;
52 -> 53 ;
54 [label="justiceNameEncode <= 19.5\ngini = 0.5\nsamples = 10\nvalue = [5, 5, 0]"] ;
53 -> 54 ;
55 [label="justiceNameEncode <= 17.5\ngini = 0.494\nsamples = 9\nvalue = [4, 5, 0]"] ;
54 -> 55 ;
56 [label="justice <= 86.5\ngini = 0.5\nsamples = 8\nvalue = [4, 4, 0]"] ;
55 -> 56 ;
57 [label="gini = 0.5\nsamples = 2\nvalue = [1, 1, 0]"] ;
56 -> 57 ;
58 [label="justiceNameEncode <= 14.0\ngini = 0.5\nsamples = 6\nvalue = [3, 3, 0]"] ;
56 -> 58 ;
59 [label="gini = 0.5\nsamples = 2\nvalue = [1, 1, 0]"] ;
58 -> 59 ;
60 [label="justiceNameEncode <= 15.5\ngini = 0.5\nsamples = 4\nvalue = [2, 2, 0]"] ;
58 -> 60 ;
61 [label="gini = 0.5\nsamples = 2\nvalue = [1, 1, 0]"] ;
60 -> 61 ;
62 [label="gini = 0.5\nsamples = 2\nvalue = [1, 1, 0]"] ;
60 -> 62 ;
63 [label="gini = 0.0\nsamples = 1\nvalue = [0, 1, 0]"] ;
55 -> 63 ;
64 [label="gini = 0.0\nsamples = 1\nvalue = [1, 0, 0]"] ;
54 -> 64 ;
65 [label="justiceNameEncode <= 21.5\ngini = 0.444\nsamples = 3\nvalue = [1, 2, 0]"] ;
53 -> 65 ;
66 [label="gini = 0.0\nsamples = 1\nvalue = [0, 1, 0]"] ;
65 -> 66 ;
67 [label="gini = 0.5\nsamples = 2\nvalue = [1, 1, 0]"] ;
65 -> 67 ;
68 [label="gini = 0.0\nsamples = 1\nvalue = [0, 1, 0]"] ;
52 -> 68 ;
69 [label="gini = 0.0\nsamples = 25\nvalue = [25, 0, 0]"] ;
51 -> 69 ;
70 [label="lawType <= 5.5\ngini = 0.104\nsamples = 310\nvalue = [293, 17, 0]"] ;
16 -> 70 ;
71 [label="respondentState <= 8.0\ngini = 0.073\nsamples = 290\nvalue = [279, 11, 0]"] ;
70 -> 71 ;
72 [label="lawSupp <= 201.5\ngini = 0.355\nsamples = 26\nvalue = [20, 6, 0]"] ;
71 -> 72 ;
73 [label="gini = 0.0\nsamples = 6\nvalue = [0, 6, 0]"] ;
72 -> 73 ;
74 [label="gini = 0.0\nsamples = 20\nvalue = [20, 0, 0]"] ;
72 -> 74 ;
75 [label="issue <= 20045.0\ngini = 0.037\nsamples = 264\nvalue = [259, 5, 0]"] ;
71 -> 75 ;
76 [label="issue <= 20025.0\ngini = 0.21\nsamples = 42\nvalue = [37, 5, 0]"] ;
75 -> 76 ;
77 [label="gini = 0.0\nsamples = 37\nvalue = [37, 0, 0]"] ;
76 -> 77 ;
78 [label="gini = 0.0\nsamples = 5\nvalue = [0, 5, 0]"] ;
76 -> 78 ;
79 [label="gini = 0.0\nsamples = 222\nvalue = [222, 0, 0]"] ;
75 -> 79 ;
80 [label="caseSourceState <= 33.0\ngini = 0.42\nsamples = 20\nvalue = [14, 6, 0]"] ;
70 -> 80 ;
81 [label="gini = 0.0\nsamples = 14\nvalue = [14, 0, 0]"] ;
80 -> 81 ;
82 [label="gini = 0.0\nsamples = 6\nvalue = [0, 6, 0]"] ;
80 -> 82 ;
83 [label="respondent <= 27.5\ngini = 0.106\nsamples = 516\nvalue = [487, 29, 0]"] ;
15 -> 83 ;
84 [label="yearOfCaseInitiate <= 1946.5\ngini = 0.037\nsamples = 428\nvalue = [420, 8, 0]"] ;
83 -> 84 ;
85 [label="justiceNameEncode <= 4.5\ngini = 0.498\nsamples = 15\nvalue = [7, 8, 0]"] ;
84 -> 85 ;
86 [label="vote <= 3.0\ngini = 0.48\nsamples = 10\nvalue = [6, 4, 0]"] ;
85 -> 86 ;
87 [label="direction <= 1.5\ngini = 0.444\nsamples = 6\nvalue = [4, 2, 0]"] ;
86 -> 87 ;
88 [label="gini = 0.444\nsamples = 3\nvalue = [2, 1, 0]"] ;
87 -> 88 ;
89 [label="gini = 0.444\nsamples = 3\nvalue = [2, 1, 0]"] ;
87 -> 89 ;
90 [label="justiceNameEncode <= 2.0\ngini = 0.5\nsamples = 4\nvalue = [2, 2, 0]"] ;
86 -> 90 ;
91 [label="gini = 0.5\nsamples = 2\nvalue = [1, 1, 0]"] ;
90 -> 91 ;
92 [label="gini = 0.5\nsamples = 2\nvalue = [1, 1, 0]"] ;
90 -> 92 ;
93 [label="justiceNameEncode <= 6.5\ngini = 0.32\nsamples = 5\nvalue = [1, 4, 0]"] ;
85 -> 93 ;
94 [label="justiceNameEncode <= 5.5\ngini = 0.444\nsamples = 3\nvalue = [1, 2, 0]"] ;
93 -> 94 ;
95 [label="gini = 0.0\nsamples = 1\nvalue = [0, 1, 0]"] ;
94 -> 95 ;
96 [label="gini = 0.5\nsamples = 2\nvalue = [1, 1, 0]"] ;
94 -> 96 ;
97 [label="gini = 0.0\nsamples = 2\nvalue = [0, 2, 0]"] ;
93 -> 97 ;
98 [label="gini = 0.0\nsamples = 413\nvalue = [413, 0, 0]"] ;
84 -> 98 ;
99 [label="majVotes <= 5.5\ngini = 0.363\nsamples = 88\nvalue = [67, 21, 0]"] ;
83 -> 99 ;
100 [label="respondentState <= 39.0\ngini = 0.388\nsamples = 19\nvalue = [5, 14, 0]"] ;
99 -> 100 ;
101 [label="gini = 0.0\nsamples = 5\nvalue = [5, 0, 0]"] ;
100 -> 101 ;
102 [label="gini = 0.0\nsamples = 14\nvalue = [0, 14, 0]"] ;
100 -> 102 ;
103 [label="majVotes <= 8.0\ngini = 0.182\nsamples = 69\nvalue = [62, 7, 0]"] ;
99 -> 103 ;
104 [label="gini = 0.0\nsamples = 55\nvalue = [55, 0, 0]"] ;
103 -> 104 ;
105 [label="lawType <= 2.5\ngini = 0.5\nsamples = 14\nvalue = [7, 7, 0]"] ;
103 -> 105 ;
106 [label="gini = 0.0\nsamples = 7\nvalue = [0, 7, 0]"] ;
105 -> 106 ;
107 [label="gini = 0.0\nsamples = 7\nvalue = [7, 0, 0]"] ;
105 -> 107 ;
108 [label="petitioner <= 228.0\ngini = 0.183\nsamples = 737\nvalue = [662, 75, 0]"] ;
6 -> 108 ;
109 [label="issueArea <= 6.0\ngini = 0.114\nsamples = 695\nvalue = [653, 42, 0]"] ;
108 -> 109 ;
110 [label="secondAgreementPresent <= 0.5\ngini = 0.079\nsamples = 676\nvalue = [648, 28, 0]"] ;
109 -> 110 ;
111 [label="caseOrigin <= 55.5\ngini = 0.346\nsamples = 36\nvalue = [28, 8, 0]"] ;
110 -> 111 ;
112 [label="gini = 0.0\nsamples = 5\nvalue = [0, 5, 0]"] ;
111 -> 112 ;
113 [label="respondentState <= 39.0\ngini = 0.175\nsamples = 31\nvalue = [28, 3, 0]"] ;
111 -> 113 ;
114 [label="gini = 0.0\nsamples = 28\nvalue = [28, 0, 0]"] ;
113 -> 114 ;
115 [label="gini = 0.0\nsamples = 3\nvalue = [0, 3, 0]"] ;
113 -> 115 ;
116 [label="authorityDecision1 <= 2.0\ngini = 0.061\nsamples = 640\nvalue = [620, 20, 0]"] ;
110 -> 116 ;
117 [label="caseSourceState <= 21.5\ngini = 0.022\nsamples = 540\nvalue = [534, 6, 0]"] ;
116 -> 117 ;
118 [label="gini = 0.0\nsamples = 454\nvalue = [454, 0, 0]"] ;
117 -> 118 ;
119 [label="caseSourceState <= 24.0\ngini = 0.13\nsamples = 86\nvalue = [80, 6, 0]"] ;
117 -> 119 ;
120 [label="gini = 0.0\nsamples = 6\nvalue = [0, 6, 0]"] ;
119 -> 120 ;
121 [label="gini = 0.0\nsamples = 80\nvalue = [80, 0, 0]"] ;
119 -> 121 ;
122 [label="petitioner <= 144.5\ngini = 0.241\nsamples = 100\nvalue = [86, 14, 0]"] ;
116 -> 122 ;
123 [label="certReason <= 8.0\ngini = 0.127\nsamples = 88\nvalue = [82, 6, 0]"] ;
122 -> 123 ;
124 [label="gini = 0.0\nsamples = 72\nvalue = [72, 0, 0]"] ;
123 -> 124 ;
125 [label="petitioner <= 131.5\ngini = 0.469\nsamples = 16\nvalue = [10, 6, 0]"] ;
123 -> 125 ;
126 [label="gini = 0.0\nsamples = 10\nvalue = [10, 0, 0]"] ;
125 -> 126 ;
127 [label="gini = 0.0\nsamples = 6\nvalue = [0, 6, 0]"] ;
125 -> 127 ;
128 [label="naturalCourt <= 1655.5\ngini = 0.444\nsamples = 12\nvalue = [4, 8, 0]"] ;
122 -> 128 ;
129 [label="gini = 0.0\nsamples = 4\nvalue = [4, 0, 0]"] ;
128 -> 129 ;
130 [label="gini = 0.0\nsamples = 8\nvalue = [0, 8, 0]"] ;
128 -> 130 ;
131 [label="certReason <= 6.0\ngini = 0.388\nsamples = 19\nvalue = [5, 14, 0]"] ;
109 -> 131 ;
132 [label="gini = 0.0\nsamples = 5\nvalue = [5, 0, 0]"] ;
131 -> 132 ;
133 [label="gini = 0.0\nsamples = 14\nvalue = [0, 14, 0]"] ;
131 -> 133 ;
134 [label="respondentState <= 22.5\ngini = 0.337\nsamples = 42\nvalue = [9, 33, 0]"] ;
108 -> 134 ;
135 [label="gini = 0.0\nsamples = 9\nvalue = [9, 0, 0]"] ;
134 -> 135 ;
136 [label="gini = 0.0\nsamples = 33\nvalue = [0, 33, 0]"] ;
134 -> 136 ;
137 [label="issue <= 80080.0\ngini = 0.245\nsamples = 2574\nvalue = [2209, 350, 15]"] ;
5 -> 137 ;
138 [label="respondentState <= 54.0\ngini = 0.192\nsamples = 205\nvalue = [22, 183, 0]"] ;
137 -> 138 ;
139 [label="majOpinAssigner <= 83.5\ngini = 0.148\nsamples = 199\nvalue = [16, 183, 0]"] ;
138 -> 139 ;
140 [label="gini = 0.0\nsamples = 6\nvalue = [6, 0, 0]"] ;
139 -> 140 ;
141 [label="yearOfDecision <= 1952.0\ngini = 0.098\nsamples = 193\nvalue = [10, 183, 0]"] ;
139 -> 141 ;
142 [label="petitionerState <= 30.0\ngini = 0.444\nsamples = 30\nvalue = [10, 20, 0]"] ;
141 -> 142 ;
143 [label="gini = 0.0\nsamples = 20\nvalue = [0, 20, 0]"] ;
142 -> 143 ;
144 [label="gini = 0.0\nsamples = 10\nvalue = [10, 0, 0]"] ;
142 -> 144 ;
145 [label="gini = 0.0\nsamples = 163\nvalue = [0, 163, 0]"] ;
141 -> 145 ;
146 [label="gini = 0.0\nsamples = 6\nvalue = [6, 0, 0]"] ;
138 -> 146 ;
147 [label="caseOrigin <= 44.5\ngini = 0.143\nsamples = 2369\nvalue = [2187, 167, 15]"] ;
137 -> 147 ;
148 [label="issue <= 90355.0\ngini = 0.521\nsamples = 190\nvalue = [117, 58, 15]"] ;
147 -> 148 ;
149 [label="naturalCourt <= 1604.0\ngini = 0.597\nsamples = 118\nvalue = [45, 58, 15]"] ;
148 -> 149 ;
150 [label="lawSupp <= 477.5\ngini = 0.572\nsamples = 77\nvalue = [45, 17, 15]"] ;
149 -> 150 ;
151 [label="gini = 0.0\nsamples = 45\nvalue = [45, 0, 0]"] ;
150 -> 151 ;
152 [label="respondentState <= 4.0\ngini = 0.498\nsamples = 32\nvalue = [0, 17, 15]"] ;
150 -> 152 ;
153 [label="gini = 0.0\nsamples = 17\nvalue = [0, 17, 0]"] ;
152 -> 153 ;
154 [label="gini = 0.0\nsamples = 15\nvalue = [0, 0, 15]"] ;
152 -> 154 ;
155 [label="gini = 0.0\nsamples = 41\nvalue = [0, 41, 0]"] ;
149 -> 155 ;
156 [label="gini = 0.0\nsamples = 72\nvalue = [72, 0, 0]"] ;
148 -> 156 ;
157 [label="voteUnclear <= 0.5\ngini = 0.095\nsamples = 2179\nvalue = [2070, 109, 0]"] ;
147 -> 157 ;
158 [label="issue <= 80105.0\ngini = 0.079\nsamples = 2151\nvalue = [2062, 89, 0]"] ;
157 -> 158 ;
159 [label="majVotes <= 7.0\ngini = 0.424\nsamples = 59\nvalue = [41, 18, 0]"] ;
158 -> 159 ;
160 [label="gini = 0.0\nsamples = 41\nvalue = [41, 0, 0]"] ;
159 -> 160 ;
161 [label="gini = 0.0\nsamples = 18\nvalue = [0, 18, 0]"] ;
159 -> 161 ;
162 [label="term <= 2006.5\ngini = 0.066\nsamples = 2092\nvalue = [2021, 71, 0]"] ;
158 -> 162 ;
163 [label="issueArea <= 11.0\ngini = 0.048\nsamples = 1988\nvalue = [1939, 49, 0]"] ;
162 -> 163 ;
164 [label="petitionerState <= 32.5\ngini = 0.042\nsamples = 1965\nvalue = [1923, 42, 0]"] ;
163 -> 164 ;
165 [label="caseSource <= 22.5\ngini = 0.029\nsamples = 1827\nvalue = [1800, 27, 0]"] ;
164 -> 165 ;
166 [label="authorityDecision1 <= 1.5\ngini = 0.185\nsamples = 58\nvalue = [52, 6, 0]"] ;
165 -> 166 ;
167 [label="gini = 0.0\nsamples = 52\nvalue = [52, 0, 0]"] ;
166 -> 167 ;
168 [label="gini = 0.0\nsamples = 6\nvalue = [0, 6, 0]"] ;
166 -> 168 ;
169 [label="threeJudgeFdc <= 0.5\ngini = 0.023\nsamples = 1769\nvalue = [1748, 21, 0]"] ;
165 -> 169 ;
170 [label="argumentMade <= 0.5\ngini = 0.012\nsamples = 1545\nvalue = [1536, 9, 0]"] ;
169 -> 170 ;
171 [label="respondent <= 24.0\ngini = 0.082\nsamples = 210\nvalue = [201, 9, 0]"] ;
170 -> 171 ;
172 [label="respondent <= 20.0\ngini = 0.262\nsamples = 58\nvalue = [49, 9, 0]"] ;
171 -> 172 ;
173 [label="gini = 0.0\nsamples = 49\nvalue = [49, 0, 0]"] ;
172 -> 173 ;
174 [label="gini = 0.0\nsamples = 9\nvalue = [0, 9, 0]"] ;
172 -> 174 ;
175 [label="gini = 0.0\nsamples = 152\nvalue = [152, 0, 0]"] ;
171 -> 175 ;
176 [label="gini = 0.0\nsamples = 1335\nvalue = [1335, 0, 0]"] ;
170 -> 176 ;
177 [label="jurisdiction <= 1.5\ngini = 0.101\nsamples = 224\nvalue = [212, 12, 0]"] ;
169 -> 177 ;
178 [label="gini = 0.0\nsamples = 8\nvalue = [0, 8, 0]"] ;
177 -> 178 ;
179 [label="yearOfDecision <= 1974.0\ngini = 0.036\nsamples = 216\nvalue = [212, 4, 0]"] ;
177 -> 179 ;
180 [label="gini = 0.0\nsamples = 212\nvalue = [212, 0, 0]"] ;
179 -> 180 ;
181 [label="gini = 0.0\nsamples = 4\nvalue = [0, 4, 0]"] ;
179 -> 181 ;
182 [label="majOpinWriter <= 84.0\ngini = 0.194\nsamples = 138\nvalue = [123, 15, 0]"] ;
164 -> 182 ;
183 [label="gini = 0.0\nsamples = 10\nvalue = [0, 10, 0]"] ;
182 -> 183 ;
184 [label="respondent <= 2.0\ngini = 0.075\nsamples = 128\nvalue = [123, 5, 0]"] ;
182 -> 184 ;
185 [label="gini = 0.0\nsamples = 5\nvalue = [0, 5, 0]"] ;
184 -> 185 ;
186 [label="gini = 0.0\nsamples = 123\nvalue = [123, 0, 0]"] ;
184 -> 186 ;
187 [label="authorityDecision2 <= 2.5\ngini = 0.423\nsamples = 23\nvalue = [16, 7, 0]"] ;
163 -> 187 ;
188 [label="gini = 0.0\nsamples = 16\nvalue = [16, 0, 0]"] ;
187 -> 188 ;
189 [label="gini = 0.0\nsamples = 7\nvalue = [0, 7, 0]"] ;
187 -> 189 ;
190 [label="certReason <= 6.5\ngini = 0.334\nsamples = 104\nvalue = [82, 22, 0]"] ;
162 -> 190 ;
191 [label="lawSupp <= 500.0\ngini = 0.337\nsamples = 28\nvalue = [6, 22, 0]"] ;
190 -> 191 ;
192 [label="gini = 0.0\nsamples = 22\nvalue = [0, 22, 0]"] ;
191 -> 192 ;
193 [label="gini = 0.0\nsamples = 6\nvalue = [6, 0, 0]"] ;
191 -> 193 ;
194 [label="gini = 0.0\nsamples = 76\nvalue = [76, 0, 0]"] ;
190 -> 194 ;
195 [label="respondentState <= 20.5\ngini = 0.408\nsamples = 28\nvalue = [8, 20, 0]"] ;
157 -> 195 ;
196 [label="gini = 0.0\nsamples = 20\nvalue = [0, 20, 0]"] ;
195 -> 196 ;
197 [label="gini = 0.0\nsamples = 8\nvalue = [8, 0, 0]"] ;
195 -> 197 ;
198 [label="gini = 0.0\nsamples = 213\nvalue = [0, 213, 0]"] ;
4 -> 198 ;
199 [label="lcDispositionDirection <= 2.5\ngini = 0.171\nsamples = 4023\nvalue = [380, 3643, 0]"] ;
3 -> 199 ;
200 [label="decisionDirectionDissent <= 0.5\ngini = 0.146\nsamples = 3943\nvalue = [313, 3630, 0]"] ;
199 -> 200 ;
201 [label="issue <= 90145.0\ngini = 0.131\nsamples = 3868\nvalue = [272, 3596, 0]"] ;
200 -> 201 ;
202 [label="petitioner <= 1.5\ngini = 0.072\nsamples = 3129\nvalue = [117, 3012, 0]"] ;
201 -> 202 ;
203 [label="gini = 0.0\nsamples = 5\nvalue = [5, 0, 0]"] ;
202 -> 203 ;
204 [label="respondentState <= 60.5\ngini = 0.069\nsamples = 3124\nvalue = [112, 3012, 0]"] ;
202 -> 204 ;
205 [label="majOpinWriter <= 89.5\ngini = 0.066\nsamples = 3119\nvalue = [107, 3012, 0]"] ;
204 -> 205 ;
206 [label="respondentState <= 59.0\ngini = 0.193\nsamples = 491\nvalue = [53, 438, 0]"] ;
205 -> 206 ;
207 [label="adminActionState <= 41.5\ngini = 0.109\nsamples = 450\nvalue = [26, 424, 0]"] ;
206 -> 207 ;
208 [label="caseSource <= 26.5\ngini = 0.061\nsamples = 412\nvalue = [13, 399, 0]"] ;
207 -> 208 ;
209 [label="petitioner <= 203.5\ngini = 0.416\nsamples = 44\nvalue = [13, 31, 0]"] ;
208 -> 209 ;
210 [label="gini = 0.0\nsamples = 31\nvalue = [0, 31, 0]"] ;
209 -> 210 ;
211 [label="gini = 0.0\nsamples = 13\nvalue = [13, 0, 0]"] ;
209 -> 211 ;
212 [label="gini = 0.0\nsamples = 368\nvalue = [0, 368, 0]"] ;
208 -> 212 ;
213 [label="term <= 1951.0\ngini = 0.45\nsamples = 38\nvalue = [13, 25, 0]"] ;
207 -> 213 ;
214 [label="gini = 0.0\nsamples = 13\nvalue = [13, 0, 0]"] ;
213 -> 214 ;
215 [label="gini = 0.0\nsamples = 25\nvalue = [0, 25, 0]"] ;
213 -> 215 ;
216 [label="issue <= 20325.0\ngini = 0.45\nsamples = 41\nvalue = [27, 14, 0]"] ;
206 -> 216 ;
217 [label="gini = 0.0\nsamples = 14\nvalue = [0, 14, 0]"] ;
216 -> 217 ;
218 [label="gini = 0.0\nsamples = 27\nvalue = [27, 0, 0]"] ;
216 -> 218 ;
219 [label="majOpinWriter <= 106.5\ngini = 0.04\nsamples = 2628\nvalue = [54, 2574, 0]"] ;
205 -> 219 ;
220 [label="petitionerState <= 59.0\ngini = 0.021\nsamples = 2308\nvalue = [24, 2284, 0]"] ;
219 -> 220 ;
221 [label="term <= 1992.5\ngini = 0.016\nsamples = 2285\nvalue = [19, 2266, 0]"] ;
220 -> 221 ;
222 [label="caseSource <= 22.5\ngini = 0.005\nsamples = 1851\nvalue = [5, 1846, 0]"] ;
221 -> 222 ;
223 [label="lcDisposition <= 5.5\ngini = 0.079\nsamples = 122\nvalue = [5, 117, 0]"] ;
222 -> 223 ;
224 [label="gini = 0.0\nsamples = 117\nvalue = [0, 117, 0]"] ;
223 -> 224 ;
225 [label="gini = 0.0\nsamples = 5\nvalue = [5, 0, 0]"] ;
223 -> 225 ;
226 [label="gini = 0.0\nsamples = 1729\nvalue = [0, 1729, 0]"] ;
222 -> 226 ;
227 [label="caseOrigin <= 140.0\ngini = 0.062\nsamples = 434\nvalue = [14, 420, 0]"] ;
221 -> 227 ;
228 [label="gini = 0.0\nsamples = 348\nvalue = [0, 348, 0]"] ;
227 -> 228 ;
229 [label="caseOrigin <= 226.0\ngini = 0.273\nsamples = 86\nvalue = [14, 72, 0]"] ;
227 -> 229 ;
230 [label="gini = 0.0\nsamples = 8\nvalue = [8, 0, 0]"] ;
229 -> 230 ;
231 [label="issueArea <= 2.5\ngini = 0.142\nsamples = 78\nvalue = [6, 72, 0]"] ;
229 -> 231 ;
232 [label="gini = 0.0\nsamples = 6\nvalue = [6, 0, 0]"] ;
231 -> 232 ;
233 [label="gini = 0.0\nsamples = 72\nvalue = [0, 72, 0]"] ;
231 -> 233 ;
234 [label="lcDisposition <= 7.0\ngini = 0.34\nsamples = 23\nvalue = [5, 18, 0]"] ;
220 -> 234 ;
235 [label="gini = 0.0\nsamples = 5\nvalue = [5, 0, 0]"] ;
234 -> 235 ;
236 [label="gini = 0.0\nsamples = 18\nvalue = [0, 18, 0]"] ;
234 -> 236 ;
237 [label="minVotes <= 3.5\ngini = 0.17\nsamples = 320\nvalue = [30, 290, 0]"] ;
219 -> 237 ;
238 [label="caseOrigin <= 29.5\ngini = 0.05\nsamples = 273\nvalue = [7, 266, 0]"] ;
237 -> 238 ;
239 [label="caseSource <= 17.5\ngini = 0.366\nsamples = 29\nvalue = [7, 22, 0]"] ;
238 -> 239 ;
240 [label="gini = 0.0\nsamples = 22\nvalue = [0, 22, 0]"] ;
239 -> 240 ;
241 [label="gini = 0.0\nsamples = 7\nvalue = [7, 0, 0]"] ;
239 -> 241 ;
242 [label="gini = 0.0\nsamples = 244\nvalue = [0, 244, 0]"] ;
238 -> 242 ;
243 [label="lcDisposition <= 2.5\ngini = 0.5\nsamples = 47\nvalue = [23, 24, 0]"] ;
237 -> 243 ;
244 [label="gini = 0.0\nsamples = 19\nvalue = [0, 19, 0]"] ;
243 -> 244 ;
245 [label="caseOrigin <= 173.5\ngini = 0.293\nsamples = 28\nvalue = [23, 5, 0]"] ;
243 -> 245 ;
246 [label="petitioner <= 209.0\ngini = 0.496\nsamples = 11\nvalue = [6, 5, 0]"] ;
245 -> 246 ;
247 [label="gini = 0.0\nsamples = 5\nvalue = [0, 5, 0]"] ;
246 -> 247 ;
248 [label="gini = 0.0\nsamples = 6\nvalue = [6, 0, 0]"] ;
246 -> 248 ;
249 [label="gini = 0.0\nsamples = 17\nvalue = [17, 0, 0]"] ;
245 -> 249 ;
250 [label="gini = 0.0\nsamples = 5\nvalue = [5, 0, 0]"] ;
204 -> 250 ;
251 [label="respondent <= 7.5\ngini = 0.332\nsamples = 739\nvalue = [155, 584, 0]"] ;
201 -> 251 ;
252 [label="majOpinWriter <= 105.5\ngini = 0.42\nsamples = 150\nvalue = [105, 45, 0]"] ;
251 -> 252 ;
253 [label="caseSourceState <= 36.5\ngini = 0.24\nsamples = 122\nvalue = [105, 17, 0]"] ;
252 -> 253 ;
254 [label="adminAction <= 65.0\ngini = 0.102\nsamples = 111\nvalue = [105, 6, 0]"] ;
253 -> 254 ;
255 [label="gini = 0.0\nsamples = 6\nvalue = [0, 6, 0]"] ;
254 -> 255 ;
256 [label="gini = 0.0\nsamples = 105\nvalue = [105, 0, 0]"] ;
254 -> 256 ;
257 [label="gini = 0.0\nsamples = 11\nvalue = [0, 11, 0]"] ;
253 -> 257 ;
258 [label="gini = 0.0\nsamples = 28\nvalue = [0, 28, 0]"] ;
252 -> 258 ;
259 [label="petitioner <= 213.0\ngini = 0.155\nsamples = 589\nvalue = [50, 539, 0]"] ;
251 -> 259 ;
260 [label="respondent <= 27.5\ngini = 0.017\nsamples = 470\nvalue = [4, 466, 0]"] ;
259 -> 260 ;
261 [label="gini = 0.0\nsamples = 414\nvalue = [0, 414, 0]"] ;
260 -> 261 ;
262 [label="lawSupp <= 186.0\ngini = 0.133\nsamples = 56\nvalue = [4, 52, 0]"] ;
260 -> 262 ;
263 [label="gini = 0.0\nsamples = 4\nvalue = [4, 0, 0]"] ;
262 -> 263 ;
264 [label="gini = 0.0\nsamples = 52\nvalue = [0, 52, 0]"] ;
262 -> 264 ;
265 [label="respondentState <= 9.0\ngini = 0.474\nsamples = 119\nvalue = [46, 73, 0]"] ;
259 -> 265 ;
266 [label="petitioner <= 232.5\ngini = 0.242\nsamples = 85\nvalue = [12, 73, 0]"] ;
265 -> 266 ;
267 [label="gini = 0.0\nsamples = 7\nvalue = [7, 0, 0]"] ;
266 -> 267 ;
268 [label="caseOrigin <= 122.0\ngini = 0.12\nsamples = 78\nvalue = [5, 73, 0]"] ;
266 -> 268 ;
269 [label="gini = 0.0\nsamples = 73\nvalue = [0, 73, 0]"] ;
268 -> 269 ;
270 [label="gini = 0.0\nsamples = 5\nvalue = [5, 0, 0]"] ;
268 -> 270 ;
271 [label="gini = 0.0\nsamples = 34\nvalue = [34, 0, 0]"] ;
265 -> 271 ;
272 [label="caseSource <= 26.5\ngini = 0.496\nsamples = 75\nvalue = [41, 34, 0]"] ;
200 -> 272 ;
273 [label="gini = 0.0\nsamples = 34\nvalue = [34, 0, 0]"] ;
272 -> 273 ;
274 [label="authorityDecision2 <= 2.0\ngini = 0.283\nsamples = 41\nvalue = [7, 34, 0]"] ;
272 -> 274 ;
275 [label="gini = 0.0\nsamples = 34\nvalue = [0, 34, 0]"] ;
274 -> 275 ;
276 [label="gini = 0.0\nsamples = 7\nvalue = [7, 0, 0]"] ;
274 -> 276 ;
277 [label="minVotes <= 0.5\ngini = 0.272\nsamples = 80\nvalue = [67, 13, 0]"] ;
199 -> 277 ;
278 [label="gini = 0.0\nsamples = 13\nvalue = [0, 13, 0]"] ;
277 -> 278 ;
279 [label="gini = 0.0\nsamples = 67\nvalue = [67, 0, 0]"] ;
277 -> 279 ;
280 [label="lcDispositionDirection <= 1.5\ngini = 0.345\nsamples = 18037\nvalue = [3995, 14042, 0]"] ;
2 -> 280 ;
281 [label="jurisdiction <= 8.5\ngini = 0.064\nsamples = 13803\nvalue = [456, 13347, 0]"] ;
280 -> 281 ;
282 [label="vote <= 7.5\ngini = 0.05\nsamples = 13641\nvalue = [348, 13293, 0]"] ;
281 -> 282 ;
283 [label="issue <= 80055.0\ngini = 0.045\nsamples = 13604\nvalue = [311, 13293, 0]"] ;
282 -> 283 ;
284 [label="decisionDirectionDissent <= 0.5\ngini = 0.012\nsamples = 11008\nvalue = [66, 10942, 0]"] ;
283 -> 284 ;
285 [label="adminActionState <= 37.5\ngini = 0.011\nsamples = 10992\nvalue = [61, 10931, 0]"] ;
284 -> 285 ;
286 [label="petitioner <= 457.5\ngini = 0.009\nsamples = 10736\nvalue = [46, 10690, 0]"] ;
285 -> 286 ;
287 [label="issue <= 10015.0\ngini = 0.008\nsamples = 10715\nvalue = [42, 10673, 0]"] ;
286 -> 287 ;
288 [label="caseOriginState <= 49.5\ngini = 0.05\nsamples = 313\nvalue = [8, 305, 0]"] ;
287 -> 288 ;
289 [label="gini = 0.0\nsamples = 290\nvalue = [0, 290, 0]"] ;
288 -> 289 ;
290 [label="minVotes <= 1.5\ngini = 0.454\nsamples = 23\nvalue = [8, 15, 0]"] ;
288 -> 290 ;
291 [label="gini = 0.0\nsamples = 8\nvalue = [8, 0, 0]"] ;
290 -> 291 ;
292 [label="gini = 0.0\nsamples = 15\nvalue = [0, 15, 0]"] ;
290 -> 292 ;
293 [label="term <= 1975.5\ngini = 0.007\nsamples = 10402\nvalue = [34, 10368, 0]"] ;
287 -> 293 ;
294 [label="majVotes <= 4.5\ngini = 0.0\nsamples = 6490\nvalue = [1, 6489, 0]"] ;
293 -> 294 ;
295 [label="yearOfDecision <= 1950.5\ngini = 0.025\nsamples = 78\nvalue = [1, 77, 0]"] ;
294 -> 295 ;
296 [label="gini = 0.0\nsamples = 1\nvalue = [1, 0, 0]"] ;
295 -> 296 ;
297 [label="gini = 0.0\nsamples = 77\nvalue = [0, 77, 0]"] ;
295 -> 297 ;
298 [label="gini = 0.0\nsamples = 6412\nvalue = [0, 6412, 0]"] ;
294 -> 298 ;
299 [label="yearOfDecision <= 1976.5\ngini = 0.017\nsamples = 3912\nvalue = [33, 3879, 0]"] ;
293 -> 299 ;
300 [label="petitioner <= 113.0\ngini = 0.4\nsamples = 29\nvalue = [8, 21, 0]"] ;
299 -> 300 ;
301 [label="gini = 0.0\nsamples = 8\nvalue = [8, 0, 0]"] ;
300 -> 301 ;
302 [label="gini = 0.0\nsamples = 21\nvalue = [0, 21, 0]"] ;
300 -> 302 ;
303 [label="respondentState <= 6.5\ngini = 0.013\nsamples = 3883\nvalue = [25, 3858, 0]"] ;
299 -> 303 ;
304 [label="respondentState <= 5.5\ngini = 0.033\nsamples = 1504\nvalue = [25, 1479, 0]"] ;
303 -> 304 ;
305 [label="lawSupp <= 202.5\ngini = 0.019\nsamples = 1326\nvalue = [13, 1313, 0]"] ;
304 -> 305 ;
306 [label="issue <= 10265.0\ngini = 0.163\nsamples = 78\nvalue = [7, 71, 0]"] ;
305 -> 306 ;
307 [label="naturalCourt <= 1653.5\ngini = 0.498\nsamples = 15\nvalue = [7, 8, 0]"] ;
306 -> 307 ;
308 [label="gini = 0.0\nsamples = 7\nvalue = [7, 0, 0]"] ;
307 -> 308 ;
309 [label="gini = 0.0\nsamples = 8\nvalue = [0, 8, 0]"] ;
307 -> 309 ;
310 [label="gini = 0.0\nsamples = 63\nvalue = [0, 63, 0]"] ;
306 -> 310 ;
311 [label="issue <= 10150.0\ngini = 0.01\nsamples = 1248\nvalue = [6, 1242, 0]"] ;
305 -> 311 ;
312 [label="issue <= 10135.0\ngini = 0.04\nsamples = 294\nvalue = [6, 288, 0]"] ;
311 -> 312 ;
313 [label="gini = 0.0\nsamples = 268\nvalue = [0, 268, 0]"] ;
312 -> 313 ;
314 [label="certReason <= 11.5\ngini = 0.355\nsamples = 26\nvalue = [6, 20, 0]"] ;
312 -> 314 ;
315 [label="gini = 0.0\nsamples = 20\nvalue = [0, 20, 0]"] ;
314 -> 315 ;
316 [label="gini = 0.0\nsamples = 6\nvalue = [6, 0, 0]"] ;
314 -> 316 ;
317 [label="gini = 0.0\nsamples = 954\nvalue = [0, 954, 0]"] ;
311 -> 317 ;
318 [label="minVotes <= 3.5\ngini = 0.126\nsamples = 178\nvalue = [12, 166, 0]"] ;
304 -> 318 ;
319 [label="yearOfDecision <= 1980.5\ngini = 0.069\nsamples = 167\nvalue = [6, 161, 0]"] ;
318 -> 319 ;
320 [label="term <= 1978.0\ngini = 0.469\nsamples = 16\nvalue = [6, 10, 0]"] ;
319 -> 320 ;
321 [label="gini = 0.0\nsamples = 10\nvalue = [0, 10, 0]"] ;
320 -> 321 ;
322 [label="gini = 0.0\nsamples = 6\nvalue = [6, 0, 0]"] ;
320 -> 322 ;
323 [label="gini = 0.0\nsamples = 151\nvalue = [0, 151, 0]"] ;
319 -> 323 ;
324 [label="yearOfDecision <= 2006.5\ngini = 0.496\nsamples = 11\nvalue = [6, 5, 0]"] ;
318 -> 324 ;
325 [label="gini = 0.0\nsamples = 5\nvalue = [0, 5, 0]"] ;
324 -> 325 ;
326 [label="gini = 0.0\nsamples = 6\nvalue = [6, 0, 0]"] ;
324 -> 326 ;
327 [label="gini = 0.0\nsamples = 2379\nvalue = [0, 2379, 0]"] ;
303 -> 327 ;
328 [label="argumentMade <= 0.5\ngini = 0.308\nsamples = 21\nvalue = [4, 17, 0]"] ;
286 -> 328 ;
329 [label="gini = 0.0\nsamples = 17\nvalue = [0, 17, 0]"] ;
328 -> 329 ;
330 [label="gini = 0.0\nsamples = 4\nvalue = [4, 0, 0]"] ;
328 -> 330 ;
331 [label="adminActionState <= 38.5\ngini = 0.11\nsamples = 256\nvalue = [15, 241, 0]"] ;
285 -> 331 ;
332 [label="petitioner <= 104.5\ngini = 0.454\nsamples = 23\nvalue = [15, 8, 0]"] ;
331 -> 332 ;
333 [label="gini = 0.0\nsamples = 8\nvalue = [8, 0, 0]"] ;
332 -> 333 ;
334 [label="term <= 1977.5\ngini = 0.498\nsamples = 15\nvalue = [7, 8, 0]"] ;
332 -> 334 ;
335 [label="gini = 0.0\nsamples = 7\nvalue = [7, 0, 0]"] ;
334 -> 335 ;
336 [label="gini = 0.0\nsamples = 8\nvalue = [0, 8, 0]"] ;
334 -> 336 ;
337 [label="gini = 0.0\nsamples = 233\nvalue = [0, 233, 0]"] ;
331 -> 337 ;
338 [label="petitioner <= 113.0\ngini = 0.43\nsamples = 16\nvalue = [5, 11, 0]"] ;
284 -> 338 ;
339 [label="gini = 0.0\nsamples = 5\nvalue = [5, 0, 0]"] ;
338 -> 339 ;
340 [label="gini = 0.0\nsamples = 11\nvalue = [0, 11, 0]"] ;
338 -> 340 ;
341 [label="issue <= 80065.0\ngini = 0.171\nsamples = 2596\nvalue = [245, 2351, 0]"] ;
283 -> 341 ;
342 [label="certReason <= 10.5\ngini = 0.428\nsamples = 193\nvalue = [133, 60, 0]"] ;
341 -> 342 ;
343 [label="respondentState <= 55.5\ngini = 0.133\nsamples = 84\nvalue = [78, 6, 0]"] ;
342 -> 343 ;
344 [label="gini = 0.0\nsamples = 78\nvalue = [78, 0, 0]"] ;
343 -> 344 ;
345 [label="gini = 0.0\nsamples = 6\nvalue = [0, 6, 0]"] ;
343 -> 345 ;
346 [label="caseOrigin <= 122.0\ngini = 0.5\nsamples = 109\nvalue = [55, 54, 0]"] ;
342 -> 346 ;
347 [label="lcDisagreement <= 0.5\ngini = 0.486\nsamples = 94\nvalue = [55, 39, 0]"] ;
346 -> 347 ;
348 [label="respondent <= 23.0\ngini = 0.487\nsamples = 67\nvalue = [28, 39, 0]"] ;
347 -> 348 ;
349 [label="gini = 0.0\nsamples = 26\nvalue = [0, 26, 0]"] ;
348 -> 349 ;
350 [label="term <= 1977.5\ngini = 0.433\nsamples = 41\nvalue = [28, 13, 0]"] ;
348 -> 350 ;
351 [label="lcDisposition <= 2.5\ngini = 0.257\nsamples = 33\nvalue = [28, 5, 0]"] ;
350 -> 351 ;
352 [label="gini = 0.0\nsamples = 28\nvalue = [28, 0, 0]"] ;
351 -> 352 ;
353 [label="gini = 0.0\nsamples = 5\nvalue = [0, 5, 0]"] ;
351 -> 353 ;
354 [label="gini = 0.0\nsamples = 8\nvalue = [0, 8, 0]"] ;
350 -> 354 ;
355 [label="gini = 0.0\nsamples = 27\nvalue = [27, 0, 0]"] ;
347 -> 355 ;
356 [label="gini = 0.0\nsamples = 15\nvalue = [0, 15, 0]"] ;
346 -> 356 ;
357 [label="majOpinWriter <= 110.5\ngini = 0.089\nsamples = 2403\nvalue = [112, 2291, 0]"] ;
341 -> 357 ;
358 [label="lcDisagreement <= 0.5\ngini = 0.067\nsamples = 2367\nvalue = [82, 2285, 0]"] ;
357 -> 358 ;
359 [label="issue <= 120025.0\ngini = 0.043\nsamples = 2013\nvalue = [44, 1969, 0]"] ;
358 -> 359 ;
360 [label="issue <= 80105.0\ngini = 0.036\nsamples = 1965\nvalue = [36, 1929, 0]"] ;
359 -> 360 ;
361 [label="lcDisposition <= 3.5\ngini = 0.219\nsamples = 80\nvalue = [10, 70, 0]"] ;
360 -> 361 ;
362 [label="gini = 0.0\nsamples = 70\nvalue = [0, 70, 0]"] ;
361 -> 362 ;
363 [label="gini = 0.0\nsamples = 10\nvalue = [10, 0, 0]"] ;
361 -> 363 ;
364 [label="lcDisposition <= 10.0\ngini = 0.027\nsamples = 1885\nvalue = [26, 1859, 0]"] ;
360 -> 364 ;
365 [label="voteUnclear <= 0.5\ngini = 0.021\nsamples = 1852\nvalue = [20, 1832, 0]"] ;
364 -> 365 ;
366 [label="majOpinAssigner <= 108.0\ngini = 0.016\nsamples = 1827\nvalue = [15, 1812, 0]"] ;
365 -> 366 ;
367 [label="respondentState <= 57.5\ngini = 0.01\nsamples = 1768\nvalue = [9, 1759, 0]"] ;
366 -> 367 ;
368 [label="gini = 0.0\nsamples = 1618\nvalue = [0, 1618, 0]"] ;
367 -> 368 ;
369 [label="respondent <= 3.5\ngini = 0.113\nsamples = 150\nvalue = [9, 141, 0]"] ;
367 -> 369 ;
370 [label="gini = 0.0\nsamples = 5\nvalue = [5, 0, 0]"] ;
369 -> 370 ;
371 [label="authorityDecision1 <= 5.0\ngini = 0.054\nsamples = 145\nvalue = [4, 141, 0]"] ;
369 -> 371 ;
372 [label="gini = 0.0\nsamples = 141\nvalue = [0, 141, 0]"] ;
371 -> 372 ;
373 [label="gini = 0.0\nsamples = 4\nvalue = [4, 0, 0]"] ;
371 -> 373 ;
374 [label="yearOfDecision <= 2005.5\ngini = 0.183\nsamples = 59\nvalue = [6, 53, 0]"] ;
366 -> 374 ;
375 [label="gini = 0.0\nsamples = 6\nvalue = [6, 0, 0]"] ;
374 -> 375 ;
376 [label="gini = 0.0\nsamples = 53\nvalue = [0, 53, 0]"] ;
374 -> 376 ;
377 [label="issueArea <= 9.5\ngini = 0.32\nsamples = 25\nvalue = [5, 20, 0]"] ;
365 -> 377 ;
378 [label="gini = 0.0\nsamples = 5\nvalue = [5, 0, 0]"] ;
377 -> 378 ;
379 [label="gini = 0.0\nsamples = 20\nvalue = [0, 20, 0]"] ;
377 -> 379 ;
380 [label="caseSourceState <= 14.5\ngini = 0.298\nsamples = 33\nvalue = [6, 27, 0]"] ;
364 -> 380 ;
381 [label="gini = 0.0\nsamples = 27\nvalue = [0, 27, 0]"] ;
380 -> 381 ;
382 [label="gini = 0.0\nsamples = 6\nvalue = [6, 0, 0]"] ;
380 -> 382 ;
383 [label="naturalCourt <= 1404.5\ngini = 0.278\nsamples = 48\nvalue = [8, 40, 0]"] ;
359 -> 383 ;
384 [label="gini = 0.0\nsamples = 33\nvalue = [0, 33, 0]"] ;
383 -> 384 ;
385 [label="voteUnclear <= 0.5\ngini = 0.498\nsamples = 15\nvalue = [8, 7, 0]"] ;
383 -> 385 ;
386 [label="gini = 0.0\nsamples = 8\nvalue = [8, 0, 0]"] ;
385 -> 386 ;
387 [label="gini = 0.0\nsamples = 7\nvalue = [0, 7, 0]"] ;
385 -> 387 ;
388 [label="issue <= 80175.0\ngini = 0.192\nsamples = 354\nvalue = [38, 316, 0]"] ;
358 -> 388 ;
389 [label="gini = 0.0\nsamples = 14\nvalue = [14, 0, 0]"] ;
388 -> 389 ;
390 [label="majOpinWriter <= 80.5\ngini = 0.131\nsamples = 340\nvalue = [24, 316, 0]"] ;
388 -> 390 ;
391 [label="yearOfDecision <= 1960.0\ngini = 0.472\nsamples = 21\nvalue = [13, 8, 0]"] ;
390 -> 391 ;
392 [label="gini = 0.0\nsamples = 13\nvalue = [13, 0, 0]"] ;
391 -> 392 ;
393 [label="gini = 0.0\nsamples = 8\nvalue = [0, 8, 0]"] ;
391 -> 393 ;
394 [label="caseOriginState <= 34.5\ngini = 0.067\nsamples = 319\nvalue = [11, 308, 0]"] ;
390 -> 394 ;
395 [label="gini = 0.0\nsamples = 272\nvalue = [0, 272, 0]"] ;
394 -> 395 ;
396 [label="respondentState <= 47.5\ngini = 0.359\nsamples = 47\nvalue = [11, 36, 0]"] ;
394 -> 396 ;
397 [label="gini = 0.0\nsamples = 11\nvalue = [11, 0, 0]"] ;
396 -> 397 ;
398 [label="gini = 0.0\nsamples = 36\nvalue = [0, 36, 0]"] ;
396 -> 398 ;
399 [label="lawMinorPresent <= 0.5\ngini = 0.278\nsamples = 36\nvalue = [30, 6, 0]"] ;
357 -> 399 ;
400 [label="gini = 0.0\nsamples = 30\nvalue = [30, 0, 0]"] ;
399 -> 400 ;
401 [label="gini = 0.0\nsamples = 6\nvalue = [0, 6, 0]"] ;
399 -> 401 ;
402 [label="gini = 0.0\nsamples = 37\nvalue = [37, 0, 0]"] ;
282 -> 402 ;
403 [label="yearOfDecision <= 1953.5\ngini = 0.444\nsamples = 162\nvalue = [108, 54, 0]"] ;
281 -> 403 ;
404 [label="gini = 0.0\nsamples = 21\nvalue = [0, 21, 0]"] ;
403 -> 404 ;
405 [label="yearOfCaseInitiate <= 1977.0\ngini = 0.359\nsamples = 141\nvalue = [108, 33, 0]"] ;
403 -> 405 ;
406 [label="issueArea <= 9.5\ngini = 0.219\nsamples = 104\nvalue = [91, 13, 0]"] ;
405 -> 406 ;
407 [label="respondentState <= 11.0\ngini = 0.461\nsamples = 36\nvalue = [23, 13, 0]"] ;
406 -> 407 ;
408 [label="gini = 0.0\nsamples = 23\nvalue = [23, 0, 0]"] ;
407 -> 408 ;
409 [label="gini = 0.0\nsamples = 13\nvalue = [0, 13, 0]"] ;
407 -> 409 ;
410 [label="gini = 0.0\nsamples = 68\nvalue = [68, 0, 0]"] ;
406 -> 410 ;
411 [label="petitionerState <= 18.5\ngini = 0.497\nsamples = 37\nvalue = [17, 20, 0]"] ;
405 -> 411 ;
412 [label="gini = 0.0\nsamples = 14\nvalue = [0, 14, 0]"] ;
411 -> 412 ;
413 [label="usCitePresent <= 0.5\ngini = 0.386\nsamples = 23\nvalue = [17, 6, 0]"] ;
411 -> 413 ;
414 [label="gini = 0.0\nsamples = 17\nvalue = [17, 0, 0]"] ;
413 -> 414 ;
415 [label="gini = 0.0\nsamples = 6\nvalue = [0, 6, 0]"] ;
413 -> 415 ;
416 [label="lcDispositionDirection <= 2.5\ngini = 0.274\nsamples = 4234\nvalue = [3539, 695, 0]"] ;
280 -> 416 ;
417 [label="yearOfCaseInitiate <= 2006.5\ngini = 0.206\nsamples = 3864\nvalue = [3414, 450, 0]"] ;
416 -> 417 ;
418 [label="respondentState <= 59.0\ngini = 0.168\nsamples = 3642\nvalue = [3304, 338, 0]"] ;
417 -> 418 ;
419 [label="issue <= 15230.0\ngini = 0.153\nsamples = 3534\nvalue = [3240, 294, 0]"] ;
418 -> 419 ;
420 [label="lawSupp <= 551.0\ngini = 0.496\nsamples = 95\nvalue = [52, 43, 0]"] ;
419 -> 420 ;
421 [label="majOpinWriter <= 96.0\ngini = 0.41\nsamples = 73\nvalue = [52, 21, 0]"] ;
420 -> 421 ;
422 [label="lawType <= 2.5\ngini = 0.494\nsamples = 38\nvalue = [17, 21, 0]"] ;
421 -> 422 ;
423 [label="certReason <= 12.5\ngini = 0.311\nsamples = 26\nvalue = [5, 21, 0]"] ;
422 -> 423 ;
424 [label="gini = 0.0\nsamples = 21\nvalue = [0, 21, 0]"] ;
423 -> 424 ;
425 [label="gini = 0.0\nsamples = 5\nvalue = [5, 0, 0]"] ;
423 -> 425 ;
426 [label="gini = 0.0\nsamples = 12\nvalue = [12, 0, 0]"] ;
422 -> 426 ;
427 [label="gini = 0.0\nsamples = 35\nvalue = [35, 0, 0]"] ;
421 -> 427 ;
428 [label="gini = 0.0\nsamples = 22\nvalue = [0, 22, 0]"] ;
420 -> 428 ;
429 [label="issue <= 80285.0\ngini = 0.135\nsamples = 3439\nvalue = [3188, 251, 0]"] ;
419 -> 429 ;
430 [label="jurisdiction <= 4.5\ngini = 0.079\nsamples = 2630\nvalue = [2522, 108, 0]"] ;
429 -> 430 ;
431 [label="majOpinWriter <= 109.5\ngini = 0.075\nsamples = 2624\nvalue = [2522, 102, 0]"] ;
430 -> 431 ;
432 [label="decisionDirectionDissent <= 0.5\ngini = 0.067\nsamples = 2604\nvalue = [2513, 91, 0]"] ;
431 -> 432 ;
433 [label="issue <= 30185.0\ngini = 0.064\nsamples = 2599\nvalue = [2513, 86, 0]"] ;
432 -> 433 ;
434 [label="adminActionState <= 50.5\ngini = 0.158\nsamples = 670\nvalue = [612, 58, 0]"] ;
433 -> 434 ;
435 [label="respondent <= 1.5\ngini = 0.14\nsamples = 662\nvalue = [612, 50, 0]"] ;
434 -> 435 ;
436 [label="gini = 0.0\nsamples = 6\nvalue = [0, 6, 0]"] ;
435 -> 436 ;
437 [label="caseSource <= 31.5\ngini = 0.125\nsamples = 656\nvalue = [612, 44, 0]"] ;
435 -> 437 ;
438 [label="majVotes <= 8.5\ngini = 0.029\nsamples = 339\nvalue = [334, 5, 0]"] ;
437 -> 438 ;
439 [label="gini = 0.0\nsamples = 280\nvalue = [280, 0, 0]"] ;
438 -> 439 ;
440 [label="lawSupp <= 377.0\ngini = 0.155\nsamples = 59\nvalue = [54, 5, 0]"] ;
438 -> 440 ;
441 [label="gini = 0.0\nsamples = 54\nvalue = [54, 0, 0]"] ;
440 -> 441 ;
442 [label="gini = 0.0\nsamples = 5\nvalue = [0, 5, 0]"] ;
440 -> 442 ;
443 [label="adminAction <= 93.0\ngini = 0.216\nsamples = 317\nvalue = [278, 39, 0]"] ;
437 -> 443 ;
444 [label="caseSource <= 39.0\ngini = 0.118\nsamples = 285\nvalue = [267, 18, 0]"] ;
443 -> 444 ;
445 [label="gini = 0.0\nsamples = 5\nvalue = [0, 5, 0]"] ;
444 -> 445 ;
446 [label="majOpinAssigner <= 84.0\ngini = 0.089\nsamples = 280\nvalue = [267, 13, 0]"] ;
444 -> 446 ;
447 [label="caseOrigin <= 102.5\ngini = 0.32\nsamples = 65\nvalue = [52, 13, 0]"] ;
446 -> 447 ;
448 [label="gini = 0.0\nsamples = 13\nvalue = [0, 13, 0]"] ;
447 -> 448 ;
449 [label="gini = 0.0\nsamples = 52\nvalue = [52, 0, 0]"] ;
447 -> 449 ;
450 [label="gini = 0.0\nsamples = 215\nvalue = [215, 0, 0]"] ;
446 -> 450 ;
451 [label="petitioner <= 24.5\ngini = 0.451\nsamples = 32\nvalue = [11, 21, 0]"] ;
443 -> 451 ;
452 [label="argumentMade <= 0.5\ngini = 0.43\nsamples = 16\nvalue = [11, 5, 0]"] ;
451 -> 452 ;
453 [label="gini = 0.0\nsamples = 5\nvalue = [0, 5, 0]"] ;
452 -> 453 ;
454 [label="gini = 0.0\nsamples = 11\nvalue = [11, 0, 0]"] ;
452 -> 454 ;
455 [label="gini = 0.0\nsamples = 16\nvalue = [0, 16, 0]"] ;
451 -> 455 ;
456 [label="gini = 0.0\nsamples = 8\nvalue = [0, 8, 0]"] ;
434 -> 456 ;
457 [label="term <= 1992.5\ngini = 0.029\nsamples = 1929\nvalue = [1901, 28, 0]"] ;
433 -> 457 ;
458 [label="threeJudgeFdc <= 0.5\ngini = 0.017\nsamples = 1792\nvalue = [1777, 15, 0]"] ;
457 -> 458 ;
459 [label="gini = 0.0\nsamples = 1585\nvalue = [1585, 0, 0]"] ;
458 -> 459 ;
460 [label="lawSupp <= 483.5\ngini = 0.134\nsamples = 207\nvalue = [192, 15, 0]"] ;
458 -> 460 ;
461 [label="gini = 0.0\nsamples = 185\nvalue = [185, 0, 0]"] ;
460 -> 461 ;
462 [label="yearOfDecision <= 1974.5\ngini = 0.434\nsamples = 22\nvalue = [7, 15, 0]"] ;
460 -> 462 ;
463 [label="gini = 0.0\nsamples = 15\nvalue = [0, 15, 0]"] ;
462 -> 463 ;
464 [label="gini = 0.0\nsamples = 7\nvalue = [7, 0, 0]"] ;
462 -> 464 ;
465 [label="petitionerState <= 16.0\ngini = 0.172\nsamples = 137\nvalue = [124, 13, 0]"] ;
457 -> 465 ;
466 [label="adminActionState <= 16.0\ngini = 0.093\nsamples = 123\nvalue = [117, 6, 0]"] ;
465 -> 466 ;
467 [label="gini = 0.0\nsamples = 117\nvalue = [117, 0, 0]"] ;
466 -> 467 ;
468 [label="gini = 0.0\nsamples = 6\nvalue = [0, 6, 0]"] ;
466 -> 468 ;
469 [label="lawSupp <= 339.5\ngini = 0.5\nsamples = 14\nvalue = [7, 7, 0]"] ;
465 -> 469 ;
470 [label="gini = 0.0\nsamples = 7\nvalue = [7, 0, 0]"] ;
469 -> 470 ;
471 [label="gini = 0.0\nsamples = 7\nvalue = [0, 7, 0]"] ;
469 -> 471 ;
472 [label="gini = 0.0\nsamples = 5\nvalue = [0, 5, 0]"] ;
432 -> 472 ;
473 [label="issueArea <= 6.0\ngini = 0.495\nsamples = 20\nvalue = [9, 11, 0]"] ;
431 -> 473 ;
474 [label="gini = 0.0\nsamples = 11\nvalue = [0, 11, 0]"] ;
473 -> 474 ;
475 [label="gini = 0.0\nsamples = 9\nvalue = [9, 0, 0]"] ;
473 -> 475 ;
476 [label="gini = 0.0\nsamples = 6\nvalue = [0, 6, 0]"] ;
430 -> 476 ;
477 [label="adminActionState <= 17.5\ngini = 0.291\nsamples = 809\nvalue = [666, 143, 0]"] ;
429 -> 477 ;
478 [label="caseSource <= 70.0\ngini = 0.22\nsamples = 756\nvalue = [661, 95, 0]"] ;
477 -> 478 ;
479 [label="lcDisposition <= 11.0\ngini = 0.073\nsamples = 606\nvalue = [583, 23, 0]"] ;
478 -> 479 ;
480 [label="adminAction <= 13.0\ngini = 0.03\nsamples = 592\nvalue = [583, 9, 0]"] ;
479 -> 480 ;
481 [label="certReason <= 11.0\ngini = 0.494\nsamples = 9\nvalue = [5, 4, 0]"] ;
480 -> 481 ;
482 [label="gini = 0.0\nsamples = 4\nvalue = [0, 4, 0]"] ;
481 -> 482 ;
483 [label="gini = 0.0\nsamples = 5\nvalue = [5, 0, 0]"] ;
481 -> 483 ;
484 [label="lcDisposition <= 8.0\ngini = 0.017\nsamples = 583\nvalue = [578, 5, 0]"] ;
480 -> 484 ;
485 [label="gini = 0.0\nsamples = 554\nvalue = [554, 0, 0]"] ;
484 -> 485 ;
486 [label="yearOfCaseInitiate <= 1972.5\ngini = 0.285\nsamples = 29\nvalue = [24, 5, 0]"] ;
484 -> 486 ;
487 [label="gini = 0.0\nsamples = 24\nvalue = [24, 0, 0]"] ;
486 -> 487 ;
488 [label="gini = 0.0\nsamples = 5\nvalue = [0, 5, 0]"] ;
486 -> 488 ;
489 [label="gini = 0.0\nsamples = 14\nvalue = [0, 14, 0]"] ;
479 -> 489 ;
490 [label="jurisdiction <= 1.5\ngini = 0.499\nsamples = 150\nvalue = [78, 72, 0]"] ;
478 -> 490 ;
491 [label="gini = 0.0\nsamples = 37\nvalue = [37, 0, 0]"] ;
490 -> 491 ;
492 [label="lcDisposition <= 2.5\ngini = 0.462\nsamples = 113\nvalue = [41, 72, 0]"] ;
490 -> 492 ;
493 [label="petitioner <= 190.5\ngini = 0.494\nsamples = 74\nvalue = [41, 33, 0]"] ;
492 -> 493 ;
494 [label="gini = 0.0\nsamples = 30\nvalue = [30, 0, 0]"] ;
493 -> 494 ;
495 [label="issue <= 90175.0\ngini = 0.375\nsamples = 44\nvalue = [11, 33, 0]"] ;
493 -> 495 ;
496 [label="gini = 0.0\nsamples = 7\nvalue = [7, 0, 0]"] ;
495 -> 496 ;
497 [label="term <= 1954.5\ngini = 0.193\nsamples = 37\nvalue = [4, 33, 0]"] ;
495 -> 497 ;
498 [label="gini = 0.0\nsamples = 4\nvalue = [4, 0, 0]"] ;
497 -> 498 ;
499 [label="gini = 0.0\nsamples = 33\nvalue = [0, 33, 0]"] ;
497 -> 499 ;
500 [label="gini = 0.0\nsamples = 39\nvalue = [0, 39, 0]"] ;
492 -> 500 ;
501 [label="caseOrigin <= 301.0\ngini = 0.171\nsamples = 53\nvalue = [5, 48, 0]"] ;
477 -> 501 ;
502 [label="gini = 0.0\nsamples = 43\nvalue = [0, 43, 0]"] ;
501 -> 502 ;
503 [label="lawType <= 2.0\ngini = 0.5\nsamples = 10\nvalue = [5, 5, 0]"] ;
501 -> 503 ;
504 [label="gini = 0.0\nsamples = 5\nvalue = [0, 5, 0]"] ;
503 -> 504 ;
505 [label="gini = 0.0\nsamples = 5\nvalue = [5, 0, 0]"] ;
503 -> 505 ;
506 [label="caseOrigin <= 52.5\ngini = 0.483\nsamples = 108\nvalue = [64, 44, 0]"] ;
418 -> 506 ;
507 [label="gini = 0.0\nsamples = 32\nvalue = [0, 32, 0]"] ;
506 -> 507 ;
508 [label="majOpinAssigner <= 79.5\ngini = 0.266\nsamples = 76\nvalue = [64, 12, 0]"] ;
506 -> 508 ;
509 [label="gini = 0.0\nsamples = 12\nvalue = [0, 12, 0]"] ;
508 -> 509 ;
510 [label="gini = 0.0\nsamples = 64\nvalue = [64, 0, 0]"] ;
508 -> 510 ;
511 [label="lcDisposition <= 2.5\ngini = 0.5\nsamples = 222\nvalue = [110, 112, 0]"] ;
417 -> 511 ;
512 [label="petitioner <= 139.0\ngini = 0.351\nsamples = 119\nvalue = [92, 27, 0]"] ;
511 -> 512 ;
513 [label="gini = 0.0\nsamples = 67\nvalue = [67, 0, 0]"] ;
512 -> 513 ;
514 [label="naturalCourt <= 1704.5\ngini = 0.499\nsamples = 52\nvalue = [25, 27, 0]"] ;
512 -> 514 ;
515 [label="gini = 0.0\nsamples = 27\nvalue = [0, 27, 0]"] ;
514 -> 515 ;
516 [label="gini = 0.0\nsamples = 25\nvalue = [25, 0, 0]"] ;
514 -> 516 ;
517 [label="minVotes <= 0.5\ngini = 0.288\nsamples = 103\nvalue = [18, 85, 0]"] ;
511 -> 517 ;
518 [label="majVotes <= 8.5\ngini = 0.495\nsamples = 40\nvalue = [18, 22, 0]"] ;
517 -> 518 ;
519 [label="gini = 0.0\nsamples = 18\nvalue = [18, 0, 0]"] ;
518 -> 519 ;
520 [label="gini = 0.0\nsamples = 22\nvalue = [0, 22, 0]"] ;
518 -> 520 ;
521 [label="gini = 0.0\nsamples = 63\nvalue = [0, 63, 0]"] ;
517 -> 521 ;
522 [label="respondent <= 24.5\ngini = 0.447\nsamples = 370\nvalue = [125, 245, 0]"] ;
416 -> 522 ;
523 [label="respondent <= 15.0\ngini = 0.219\nsamples = 255\nvalue = [32, 223, 0]"] ;
522 -> 523 ;
524 [label="yearOfCaseInitiate <= 1999.5\ngini = 0.499\nsamples = 62\nvalue = [32, 30, 0]"] ;
523 -> 524 ;
525 [label="gini = 0.0\nsamples = 32\nvalue = [32, 0, 0]"] ;
524 -> 525 ;
526 [label="gini = 0.0\nsamples = 30\nvalue = [0, 30, 0]"] ;
524 -> 526 ;
527 [label="gini = 0.0\nsamples = 193\nvalue = [0, 193, 0]"] ;
523 -> 527 ;
528 [label="issue <= 15310.0\ngini = 0.309\nsamples = 115\nvalue = [93, 22, 0]"] ;
522 -> 528 ;
529 [label="gini = 0.0\nsamples = 14\nvalue = [0, 14, 0]"] ;
528 -> 529 ;
530 [label="yearOfCaseInitiate <= 2009.0\ngini = 0.146\nsamples = 101\nvalue = [93, 8, 0]"] ;
528 -> 530 ;
531 [label="gini = 0.0\nsamples = 93\nvalue = [93, 0, 0]"] ;
530 -> 531 ;
532 [label="gini = 0.0\nsamples = 8\nvalue = [0, 8, 0]"] ;
530 -> 532 ;
533 [label="decisionDirection <= 1.5\ngini = 0.432\nsamples = 45077\nvalue = [14241, 30836, 0]"] ;
1 -> 533 ;
534 [label="lcDispositionDirection <= 1.5\ngini = 0.376\nsamples = 23143\nvalue = [5814, 17329, 0]"] ;
533 -> 534 ;
535 [label="decisionDirectionDissent <= 0.5\ngini = 0.213\nsamples = 5715\nvalue = [5022, 693, 0]"] ;
534 -> 535 ;
536 [label="term <= 2003.5\ngini = 0.194\nsamples = 5622\nvalue = [5011, 611, 0]"] ;
535 -> 536 ;
537 [label="caseOrigin <= 47.5\ngini = 0.159\nsamples = 5148\nvalue = [4699, 449, 0]"] ;
536 -> 537 ;
538 [label="issueArea <= 8.5\ngini = 0.365\nsamples = 792\nvalue = [602, 190, 0]"] ;
537 -> 538 ;
539 [label="term <= 1997.5\ngini = 0.086\nsamples = 401\nvalue = [383, 18, 0]"] ;
538 -> 539 ;
540 [label="issue <= 80310.0\ngini = 0.055\nsamples = 387\nvalue = [376, 11, 0]"] ;
539 -> 540 ;
541 [label="authorityDecision1 <= 4.5\ngini = 0.023\nsamples = 348\nvalue = [344, 4, 0]"] ;
540 -> 541 ;
542 [label="gini = 0.0\nsamples = 275\nvalue = [275, 0, 0]"] ;
541 -> 542 ;
543 [label="certReason <= 11.5\ngini = 0.104\nsamples = 73\nvalue = [69, 4, 0]"] ;
541 -> 543 ;
544 [label="gini = 0.0\nsamples = 50\nvalue = [50, 0, 0]"] ;
543 -> 544 ;
545 [label="yearOfDecision <= 1977.0\ngini = 0.287\nsamples = 23\nvalue = [19, 4, 0]"] ;
543 -> 545 ;
546 [label="majOpinAssigner <= 94.5\ngini = 0.463\nsamples = 11\nvalue = [7, 4, 0]"] ;
545 -> 546 ;
547 [label="gini = 0.0\nsamples = 7\nvalue = [7, 0, 0]"] ;
546 -> 547 ;
548 [label="gini = 0.0\nsamples = 4\nvalue = [0, 4, 0]"] ;
546 -> 548 ;
549 [label="gini = 0.0\nsamples = 12\nvalue = [12, 0, 0]"] ;
545 -> 549 ;
550 [label="authorityDecision2 <= 2.0\ngini = 0.295\nsamples = 39\nvalue = [32, 7, 0]"] ;
540 -> 550 ;
551 [label="gini = 0.0\nsamples = 7\nvalue = [0, 7, 0]"] ;
550 -> 551 ;
552 [label="gini = 0.0\nsamples = 32\nvalue = [32, 0, 0]"] ;
550 -> 552 ;
553 [label="lawSupp <= 478.0\ngini = 0.5\nsamples = 14\nvalue = [7, 7, 0]"] ;
539 -> 553 ;
554 [label="gini = 0.0\nsamples = 7\nvalue = [7, 0, 0]"] ;
553 -> 554 ;
555 [label="gini = 0.0\nsamples = 7\nvalue = [0, 7, 0]"] ;
553 -> 555 ;
556 [label="issue <= 90135.0\ngini = 0.493\nsamples = 391\nvalue = [219, 172, 0]"] ;
538 -> 556 ;
557 [label="certReason <= 3.0\ngini = 0.077\nsamples = 149\nvalue = [6, 143, 0]"] ;
556 -> 557 ;
558 [label="gini = 0.0\nsamples = 6\nvalue = [6, 0, 0]"] ;
557 -> 558 ;
559 [label="gini = 0.0\nsamples = 143\nvalue = [0, 143, 0]"] ;
557 -> 559 ;
560 [label="certReason <= 1.5\ngini = 0.211\nsamples = 242\nvalue = [213, 29, 0]"] ;
556 -> 560 ;
561 [label="gini = 0.0\nsamples = 22\nvalue = [0, 22, 0]"] ;
560 -> 561 ;
562 [label="naturalCourt <= 1302.0\ngini = 0.062\nsamples = 220\nvalue = [213, 7, 0]"] ;
560 -> 562 ;
563 [label="gini = 0.0\nsamples = 7\nvalue = [0, 7, 0]"] ;
562 -> 563 ;
564 [label="gini = 0.0\nsamples = 213\nvalue = [213, 0, 0]"] ;
562 -> 564 ;
565 [label="lcDisposition <= 11.5\ngini = 0.112\nsamples = 4356\nvalue = [4097, 259, 0]"] ;
537 -> 565 ;
566 [label="petitioner <= 252.5\ngini = 0.107\nsamples = 4343\nvalue = [4097, 246, 0]"] ;
565 -> 566 ;
567 [label="petitioner <= 115.5\ngini = 0.083\nsamples = 4022\nvalue = [3847, 175, 0]"] ;
566 -> 567 ;
568 [label="petitioner <= 114.5\ngini = 0.19\nsamples = 1521\nvalue = [1359, 162, 0]"] ;
567 -> 568 ;
569 [label="issue <= 90330.0\ngini = 0.177\nsamples = 1507\nvalue = [1359, 148, 0]"] ;
568 -> 569 ;
570 [label="lawType <= 7.0\ngini = 0.114\nsamples = 1137\nvalue = [1068, 69, 0]"] ;
569 -> 570 ;
571 [label="issue <= 20160.0\ngini = 0.105\nsamples = 1131\nvalue = [1068, 63, 0]"] ;
570 -> 571 ;
572 [label="lawType <= 3.5\ngini = 0.346\nsamples = 153\nvalue = [119, 34, 0]"] ;
571 -> 572 ;
573 [label="caseSource <= 23.0\ngini = 0.091\nsamples = 125\nvalue = [119, 6, 0]"] ;
572 -> 573 ;
574 [label="gini = 0.0\nsamples = 6\nvalue = [0, 6, 0]"] ;
573 -> 574 ;
575 [label="gini = 0.0\nsamples = 119\nvalue = [119, 0, 0]"] ;
573 -> 575 ;
576 [label="gini = 0.0\nsamples = 28\nvalue = [0, 28, 0]"] ;
572 -> 576 ;
577 [label="caseSource <= 23.5\ngini = 0.058\nsamples = 978\nvalue = [949, 29, 0]"] ;
571 -> 577 ;
578 [label="petitionerState <= 17.5\ngini = 0.241\nsamples = 107\nvalue = [92, 15, 0]"] ;
577 -> 578 ;
579 [label="majVotes <= 8.5\ngini = 0.147\nsamples = 100\nvalue = [92, 8, 0]"] ;
578 -> 579 ;
580 [label="gini = 0.0\nsamples = 72\nvalue = [72, 0, 0]"] ;
579 -> 580 ;
581 [label="respondent <= 115.0\ngini = 0.408\nsamples = 28\nvalue = [20, 8, 0]"] ;
579 -> 581 ;
582 [label="gini = 0.0\nsamples = 20\nvalue = [20, 0, 0]"] ;
581 -> 582 ;
583 [label="gini = 0.0\nsamples = 8\nvalue = [0, 8, 0]"] ;
581 -> 583 ;
584 [label="gini = 0.0\nsamples = 7\nvalue = [0, 7, 0]"] ;
578 -> 584 ;
585 [label="caseSource <= 27.5\ngini = 0.032\nsamples = 871\nvalue = [857, 14, 0]"] ;
577 -> 585 ;
586 [label="caseOrigin <= 76.5\ngini = 0.094\nsamples = 284\nvalue = [270, 14, 0]"] ;
585 -> 586 ;
587 [label="caseOrigin <= 71.5\ngini = 0.26\nsamples = 91\nvalue = [77, 14, 0]"] ;
586 -> 587 ;
588 [label="respondent <= 115.0\ngini = 0.153\nsamples = 84\nvalue = [77, 7, 0]"] ;
587 -> 588 ;
589 [label="respondent <= 107.0\ngini = 0.434\nsamples = 22\nvalue = [15, 7, 0]"] ;
588 -> 589 ;
590 [label="gini = 0.0\nsamples = 15\nvalue = [15, 0, 0]"] ;
589 -> 590 ;
591 [label="gini = 0.0\nsamples = 7\nvalue = [0, 7, 0]"] ;
589 -> 591 ;
592 [label="gini = 0.0\nsamples = 62\nvalue = [62, 0, 0]"] ;
588 -> 592 ;
593 [label="gini = 0.0\nsamples = 7\nvalue = [0, 7, 0]"] ;
587 -> 593 ;
594 [label="gini = 0.0\nsamples = 193\nvalue = [193, 0, 0]"] ;
586 -> 594 ;
595 [label="gini = 0.0\nsamples = 587\nvalue = [587, 0, 0]"] ;
585 -> 595 ;
596 [label="gini = 0.0\nsamples = 6\nvalue = [0, 6, 0]"] ;
570 -> 596 ;
597 [label="petitioner <= 6.5\ngini = 0.336\nsamples = 370\nvalue = [291, 79, 0]"] ;
569 -> 597 ;
598 [label="certReason <= 7.0\ngini = 0.224\nsamples = 39\nvalue = [5, 34, 0]"] ;
597 -> 598 ;
599 [label="gini = 0.0\nsamples = 34\nvalue = [0, 34, 0]"] ;
598 -> 599 ;
600 [label="gini = 0.0\nsamples = 5\nvalue = [5, 0, 0]"] ;
598 -> 600 ;
601 [label="certReason <= 1.5\ngini = 0.235\nsamples = 331\nvalue = [286, 45, 0]"] ;
597 -> 601 ;
602 [label="issue <= 90400.0\ngini = 0.449\nsamples = 100\nvalue = [66, 34, 0]"] ;
601 -> 602 ;
603 [label="voteUnclear <= 0.5\ngini = 0.133\nsamples = 56\nvalue = [52, 4, 0]"] ;
602 -> 603 ;
604 [label="gini = 0.0\nsamples = 52\nvalue = [52, 0, 0]"] ;
603 -> 604 ;
605 [label="gini = 0.0\nsamples = 4\nvalue = [0, 4, 0]"] ;
603 -> 605 ;
606 [label="yearOfCaseInitiate <= 1960.5\ngini = 0.434\nsamples = 44\nvalue = [14, 30, 0]"] ;
602 -> 606 ;
607 [label="gini = 0.0\nsamples = 14\nvalue = [14, 0, 0]"] ;
606 -> 607 ;
608 [label="gini = 0.0\nsamples = 30\nvalue = [0, 30, 0]"] ;
606 -> 608 ;
609 [label="yearOfCaseInitiate <= 1958.0\ngini = 0.091\nsamples = 231\nvalue = [220, 11, 0]"] ;
601 -> 609 ;
610 [label="term <= 1956.5\ngini = 0.228\nsamples = 84\nvalue = [73, 11, 0]"] ;
609 -> 610 ;
611 [label="certReason <= 3.0\ngini = 0.12\nsamples = 78\nvalue = [73, 5, 0]"] ;
610 -> 611 ;
612 [label="caseOrigin <= 97.5\ngini = 0.496\nsamples = 11\nvalue = [6, 5, 0]"] ;
611 -> 612 ;
613 [label="gini = 0.0\nsamples = 5\nvalue = [0, 5, 0]"] ;
612 -> 613 ;
614 [label="gini = 0.0\nsamples = 6\nvalue = [6, 0, 0]"] ;
612 -> 614 ;
615 [label="gini = 0.0\nsamples = 67\nvalue = [67, 0, 0]"] ;
611 -> 615 ;
616 [label="gini = 0.0\nsamples = 6\nvalue = [0, 6, 0]"] ;
610 -> 616 ;
617 [label="gini = 0.0\nsamples = 147\nvalue = [147, 0, 0]"] ;
609 -> 617 ;
618 [label="gini = 0.0\nsamples = 14\nvalue = [0, 14, 0]"] ;
568 -> 618 ;
619 [label="respondent <= 342.0\ngini = 0.01\nsamples = 2501\nvalue = [2488, 13, 0]"] ;
567 -> 619 ;
620 [label="petitioner <= 230.5\ngini = 0.008\nsamples = 2481\nvalue = [2471, 10, 0]"] ;
619 -> 620 ;
621 [label="gini = 0.0\nsamples = 1794\nvalue = [1794, 0, 0]"] ;
620 -> 621 ;
622 [label="caseOrigin <= 52.5\ngini = 0.029\nsamples = 687\nvalue = [677, 10, 0]"] ;
620 -> 622 ;
623 [label="minVotes <= 1.5\ngini = 0.219\nsamples = 32\nvalue = [28, 4, 0]"] ;
622 -> 623 ;
624 [label="gini = 0.0\nsamples = 28\nvalue = [28, 0, 0]"] ;
623 -> 624 ;
625 [label="gini = 0.0\nsamples = 4\nvalue = [0, 4, 0]"] ;
623 -> 625 ;
626 [label="lcDisposition <= 3.5\ngini = 0.018\nsamples = 655\nvalue = [649, 6, 0]"] ;
622 -> 626 ;
627 [label="gini = 0.0\nsamples = 515\nvalue = [515, 0, 0]"] ;
626 -> 627 ;
628 [label="respondent <= 148.0\ngini = 0.082\nsamples = 140\nvalue = [134, 6, 0]"] ;
626 -> 628 ;
629 [label="majOpinWriter <= 93.5\ngini = 0.496\nsamples = 11\nvalue = [5, 6, 0]"] ;
628 -> 629 ;
630 [label="gini = 0.0\nsamples = 5\nvalue = [5, 0, 0]"] ;
629 -> 630 ;
631 [label="gini = 0.0\nsamples = 6\nvalue = [0, 6, 0]"] ;
629 -> 631 ;
632 [label="gini = 0.0\nsamples = 129\nvalue = [129, 0, 0]"] ;
628 -> 632 ;
633 [label="adminAction <= 56.0\ngini = 0.255\nsamples = 20\nvalue = [17, 3, 0]"] ;
619 -> 633 ;
634 [label="gini = 0.0\nsamples = 3\nvalue = [0, 3, 0]"] ;
633 -> 634 ;
635 [label="gini = 0.0\nsamples = 17\nvalue = [17, 0, 0]"] ;
633 -> 635 ;
636 [label="lcDisposition <= 6.5\ngini = 0.345\nsamples = 321\nvalue = [250, 71, 0]"] ;
566 -> 636 ;
637 [label="caseOrigin <= 57.0\ngini = 0.274\nsamples = 299\nvalue = [250, 49, 0]"] ;
636 -> 637 ;
638 [label="caseOrigin <= 55.5\ngini = 0.448\nsamples = 115\nvalue = [76, 39, 0]"] ;
637 -> 638 ;
639 [label="minVotes <= 3.5\ngini = 0.32\nsamples = 95\nvalue = [76, 19, 0]"] ;
638 -> 639 ;
640 [label="issue <= 40045.0\ngini = 0.154\nsamples = 83\nvalue = [76, 7, 0]"] ;
639 -> 640 ;
641 [label="gini = 0.0\nsamples = 7\nvalue = [0, 7, 0]"] ;
640 -> 641 ;
642 [label="gini = 0.0\nsamples = 76\nvalue = [76, 0, 0]"] ;
640 -> 642 ;
643 [label="gini = 0.0\nsamples = 12\nvalue = [0, 12, 0]"] ;
639 -> 643 ;
644 [label="gini = 0.0\nsamples = 20\nvalue = [0, 20, 0]"] ;
638 -> 644 ;
645 [label="voteUnclear <= 0.5\ngini = 0.103\nsamples = 184\nvalue = [174, 10, 0]"] ;
637 -> 645 ;
646 [label="petitioner <= 289.5\ngini = 0.054\nsamples = 179\nvalue = [174, 5, 0]"] ;
645 -> 646 ;
647 [label="yearOfDecision <= 1972.5\ngini = 0.486\nsamples = 12\nvalue = [7, 5, 0]"] ;
646 -> 647 ;
648 [label="gini = 0.0\nsamples = 7\nvalue = [7, 0, 0]"] ;
647 -> 648 ;
649 [label="gini = 0.0\nsamples = 5\nvalue = [0, 5, 0]"] ;
647 -> 649 ;
650 [label="gini = 0.0\nsamples = 167\nvalue = [167, 0, 0]"] ;
646 -> 650 ;
651 [label="gini = 0.0\nsamples = 5\nvalue = [0, 5, 0]"] ;
645 -> 651 ;
652 [label="gini = 0.0\nsamples = 22\nvalue = [0, 22, 0]"] ;
636 -> 652 ;
653 [label="gini = 0.0\nsamples = 13\nvalue = [0, 13, 0]"] ;
565 -> 653 ;
654 [label="issue <= 55025.0\ngini = 0.45\nsamples = 474\nvalue = [312, 162, 0]"] ;
536 -> 654 ;
655 [label="lawSupp <= 304.5\ngini = 0.439\nsamples = 135\nvalue = [44, 91, 0]"] ;
654 -> 655 ;
656 [label="gini = 0.0\nsamples = 67\nvalue = [0, 67, 0]"] ;
655 -> 656 ;
657 [label="petitioner <= 268.0\ngini = 0.457\nsamples = 68\nvalue = [44, 24, 0]"] ;
655 -> 657 ;
658 [label="majOpinWriter <= 101.5\ngini = 0.32\nsamples = 55\nvalue = [44, 11, 0]"] ;
657 -> 658 ;
659 [label="gini = 0.0\nsamples = 11\nvalue = [0, 11, 0]"] ;
658 -> 659 ;
660 [label="gini = 0.0\nsamples = 44\nvalue = [44, 0, 0]"] ;
658 -> 660 ;
661 [label="gini = 0.0\nsamples = 13\nvalue = [0, 13, 0]"] ;
657 -> 661 ;
662 [label="respondent <= 112.5\ngini = 0.331\nsamples = 339\nvalue = [268, 71, 0]"] ;
654 -> 662 ;
663 [label="adminAction <= 68.5\ngini = 0.375\nsamples = 32\nvalue = [8, 24, 0]"] ;
662 -> 663 ;
664 [label="gini = 0.0\nsamples = 8\nvalue = [8, 0, 0]"] ;
663 -> 664 ;
665 [label="gini = 0.0\nsamples = 24\nvalue = [0, 24, 0]"] ;
663 -> 665 ;
666 [label="petitioner <= 132.0\ngini = 0.259\nsamples = 307\nvalue = [260, 47, 0]"] ;
662 -> 666 ;
667 [label="yearOfCaseInitiate <= 2013.5\ngini = 0.442\nsamples = 115\nvalue = [77, 38, 0]"] ;
666 -> 667 ;
668 [label="respondent <= 191.0\ngini = 0.475\nsamples = 62\nvalue = [24, 38, 0]"] ;
667 -> 668 ;
669 [label="gini = 0.0\nsamples = 38\nvalue = [0, 38, 0]"] ;
668 -> 669 ;
670 [label="gini = 0.0\nsamples = 24\nvalue = [24, 0, 0]"] ;
668 -> 670 ;
671 [label="gini = 0.0\nsamples = 53\nvalue = [53, 0, 0]"] ;
667 -> 671 ;
672 [label="majOpinAssigner <= 101.0\ngini = 0.089\nsamples = 192\nvalue = [183, 9, 0]"] ;
666 -> 672 ;
673 [label="gini = 0.0\nsamples = 6\nvalue = [0, 6, 0]"] ;
672 -> 673 ;
674 [label="authorityDecision1 <= 6.0\ngini = 0.032\nsamples = 186\nvalue = [183, 3, 0]"] ;
672 -> 674 ;
675 [label="gini = 0.0\nsamples = 172\nvalue = [172, 0, 0]"] ;
674 -> 675 ;
676 [label="lawSupp <= 482.5\ngini = 0.337\nsamples = 14\nvalue = [11, 3, 0]"] ;
674 -> 676 ;
677 [label="gini = 0.0\nsamples = 11\nvalue = [11, 0, 0]"] ;
676 -> 677 ;
678 [label="gini = 0.0\nsamples = 3\nvalue = [0, 3, 0]"] ;
676 -> 678 ;
679 [label="term <= 1954.5\ngini = 0.209\nsamples = 93\nvalue = [11, 82, 0]"] ;
535 -> 679 ;
680 [label="gini = 0.0\nsamples = 11\nvalue = [11, 0, 0]"] ;
679 -> 680 ;
681 [label="gini = 0.0\nsamples = 82\nvalue = [0, 82, 0]"] ;
679 -> 681 ;
682 [label="yearOfDecision <= 1949.5\ngini = 0.087\nsamples = 17428\nvalue = [792, 16636, 0]"] ;
534 -> 682 ;
683 [label="majOpinWriter <= 86.5\ngini = 0.405\nsamples = 620\nvalue = [175, 445, 0]"] ;
682 -> 683 ;
684 [label="respondent <= 251.0\ngini = 0.035\nsamples = 389\nvalue = [7, 382, 0]"] ;
683 -> 684 ;
685 [label="gini = 0.0\nsamples = 376\nvalue = [0, 376, 0]"] ;
684 -> 685 ;
686 [label="naturalCourt <= 1302.0\ngini = 0.497\nsamples = 13\nvalue = [7, 6, 0]"] ;
684 -> 686 ;
687 [label="gini = 0.0\nsamples = 7\nvalue = [7, 0, 0]"] ;
686 -> 687 ;
688 [label="gini = 0.0\nsamples = 6\nvalue = [0, 6, 0]"] ;
686 -> 688 ;
689 [label="majVotes <= 8.0\ngini = 0.397\nsamples = 231\nvalue = [168, 63, 0]"] ;
683 -> 689 ;
690 [label="respondent <= 148.0\ngini = 0.274\nsamples = 201\nvalue = [168, 33, 0]"] ;
689 -> 690 ;
691 [label="gini = 0.0\nsamples = 20\nvalue = [0, 20, 0]"] ;
690 -> 691 ;
692 [label="caseOrigin <= 95.0\ngini = 0.133\nsamples = 181\nvalue = [168, 13, 0]"] ;
690 -> 692 ;
693 [label="lawSupp <= 500.5\ngini = 0.077\nsamples = 175\nvalue = [168, 7, 0]"] ;
692 -> 693 ;
694 [label="gini = 0.0\nsamples = 139\nvalue = [139, 0, 0]"] ;
693 -> 694 ;
695 [label="caseOriginState <= 5.0\ngini = 0.313\nsamples = 36\nvalue = [29, 7, 0]"] ;
693 -> 695 ;
696 [label="gini = 0.0\nsamples = 21\nvalue = [21, 0, 0]"] ;
695 -> 696 ;
697 [label="justiceNameEncode <= 0.5\ngini = 0.498\nsamples = 15\nvalue = [8, 7, 0]"] ;
695 -> 697 ;
698 [label="gini = 0.0\nsamples = 1\nvalue = [1, 0, 0]"] ;
697 -> 698 ;
699 [label="justiceNameEncode <= 1.5\ngini = 0.5\nsamples = 14\nvalue = [7, 7, 0]"] ;
697 -> 699 ;
700 [label="gini = 0.0\nsamples = 1\nvalue = [0, 1, 0]"] ;
699 -> 700 ;
701 [label="justiceNameEncode <= 2.5\ngini = 0.497\nsamples = 13\nvalue = [7, 6, 0]"] ;
699 -> 701 ;
702 [label="gini = 0.0\nsamples = 1\nvalue = [1, 0, 0]"] ;
701 -> 702 ;
703 [label="majority <= 1.5\ngini = 0.5\nsamples = 12\nvalue = [6, 6, 0]"] ;
701 -> 703 ;
704 [label="justiceNameEncode <= 5.5\ngini = 0.5\nsamples = 6\nvalue = [3, 3, 0]"] ;
703 -> 704 ;
705 [label="gini = 0.5\nsamples = 2\nvalue = [1, 1, 0]"] ;
704 -> 705 ;
706 [label="justiceNameEncode <= 6.5\ngini = 0.5\nsamples = 4\nvalue = [2, 2, 0]"] ;
704 -> 706 ;
707 [label="gini = 0.5\nsamples = 2\nvalue = [1, 1, 0]"] ;
706 -> 707 ;
708 [label="gini = 0.5\nsamples = 2\nvalue = [1, 1, 0]"] ;
706 -> 708 ;
709 [label="vote <= 2.5\ngini = 0.5\nsamples = 6\nvalue = [3, 3, 0]"] ;
703 -> 709 ;
710 [label="justice <= 83.0\ngini = 0.5\nsamples = 4\nvalue = [2, 2, 0]"] ;
709 -> 710 ;
711 [label="gini = 0.5\nsamples = 2\nvalue = [1, 1, 0]"] ;
710 -> 711 ;
712 [label="gini = 0.5\nsamples = 2\nvalue = [1, 1, 0]"] ;
710 -> 712 ;
713 [label="gini = 0.5\nsamples = 2\nvalue = [1, 1, 0]"] ;
709 -> 713 ;
714 [label="gini = 0.0\nsamples = 6\nvalue = [0, 6, 0]"] ;
692 -> 714 ;
715 [label="gini = 0.0\nsamples = 30\nvalue = [0, 30, 0]"] ;
689 -> 715 ;
716 [label="vote <= 7.5\ngini = 0.071\nsamples = 16808\nvalue = [617, 16191, 0]"] ;
682 -> 716 ;
717 [label="lawSupp <= 115.0\ngini = 0.069\nsamples = 16790\nvalue = [599, 16191, 0]"] ;
716 -> 717 ;
718 [label="caseOrigin <= 67.5\ngini = 0.483\nsamples = 108\nvalue = [44, 64, 0]"] ;
717 -> 718 ;
719 [label="issue <= 95110.0\ngini = 0.421\nsamples = 63\nvalue = [44, 19, 0]"] ;
718 -> 719 ;
720 [label="issue <= 30095.0\ngini = 0.26\nsamples = 52\nvalue = [44, 8, 0]"] ;
719 -> 720 ;
721 [label="gini = 0.0\nsamples = 8\nvalue = [0, 8, 0]"] ;
720 -> 721 ;
722 [label="gini = 0.0\nsamples = 44\nvalue = [44, 0, 0]"] ;
720 -> 722 ;
723 [label="gini = 0.0\nsamples = 11\nvalue = [0, 11, 0]"] ;
719 -> 723 ;
724 [label="gini = 0.0\nsamples = 45\nvalue = [0, 45, 0]"] ;
718 -> 724 ;
725 [label="issueArea <= 6.5\ngini = 0.064\nsamples = 16682\nvalue = [555, 16127, 0]"] ;
717 -> 725 ;
726 [label="respondent <= 340.5\ngini = 0.021\nsamples = 9797\nvalue = [105, 9692, 0]"] ;
725 -> 726 ;
727 [label="decisionDirectionDissent <= 0.5\ngini = 0.015\nsamples = 9736\nvalue = [73, 9663, 0]"] ;
726 -> 727 ;
728 [label="lcDispositionDirection <= 2.5\ngini = 0.011\nsamples = 9698\nvalue = [54, 9644, 0]"] ;
727 -> 728 ;
729 [label="lawType <= 8.5\ngini = 0.01\nsamples = 9665\nvalue = [48, 9617, 0]"] ;
728 -> 729 ;
730 [label="lcDisposition <= 5.5\ngini = 0.009\nsamples = 9614\nvalue = [42, 9572, 0]"] ;
729 -> 730 ;
731 [label="adminActionState <= 50.0\ngini = 0.005\nsamples = 8765\nvalue = [21, 8744, 0]"] ;
730 -> 731 ;
732 [label="caseSource <= 300.5\ngini = 0.003\nsamples = 8628\nvalue = [14, 8614, 0]"] ;
731 -> 732 ;
733 [label="respondent <= 250.5\ngini = 0.002\nsamples = 8375\nvalue = [8, 8367, 0]"] ;
732 -> 733 ;
734 [label="gini = 0.0\nsamples = 7871\nvalue = [0, 7871, 0]"] ;
733 -> 734 ;
735 [label="argumentMade <= 0.5\ngini = 0.031\nsamples = 504\nvalue = [8, 496, 0]"] ;
733 -> 735 ;
736 [label="caseOrigin <= 81.0\ngini = 0.326\nsamples = 39\nvalue = [8, 31, 0]"] ;
735 -> 736 ;
737 [label="gini = 0.0\nsamples = 25\nvalue = [0, 25, 0]"] ;
736 -> 737 ;
738 [label="caseSource <= 103.0\ngini = 0.49\nsamples = 14\nvalue = [8, 6, 0]"] ;
736 -> 738 ;
739 [label="gini = 0.0\nsamples = 8\nvalue = [8, 0, 0]"] ;
738 -> 739 ;
740 [label="gini = 0.0\nsamples = 6\nvalue = [0, 6, 0]"] ;
738 -> 740 ;
741 [label="gini = 0.0\nsamples = 465\nvalue = [0, 465, 0]"] ;
735 -> 741 ;
742 [label="jurisdiction <= 1.5\ngini = 0.046\nsamples = 253\nvalue = [6, 247, 0]"] ;
732 -> 742 ;
743 [label="gini = 0.0\nsamples = 247\nvalue = [0, 247, 0]"] ;
742 -> 743 ;
744 [label="gini = 0.0\nsamples = 6\nvalue = [6, 0, 0]"] ;
742 -> 744 ;
745 [label="issue <= 50025.0\ngini = 0.097\nsamples = 137\nvalue = [7, 130, 0]"] ;
731 -> 745 ;
746 [label="gini = 0.0\nsamples = 130\nvalue = [0, 130, 0]"] ;
745 -> 746 ;
747 [label="gini = 0.0\nsamples = 7\nvalue = [7, 0, 0]"] ;
745 -> 747 ;
748 [label="respondent <= 231.5\ngini = 0.048\nsamples = 849\nvalue = [21, 828, 0]"] ;
730 -> 748 ;
749 [label="argumentMade <= 0.5\ngini = 0.017\nsamples = 797\nvalue = [7, 790, 0]"] ;
748 -> 749 ;
750 [label="issue <= 20165.0\ngini = 0.142\nsamples = 91\nvalue = [7, 84, 0]"] ;
749 -> 750 ;
751 [label="gini = 0.0\nsamples = 84\nvalue = [0, 84, 0]"] ;
750 -> 751 ;
752 [label="gini = 0.0\nsamples = 7\nvalue = [7, 0, 0]"] ;
750 -> 752 ;
753 [label="gini = 0.0\nsamples = 706\nvalue = [0, 706, 0]"] ;
749 -> 753 ;
754 [label="caseSource <= 211.0\ngini = 0.393\nsamples = 52\nvalue = [14, 38, 0]"] ;
748 -> 754 ;
755 [label="gini = 0.0\nsamples = 38\nvalue = [0, 38, 0]"] ;
754 -> 755 ;
756 [label="gini = 0.0\nsamples = 14\nvalue = [14, 0, 0]"] ;
754 -> 756 ;
757 [label="caseOrigin <= 70.5\ngini = 0.208\nsamples = 51\nvalue = [6, 45, 0]"] ;
729 -> 757 ;
758 [label="gini = 0.0\nsamples = 6\nvalue = [6, 0, 0]"] ;
757 -> 758 ;
759 [label="gini = 0.0\nsamples = 45\nvalue = [0, 45, 0]"] ;
757 -> 759 ;
760 [label="lawType <= 2.5\ngini = 0.298\nsamples = 33\nvalue = [6, 27, 0]"] ;
728 -> 760 ;
761 [label="gini = 0.0\nsamples = 27\nvalue = [0, 27, 0]"] ;
760 -> 761 ;
762 [label="gini = 0.0\nsamples = 6\nvalue = [6, 0, 0]"] ;
760 -> 762 ;
763 [label="adminActionState <= 21.5\ngini = 0.5\nsamples = 38\nvalue = [19, 19, 0]"] ;
727 -> 763 ;
764 [label="yearOfDecision <= 1998.0\ngini = 0.33\nsamples = 24\nvalue = [19, 5, 0]"] ;
763 -> 764 ;
765 [label="gini = 0.0\nsamples = 19\nvalue = [19, 0, 0]"] ;
764 -> 765 ;
766 [label="gini = 0.0\nsamples = 5\nvalue = [0, 5, 0]"] ;
764 -> 766 ;
767 [label="gini = 0.0\nsamples = 14\nvalue = [0, 14, 0]"] ;
763 -> 767 ;
768 [label="majOpinAssigner <= 101.5\ngini = 0.499\nsamples = 61\nvalue = [32, 29, 0]"] ;
726 -> 768 ;
769 [label="gini = 0.0\nsamples = 32\nvalue = [32, 0, 0]"] ;
768 -> 769 ;
770 [label="gini = 0.0\nsamples = 29\nvalue = [0, 29, 0]"] ;
768 -> 770 ;
771 [label="lawSupp <= 700.0\ngini = 0.122\nsamples = 6885\nvalue = [450, 6435, 0]"] ;
725 -> 771 ;
772 [label="jurisdiction <= 9.0\ngini = 0.117\nsamples = 6849\nvalue = [426, 6423, 0]"] ;
771 -> 772 ;
773 [label="yearOfCaseInitiate <= 1997.5\ngini = 0.112\nsamples = 6822\nvalue = [407, 6415, 0]"] ;
772 -> 773 ;
774 [label="majOpinAssigner <= 93.0\ngini = 0.083\nsamples = 5428\nvalue = [236, 5192, 0]"] ;
773 -> 774 ;
775 [label="yearOfDecision <= 1969.5\ngini = 0.181\nsamples = 1784\nvalue = [180, 1604, 0]"] ;
774 -> 775 ;
776 [label="respondent <= 314.5\ngini = 0.121\nsamples = 1660\nvalue = [107, 1553, 0]"] ;
775 -> 776 ;
777 [label="adminAction <= 4.5\ngini = 0.115\nsamples = 1654\nvalue = [101, 1553, 0]"] ;
776 -> 777 ;
778 [label="lcDisagreement <= 0.5\ngini = 0.476\nsamples = 41\nvalue = [16, 25, 0]"] ;
777 -> 778 ;
779 [label="justice <= 78.5\ngini = 0.111\nsamples = 17\nvalue = [16, 1, 0]"] ;
778 -> 779 ;
780 [label="lawSupp <= 403.5\ngini = 0.444\nsamples = 3\nvalue = [2, 1, 0]"] ;
779 -> 780 ;
781 [label="gini = 0.0\nsamples = 1\nvalue = [1, 0, 0]"] ;
780 -> 781 ;
782 [label="gini = 0.5\nsamples = 2\nvalue = [1, 1, 0]"] ;
780 -> 782 ;
783 [label="gini = 0.0\nsamples = 14\nvalue = [14, 0, 0]"] ;
779 -> 783 ;
784 [label="gini = 0.0\nsamples = 24\nvalue = [0, 24, 0]"] ;
778 -> 784 ;
785 [label="petitioner <= 121.5\ngini = 0.1\nsamples = 1613\nvalue = [85, 1528, 0]"] ;
777 -> 785 ;
786 [label="issue <= 80065.0\ngini = 0.2\nsamples = 586\nvalue = [66, 520, 0]"] ;
785 -> 786 ;
787 [label="issue <= 80055.0\ngini = 0.495\nsamples = 80\nvalue = [36, 44, 0]"] ;
786 -> 787 ;
788 [label="minVotes <= 3.5\ngini = 0.25\nsamples = 41\nvalue = [6, 35, 0]"] ;
787 -> 788 ;
789 [label="gini = 0.0\nsamples = 35\nvalue = [0, 35, 0]"] ;
788 -> 789 ;
790 [label="gini = 0.0\nsamples = 6\nvalue = [6, 0, 0]"] ;
788 -> 790 ;
791 [label="caseSource <= 23.5\ngini = 0.355\nsamples = 39\nvalue = [30, 9, 0]"] ;
787 -> 791 ;
792 [label="gini = 0.0\nsamples = 30\nvalue = [30, 0, 0]"] ;
791 -> 792 ;
793 [label="gini = 0.0\nsamples = 9\nvalue = [0, 9, 0]"] ;
791 -> 793 ;
794 [label="respondent <= 250.5\ngini = 0.112\nsamples = 506\nvalue = [30, 476, 0]"] ;
786 -> 794 ;
795 [label="issue <= 90370.0\ngini = 0.091\nsamples = 500\nvalue = [24, 476, 0]"] ;
794 -> 795 ;
796 [label="gini = 0.0\nsamples = 413\nvalue = [0, 413, 0]"] ;
795 -> 796 ;
797 [label="lcDisposition <= 6.5\ngini = 0.4\nsamples = 87\nvalue = [24, 63, 0]"] ;
795 -> 797 ;
798 [label="minVotes <= 2.5\ngini = 0.253\nsamples = 74\nvalue = [11, 63, 0]"] ;
797 -> 798 ;
799 [label="gini = 0.0\nsamples = 63\nvalue = [0, 63, 0]"] ;
798 -> 799 ;
800 [label="gini = 0.0\nsamples = 11\nvalue = [11, 0, 0]"] ;
798 -> 800 ;
801 [label="gini = 0.0\nsamples = 13\nvalue = [13, 0, 0]"] ;
797 -> 801 ;
802 [label="gini = 0.0\nsamples = 6\nvalue = [6, 0, 0]"] ;
794 -> 802 ;
803 [label="caseOriginState <= 53.5\ngini = 0.036\nsamples = 1027\nvalue = [19, 1008, 0]"] ;
785 -> 803 ;
804 [label="caseSourceState <= 22.5\ngini = 0.023\nsamples = 1020\nvalue = [12, 1008, 0]"] ;
803 -> 804 ;
805 [label="respondent <= 302.5\ngini = 0.008\nsamples = 973\nvalue = [4, 969, 0]"] ;
804 -> 805 ;
806 [label="gini = 0.0\nsamples = 957\nvalue = [0, 957, 0]"] ;
805 -> 806 ;
807 [label="minVotes <= 1.0\ngini = 0.375\nsamples = 16\nvalue = [4, 12, 0]"] ;
805 -> 807 ;
808 [label="gini = 0.0\nsamples = 4\nvalue = [4, 0, 0]"] ;
807 -> 808 ;
809 [label="gini = 0.0\nsamples = 12\nvalue = [0, 12, 0]"] ;
807 -> 809 ;
810 [label="caseOriginState <= 26.5\ngini = 0.282\nsamples = 47\nvalue = [8, 39, 0]"] ;
804 -> 810 ;
811 [label="gini = 0.0\nsamples = 8\nvalue = [8, 0, 0]"] ;
810 -> 811 ;
812 [label="gini = 0.0\nsamples = 39\nvalue = [0, 39, 0]"] ;
810 -> 812 ;
813 [label="gini = 0.0\nsamples = 7\nvalue = [7, 0, 0]"] ;
803 -> 813 ;
814 [label="gini = 0.0\nsamples = 6\nvalue = [6, 0, 0]"] ;
776 -> 814 ;
815 [label="issueArea <= 9.5\ngini = 0.484\nsamples = 124\nvalue = [73, 51, 0]"] ;
775 -> 815 ;
816 [label="lcDisposition <= 5.0\ngini = 0.306\nsamples = 90\nvalue = [73, 17, 0]"] ;
815 -> 816 ;
817 [label="issue <= 70035.0\ngini = 0.14\nsamples = 79\nvalue = [73, 6, 0]"] ;
816 -> 817 ;
818 [label="gini = 0.0\nsamples = 6\nvalue = [0, 6, 0]"] ;
817 -> 818 ;
819 [label="gini = 0.0\nsamples = 73\nvalue = [73, 0, 0]"] ;
817 -> 819 ;
820 [label="gini = 0.0\nsamples = 11\nvalue = [0, 11, 0]"] ;
816 -> 820 ;
821 [label="gini = 0.0\nsamples = 34\nvalue = [0, 34, 0]"] ;
815 -> 821 ;
822 [label="term <= 1969.5\ngini = 0.03\nsamples = 3644\nvalue = [56, 3588, 0]"] ;
774 -> 822 ;
823 [label="caseSource <= 48.5\ngini = 0.243\nsamples = 92\nvalue = [13, 79, 0]"] ;
822 -> 823 ;
824 [label="gini = 0.0\nsamples = 68\nvalue = [0, 68, 0]"] ;
823 -> 824 ;
825 [label="lawType <= 2.0\ngini = 0.497\nsamples = 24\nvalue = [13, 11, 0]"] ;
823 -> 825 ;
826 [label="gini = 0.0\nsamples = 11\nvalue = [0, 11, 0]"] ;
825 -> 826 ;
827 [label="gini = 0.0\nsamples = 13\nvalue = [13, 0, 0]"] ;
825 -> 827 ;
828 [label="issue <= 100100.0\ngini = 0.024\nsamples = 3552\nvalue = [43, 3509, 0]"] ;
822 -> 828 ;
829 [label="caseOrigin <= 6.0\ngini = 0.021\nsamples = 3524\nvalue = [37, 3487, 0]"] ;
828 -> 829 ;
830 [label="authorityDecision1 <= 2.0\ngini = 0.363\nsamples = 21\nvalue = [5, 16, 0]"] ;
829 -> 830 ;
831 [label="gini = 0.0\nsamples = 16\nvalue = [0, 16, 0]"] ;
830 -> 831 ;
832 [label="gini = 0.0\nsamples = 5\nvalue = [5, 0, 0]"] ;
830 -> 832 ;
833 [label="petitionerState <= 56.5\ngini = 0.018\nsamples = 3503\nvalue = [32, 3471, 0]"] ;
829 -> 833 ;
834 [label="issue <= 70020.0\ngini = 0.014\nsamples = 3428\nvalue = [24, 3404, 0]"] ;
833 -> 834 ;
835 [label="adminAction <= 50.5\ngini = 0.255\nsamples = 20\nvalue = [3, 17, 0]"] ;
834 -> 835 ;
836 [label="gini = 0.0\nsamples = 3\nvalue = [3, 0, 0]"] ;
835 -> 836 ;
837 [label="gini = 0.0\nsamples = 17\nvalue = [0, 17, 0]"] ;
835 -> 837 ;
838 [label="majOpinWriter <= 99.5\ngini = 0.012\nsamples = 3408\nvalue = [21, 3387, 0]"] ;
834 -> 838 ;
839 [label="lawSupp <= 142.0\ngini = 0.025\nsamples = 1676\nvalue = [21, 1655, 0]"] ;
838 -> 839 ;
840 [label="caseSource <= 23.5\ngini = 0.14\nsamples = 79\nvalue = [6, 73, 0]"] ;
839 -> 840 ;
841 [label="gini = 0.0\nsamples = 6\nvalue = [6, 0, 0]"] ;
840 -> 841 ;
842 [label="gini = 0.0\nsamples = 73\nvalue = [0, 73, 0]"] ;
840 -> 842 ;
843 [label="yearOfDecision <= 1982.5\ngini = 0.019\nsamples = 1597\nvalue = [15, 1582, 0]"] ;
839 -> 843 ;
844 [label="gini = 0.0\nsamples = 1157\nvalue = [0, 1157, 0]"] ;
843 -> 844 ;
845 [label="majVotes <= 8.5\ngini = 0.066\nsamples = 440\nvalue = [15, 425, 0]"] ;
843 -> 845 ;
846 [label="gini = 0.0\nsamples = 289\nvalue = [0, 289, 0]"] ;
845 -> 846 ;
847 [label="respondent <= 248.0\ngini = 0.179\nsamples = 151\nvalue = [15, 136, 0]"] ;
845 -> 847 ;
848 [label="petitioner <= 241.0\ngini = 0.128\nsamples = 146\nvalue = [10, 136, 0]"] ;
847 -> 848 ;
849 [label="gini = 0.0\nsamples = 126\nvalue = [0, 126, 0]"] ;
848 -> 849 ;
850 [label="caseOrigin <= 104.0\ngini = 0.5\nsamples = 20\nvalue = [10, 10, 0]"] ;
848 -> 850 ;
851 [label="gini = 0.0\nsamples = 10\nvalue = [0, 10, 0]"] ;
850 -> 851 ;
852 [label="gini = 0.0\nsamples = 10\nvalue = [10, 0, 0]"] ;
850 -> 852 ;
853 [label="gini = 0.0\nsamples = 5\nvalue = [5, 0, 0]"] ;
847 -> 853 ;
854 [label="gini = 0.0\nsamples = 1732\nvalue = [0, 1732, 0]"] ;
838 -> 854 ;
855 [label="term <= 1992.0\ngini = 0.191\nsamples = 75\nvalue = [8, 67, 0]"] ;
833 -> 855 ;
856 [label="gini = 0.0\nsamples = 67\nvalue = [0, 67, 0]"] ;
855 -> 856 ;
857 [label="gini = 0.0\nsamples = 8\nvalue = [8, 0, 0]"] ;
855 -> 857 ;
858 [label="majOpinAssigner <= 100.5\ngini = 0.337\nsamples = 28\nvalue = [6, 22, 0]"] ;
828 -> 858 ;
859 [label="gini = 0.0\nsamples = 22\nvalue = [0, 22, 0]"] ;
858 -> 859 ;
860 [label="gini = 0.0\nsamples = 6\nvalue = [6, 0, 0]"] ;
858 -> 860 ;
861 [label="majOpinWriter <= 103.5\ngini = 0.215\nsamples = 1394\nvalue = [171, 1223, 0]"] ;
773 -> 861 ;
862 [label="lcDisposition <= 5.5\ngini = 0.382\nsamples = 334\nvalue = [86, 248, 0]"] ;
861 -> 862 ;
863 [label="lawSupp <= 330.5\ngini = 0.32\nsamples = 310\nvalue = [62, 248, 0]"] ;
862 -> 863 ;
864 [label="gini = 0.0\nsamples = 140\nvalue = [0, 140, 0]"] ;
863 -> 864 ;
865 [label="issue <= 90135.0\ngini = 0.463\nsamples = 170\nvalue = [62, 108, 0]"] ;
863 -> 865 ;
866 [label="gini = 0.0\nsamples = 51\nvalue = [0, 51, 0]"] ;
865 -> 866 ;
867 [label="issue <= 90175.0\ngini = 0.499\nsamples = 119\nvalue = [62, 57, 0]"] ;
865 -> 867 ;
868 [label="gini = 0.0\nsamples = 39\nvalue = [39, 0, 0]"] ;
867 -> 868 ;
869 [label="term <= 2007.5\ngini = 0.41\nsamples = 80\nvalue = [23, 57, 0]"] ;
867 -> 869 ;
870 [label="gini = 0.0\nsamples = 57\nvalue = [0, 57, 0]"] ;
869 -> 870 ;
871 [label="gini = 0.0\nsamples = 23\nvalue = [23, 0, 0]"] ;
869 -> 871 ;
872 [label="gini = 0.0\nsamples = 24\nvalue = [24, 0, 0]"] ;
862 -> 872 ;
873 [label="majOpinWriter <= 113.5\ngini = 0.148\nsamples = 1060\nvalue = [85, 975, 0]"] ;
861 -> 873 ;
874 [label="yearOfCaseInitiate <= 2002.5\ngini = 0.123\nsamples = 1021\nvalue = [67, 954, 0]"] ;
873 -> 874 ;
875 [label="authorityDecision2 <= 5.5\ngini = 0.308\nsamples = 221\nvalue = [42, 179, 0]"] ;
874 -> 875 ;
876 [label="majOpinAssigner <= 102.5\ngini = 0.268\nsamples = 213\nvalue = [34, 179, 0]"] ;
875 -> 876 ;
877 [label="respondent <= 241.5\ngini = 0.2\nsamples = 195\nvalue = [22, 173, 0]"] ;
876 -> 877 ;
878 [label="issue <= 80075.0\ngini = 0.163\nsamples = 190\nvalue = [17, 173, 0]"] ;
877 -> 878 ;
879 [label="issue <= 80055.0\ngini = 0.37\nsamples = 49\nvalue = [12, 37, 0]"] ;
878 -> 879 ;
880 [label="gini = 0.0\nsamples = 37\nvalue = [0, 37, 0]"] ;
879 -> 880 ;
881 [label="gini = 0.0\nsamples = 12\nvalue = [12, 0, 0]"] ;
879 -> 881 ;
882 [label="issue <= 100025.0\ngini = 0.068\nsamples = 141\nvalue = [5, 136, 0]"] ;
878 -> 882 ;
883 [label="gini = 0.0\nsamples = 124\nvalue = [0, 124, 0]"] ;
882 -> 883 ;
884 [label="caseOrigin <= 176.0\ngini = 0.415\nsamples = 17\nvalue = [5, 12, 0]"] ;
882 -> 884 ;
885 [label="gini = 0.0\nsamples = 5\nvalue = [5, 0, 0]"] ;
884 -> 885 ;
886 [label="gini = 0.0\nsamples = 12\nvalue = [0, 12, 0]"] ;
884 -> 886 ;
887 [label="gini = 0.0\nsamples = 5\nvalue = [5, 0, 0]"] ;
877 -> 887 ;
888 [label="adminAction <= 81.5\ngini = 0.444\nsamples = 18\nvalue = [12, 6, 0]"] ;
876 -> 888 ;
889 [label="gini = 0.0\nsamples = 12\nvalue = [12, 0, 0]"] ;
888 -> 889 ;
890 [label="gini = 0.0\nsamples = 6\nvalue = [0, 6, 0]"] ;
888 -> 890 ;
891 [label="gini = 0.0\nsamples = 8\nvalue = [8, 0, 0]"] ;
875 -> 891 ;
892 [label="petitionerState <= 55.0\ngini = 0.061\nsamples = 800\nvalue = [25, 775, 0]"] ;
874 -> 892 ;
893 [label="threeJudgeFdc <= 0.5\ngini = 0.045\nsamples = 786\nvalue = [18, 768, 0]"] ;
892 -> 893 ;
894 [label="lawSupp <= 141.0\ngini = 0.04\nsamples = 784\nvalue = [16, 768, 0]"] ;
893 -> 894 ;
895 [label="petitioner <= 235.5\ngini = 0.266\nsamples = 38\nvalue = [6, 32, 0]"] ;
894 -> 895 ;
896 [label="gini = 0.0\nsamples = 26\nvalue = [0, 26, 0]"] ;
895 -> 896 ;
897 [label="issue <= 90250.0\ngini = 0.5\nsamples = 12\nvalue = [6, 6, 0]"] ;
895 -> 897 ;
898 [label="gini = 0.0\nsamples = 6\nvalue = [6, 0, 0]"] ;
897 -> 898 ;
899 [label="gini = 0.0\nsamples = 6\nvalue = [0, 6, 0]"] ;
897 -> 899 ;
900 [label="caseSource <= 21.5\ngini = 0.026\nsamples = 746\nvalue = [10, 736, 0]"] ;
894 -> 900 ;
901 [label="issue <= 80090.0\ngini = 0.18\nsamples = 50\nvalue = [5, 45, 0]"] ;
900 -> 901 ;
902 [label="gini = 0.0\nsamples = 5\nvalue = [5, 0, 0]"] ;
901 -> 902 ;
903 [label="gini = 0.0\nsamples = 45\nvalue = [0, 45, 0]"] ;
901 -> 903 ;
904 [label="caseOrigin <= 119.5\ngini = 0.014\nsamples = 696\nvalue = [5, 691, 0]"] ;
900 -> 904 ;
905 [label="gini = 0.0\nsamples = 588\nvalue = [0, 588, 0]"] ;
904 -> 905 ;
906 [label="caseOrigin <= 120.5\ngini = 0.088\nsamples = 108\nvalue = [5, 103, 0]"] ;
904 -> 906 ;
907 [label="petitioner <= 217.5\ngini = 0.415\nsamples = 17\nvalue = [5, 12, 0]"] ;
906 -> 907 ;
908 [label="gini = 0.0\nsamples = 12\nvalue = [0, 12, 0]"] ;
907 -> 908 ;
909 [label="gini = 0.0\nsamples = 5\nvalue = [5, 0, 0]"] ;
907 -> 909 ;
910 [label="gini = 0.0\nsamples = 91\nvalue = [0, 91, 0]"] ;
906 -> 910 ;
911 [label="gini = 0.0\nsamples = 2\nvalue = [2, 0, 0]"] ;
893 -> 911 ;
912 [label="adminAction <= 83.0\ngini = 0.5\nsamples = 14\nvalue = [7, 7, 0]"] ;
892 -> 912 ;
913 [label="gini = 0.0\nsamples = 7\nvalue = [7, 0, 0]"] ;
912 -> 913 ;
914 [label="gini = 0.0\nsamples = 7\nvalue = [0, 7, 0]"] ;
912 -> 914 ;
915 [label="yearOfDecision <= 2014.0\ngini = 0.497\nsamples = 39\nvalue = [18, 21, 0]"] ;
873 -> 915 ;
916 [label="issue <= 90100.0\ngini = 0.403\nsamples = 25\nvalue = [18, 7, 0]"] ;
915 -> 916 ;
917 [label="gini = 0.0\nsamples = 18\nvalue = [18, 0, 0]"] ;
916 -> 917 ;
918 [label="gini = 0.0\nsamples = 7\nvalue = [0, 7, 0]"] ;
916 -> 918 ;
919 [label="gini = 0.0\nsamples = 14\nvalue = [0, 14, 0]"] ;
915 -> 919 ;
920 [label="issue <= 90375.0\ngini = 0.417\nsamples = 27\nvalue = [19, 8, 0]"] ;
772 -> 920 ;
921 [label="gini = 0.0\nsamples = 8\nvalue = [0, 8, 0]"] ;
920 -> 921 ;
922 [label="gini = 0.0\nsamples = 19\nvalue = [19, 0, 0]"] ;
920 -> 922 ;
923 [label="petitioner <= 150.0\ngini = 0.444\nsamples = 36\nvalue = [24, 12, 0]"] ;
771 -> 923 ;
924 [label="gini = 0.0\nsamples = 24\nvalue = [24, 0, 0]"] ;
923 -> 924 ;
925 [label="gini = 0.0\nsamples = 12\nvalue = [0, 12, 0]"] ;
923 -> 925 ;
926 [label="gini = 0.0\nsamples = 18\nvalue = [18, 0, 0]"] ;
716 -> 926 ;
927 [label="lcDispositionDirection <= 1.5\ngini = 0.473\nsamples = 21934\nvalue = [8427, 13507, 0]"] ;
533 -> 927 ;
928 [label="naturalCourt <= 1703.5\ngini = 0.063\nsamples = 12115\nvalue = [396, 11719, 0]"] ;
927 -> 928 ;
929 [label="vote <= 7.5\ngini = 0.046\nsamples = 11483\nvalue = [270, 11213, 0]"] ;
928 -> 929 ;
930 [label="adminAction <= 2.5\ngini = 0.044\nsamples = 11473\nvalue = [260, 11213, 0]"] ;
929 -> 930 ;
931 [label="caseSource <= 151.5\ngini = 0.48\nsamples = 20\nvalue = [12, 8, 0]"] ;
930 -> 931 ;
932 [label="gini = 0.0\nsamples = 8\nvalue = [0, 8, 0]"] ;
931 -> 932 ;
933 [label="gini = 0.0\nsamples = 12\nvalue = [12, 0, 0]"] ;
931 -> 933 ;
934 [label="respondent <= 104.5\ngini = 0.042\nsamples = 11453\nvalue = [248, 11205, 0]"] ;
930 -> 934 ;
935 [label="minVotes <= 3.5\ngini = 0.226\nsamples = 269\nvalue = [35, 234, 0]"] ;
934 -> 935 ;
936 [label="adminAction <= 21.5\ngini = 0.059\nsamples = 229\nvalue = [7, 222, 0]"] ;
935 -> 936 ;
937 [label="petitioner <= 119.0\ngini = 0.475\nsamples = 18\nvalue = [7, 11, 0]"] ;
936 -> 937 ;
938 [label="gini = 0.0\nsamples = 7\nvalue = [7, 0, 0]"] ;
937 -> 938 ;
939 [label="gini = 0.0\nsamples = 11\nvalue = [0, 11, 0]"] ;
937 -> 939 ;
940 [label="gini = 0.0\nsamples = 211\nvalue = [0, 211, 0]"] ;
936 -> 940 ;
941 [label="certReason <= 6.5\ngini = 0.42\nsamples = 40\nvalue = [28, 12, 0]"] ;
935 -> 941 ;
942 [label="gini = 0.0\nsamples = 12\nvalue = [0, 12, 0]"] ;
941 -> 942 ;
943 [label="gini = 0.0\nsamples = 28\nvalue = [28, 0, 0]"] ;
941 -> 943 ;
944 [label="respondent <= 324.5\ngini = 0.037\nsamples = 11184\nvalue = [213, 10971, 0]"] ;
934 -> 944 ;
945 [label="jurisdiction <= 3.0\ngini = 0.032\nsamples = 10880\nvalue = [178, 10702, 0]"] ;
944 -> 945 ;
946 [label="issue <= 85180.0\ngini = 0.031\nsamples = 10840\nvalue = [169, 10671, 0]"] ;
945 -> 946 ;
947 [label="decisionDirectionDissent <= 0.5\ngini = 0.017\nsamples = 7740\nvalue = [65, 7675, 0]"] ;
946 -> 947 ;
948 [label="caseOrigin <= 110.5\ngini = 0.014\nsamples = 7702\nvalue = [55, 7647, 0]"] ;
947 -> 948 ;
949 [label="lcDisposition <= 11.5\ngini = 0.003\nsamples = 5607\nvalue = [9, 5598, 0]"] ;
948 -> 949 ;
950 [label="decisionDirection <= 2.5\ngini = 0.001\nsamples = 5520\nvalue = [2, 5518, 0]"] ;
949 -> 950 ;
951 [label="caseOriginState <= 32.5\ngini = 0.0\nsamples = 5515\nvalue = [1, 5514, 0]"] ;
950 -> 951 ;
952 [label="gini = 0.0\nsamples = 5409\nvalue = [0, 5409, 0]"] ;
951 -> 952 ;
953 [label="caseOrigin <= 93.5\ngini = 0.019\nsamples = 106\nvalue = [1, 105, 0]"] ;
951 -> 953 ;
954 [label="gini = 0.0\nsamples = 1\nvalue = [1, 0, 0]"] ;
953 -> 954 ;
955 [label="gini = 0.0\nsamples = 105\nvalue = [0, 105, 0]"] ;
953 -> 955 ;
956 [label="term <= 1967.5\ngini = 0.32\nsamples = 5\nvalue = [1, 4, 0]"] ;
950 -> 956 ;
957 [label="gini = 0.0\nsamples = 1\nvalue = [1, 0, 0]"] ;
956 -> 957 ;
958 [label="gini = 0.0\nsamples = 4\nvalue = [0, 4, 0]"] ;
956 -> 958 ;
959 [label="petitioner <= 88.0\ngini = 0.148\nsamples = 87\nvalue = [7, 80, 0]"] ;
949 -> 959 ;
960 [label="gini = 0.0\nsamples = 42\nvalue = [0, 42, 0]"] ;
959 -> 960 ;
961 [label="minVotes <= 0.5\ngini = 0.263\nsamples = 45\nvalue = [7, 38, 0]"] ;
959 -> 961 ;
962 [label="gini = 0.0\nsamples = 25\nvalue = [0, 25, 0]"] ;
961 -> 962 ;
963 [label="petitioner <= 165.0\ngini = 0.455\nsamples = 20\nvalue = [7, 13, 0]"] ;
961 -> 963 ;
964 [label="gini = 0.0\nsamples = 7\nvalue = [7, 0, 0]"] ;
963 -> 964 ;
965 [label="gini = 0.0\nsamples = 13\nvalue = [0, 13, 0]"] ;
963 -> 965 ;
966 [label="caseOrigin <= 111.5\ngini = 0.043\nsamples = 2095\nvalue = [46, 2049, 0]"] ;
948 -> 966 ;
967 [label="lcDisposition <= 3.5\ngini = 0.327\nsamples = 73\nvalue = [15, 58, 0]"] ;
966 -> 967 ;
968 [label="gini = 0.0\nsamples = 53\nvalue = [0, 53, 0]"] ;
967 -> 968 ;
969 [label="issue <= 75025.0\ngini = 0.375\nsamples = 20\nvalue = [15, 5, 0]"] ;
967 -> 969 ;
970 [label="gini = 0.0\nsamples = 5\nvalue = [0, 5, 0]"] ;
969 -> 970 ;
971 [label="gini = 0.0\nsamples = 15\nvalue = [15, 0, 0]"] ;
969 -> 971 ;
972 [label="term <= 1946.5\ngini = 0.03\nsamples = 2022\nvalue = [31, 1991, 0]"] ;
966 -> 972 ;
973 [label="majVotes <= 8.0\ngini = 0.423\nsamples = 23\nvalue = [7, 16, 0]"] ;
972 -> 973 ;
974 [label="gini = 0.0\nsamples = 7\nvalue = [7, 0, 0]"] ;
973 -> 974 ;
975 [label="gini = 0.0\nsamples = 16\nvalue = [0, 16, 0]"] ;
973 -> 975 ;
976 [label="reargMade <= 0.5\ngini = 0.024\nsamples = 1999\nvalue = [24, 1975, 0]"] ;
972 -> 976 ;
977 [label="issue <= 20015.0\ngini = 0.018\nsamples = 1961\nvalue = [18, 1943, 0]"] ;
976 -> 977 ;
978 [label="petitioner <= 23.5\ngini = 0.255\nsamples = 40\nvalue = [6, 34, 0]"] ;
977 -> 978 ;
979 [label="gini = 0.0\nsamples = 6\nvalue = [6, 0, 0]"] ;
978 -> 979 ;
980 [label="gini = 0.0\nsamples = 34\nvalue = [0, 34, 0]"] ;
978 -> 980 ;
981 [label="lawMinorPresent <= 0.5\ngini = 0.012\nsamples = 1921\nvalue = [12, 1909, 0]"] ;
977 -> 981 ;
982 [label="gini = 0.0\nsamples = 1661\nvalue = [0, 1661, 0]"] ;
981 -> 982 ;
983 [label="caseSourceState <= 40.0\ngini = 0.088\nsamples = 260\nvalue = [12, 248, 0]"] ;
981 -> 983 ;
984 [label="gini = 0.0\nsamples = 220\nvalue = [0, 220, 0]"] ;
983 -> 984 ;
985 [label="respondent <= 150.0\ngini = 0.42\nsamples = 40\nvalue = [12, 28, 0]"] ;
983 -> 985 ;
986 [label="gini = 0.0\nsamples = 12\nvalue = [12, 0, 0]"] ;
985 -> 986 ;
987 [label="gini = 0.0\nsamples = 28\nvalue = [0, 28, 0]"] ;
985 -> 987 ;
988 [label="naturalCourt <= 1506.0\ngini = 0.266\nsamples = 38\nvalue = [6, 32, 0]"] ;
976 -> 988 ;
989 [label="gini = 0.0\nsamples = 32\nvalue = [0, 32, 0]"] ;
988 -> 989 ;
990 [label="gini = 0.0\nsamples = 6\nvalue = [6, 0, 0]"] ;
988 -> 990 ;
991 [label="majOpinWriter <= 83.0\ngini = 0.388\nsamples = 38\nvalue = [10, 28, 0]"] ;
947 -> 991 ;
992 [label="gini = 0.0\nsamples = 10\nvalue = [10, 0, 0]"] ;
991 -> 992 ;
993 [label="gini = 0.0\nsamples = 28\nvalue = [0, 28, 0]"] ;
991 -> 993 ;
994 [label="threeJudgeFdc <= 0.5\ngini = 0.065\nsamples = 3100\nvalue = [104, 2996, 0]"] ;
946 -> 994 ;
995 [label="adminAction <= 74.5\ngini = 0.054\nsamples = 3023\nvalue = [84, 2939, 0]"] ;
994 -> 995 ;
996 [label="caseSource <= 22.5\ngini = 0.04\nsamples = 2812\nvalue = [58, 2754, 0]"] ;
995 -> 996 ;
997 [label="respondent <= 171.5\ngini = 0.13\nsamples = 343\nvalue = [24, 319, 0]"] ;
996 -> 997 ;
998 [label="gini = 0.0\nsamples = 165\nvalue = [0, 165, 0]"] ;
997 -> 998 ;
999 [label="respondent <= 199.0\ngini = 0.233\nsamples = 178\nvalue = [24, 154, 0]"] ;
997 -> 999 ;
1000 [label="caseOrigin <= 104.0\ngini = 0.5\nsamples = 36\nvalue = [18, 18, 0]"] ;
999 -> 1000 ;
1001 [label="term <= 1956.5\ngini = 0.375\nsamples = 24\nvalue = [18, 6, 0]"] ;
1000 -> 1001 ;
1002 [label="gini = 0.0\nsamples = 6\nvalue = [0, 6, 0]"] ;
1001 -> 1002 ;
1003 [label="gini = 0.0\nsamples = 18\nvalue = [18, 0, 0]"] ;
1001 -> 1003 ;
1004 [label="gini = 0.0\nsamples = 12\nvalue = [0, 12, 0]"] ;
1000 -> 1004 ;
1005 [label="majOpinAssigner <= 83.0\ngini = 0.081\nsamples = 142\nvalue = [6, 136, 0]"] ;
999 -> 1005 ;
1006 [label="minVotes <= 2.0\ngini = 0.5\nsamples = 12\nvalue = [6, 6, 0]"] ;
1005 -> 1006 ;
1007 [label="gini = 0.0\nsamples = 6\nvalue = [0, 6, 0]"] ;
1006 -> 1007 ;
1008 [label="gini = 0.0\nsamples = 6\nvalue = [6, 0, 0]"] ;
1006 -> 1008 ;
1009 [label="gini = 0.0\nsamples = 130\nvalue = [0, 130, 0]"] ;
1005 -> 1009 ;
1010 [label="authorityDecision1 <= 4.5\ngini = 0.027\nsamples = 2469\nvalue = [34, 2435, 0]"] ;
996 -> 1010 ;
1011 [label="voteUnclear <= 0.5\ngini = 0.016\nsamples = 2295\nvalue = [18, 2277, 0]"] ;
1010 -> 1011 ;
1012 [label="issue <= 90160.0\ngini = 0.01\nsamples = 2239\nvalue = [11, 2228, 0]"] ;
1011 -> 1012 ;
1013 [label="petitioner <= 348.0\ngini = 0.047\nsamples = 456\nvalue = [11, 445, 0]"] ;
1012 -> 1013 ;
1014 [label="lawType <= 5.5\ngini = 0.023\nsamples = 426\nvalue = [5, 421, 0]"] ;
1013 -> 1014 ;
1015 [label="gini = 0.0\nsamples = 334\nvalue = [0, 334, 0]"] ;
1014 -> 1015 ;
1016 [label="majVotes <= 8.5\ngini = 0.103\nsamples = 92\nvalue = [5, 87, 0]"] ;
1014 -> 1016 ;
1017 [label="gini = 0.0\nsamples = 59\nvalue = [0, 59, 0]"] ;
1016 -> 1017 ;
1018 [label="caseOrigin <= 87.0\ngini = 0.257\nsamples = 33\nvalue = [5, 28, 0]"] ;
1016 -> 1018 ;
1019 [label="gini = 0.0\nsamples = 22\nvalue = [0, 22, 0]"] ;
1018 -> 1019 ;
1020 [label="yearOfDecision <= 1959.5\ngini = 0.496\nsamples = 11\nvalue = [5, 6, 0]"] ;
1018 -> 1020 ;
1021 [label="gini = 0.0\nsamples = 6\nvalue = [0, 6, 0]"] ;
1020 -> 1021 ;
1022 [label="gini = 0.0\nsamples = 5\nvalue = [5, 0, 0]"] ;
1020 -> 1022 ;
1023 [label="caseOrigin <= 71.0\ngini = 0.32\nsamples = 30\nvalue = [6, 24, 0]"] ;
1013 -> 1023 ;
1024 [label="gini = 0.0\nsamples = 6\nvalue = [6, 0, 0]"] ;
1023 -> 1024 ;
1025 [label="gini = 0.0\nsamples = 24\nvalue = [0, 24, 0]"] ;
1023 -> 1025 ;
1026 [label="gini = 0.0\nsamples = 1783\nvalue = [0, 1783, 0]"] ;
1012 -> 1026 ;
1027 [label="respondent <= 143.5\ngini = 0.219\nsamples = 56\nvalue = [7, 49, 0]"] ;
1011 -> 1027 ;
1028 [label="gini = 0.0\nsamples = 7\nvalue = [7, 0, 0]"] ;
1027 -> 1028 ;
1029 [label="gini = 0.0\nsamples = 49\nvalue = [0, 49, 0]"] ;
1027 -> 1029 ;
1030 [label="caseOriginState <= 32.0\ngini = 0.167\nsamples = 174\nvalue = [16, 158, 0]"] ;
1010 -> 1030 ;
1031 [label="respondent <= 114.5\ngini = 0.092\nsamples = 166\nvalue = [8, 158, 0]"] ;
1030 -> 1031 ;
1032 [label="gini = 0.0\nsamples = 8\nvalue = [8, 0, 0]"] ;
1031 -> 1032 ;
1033 [label="gini = 0.0\nsamples = 158\nvalue = [0, 158, 0]"] ;
1031 -> 1033 ;
1034 [label="gini = 0.0\nsamples = 8\nvalue = [8, 0, 0]"] ;
1030 -> 1034 ;
1035 [label="respondent <= 128.5\ngini = 0.216\nsamples = 211\nvalue = [26, 185, 0]"] ;
995 -> 1035 ;
1036 [label="adminAction <= 97.5\ngini = 0.365\nsamples = 25\nvalue = [19, 6, 0]"] ;
1035 -> 1036 ;
1037 [label="gini = 0.0\nsamples = 19\nvalue = [19, 0, 0]"] ;
1036 -> 1037 ;
1038 [label="gini = 0.0\nsamples = 6\nvalue = [0, 6, 0]"] ;
1036 -> 1038 ;
1039 [label="majOpinWriter <= 81.5\ngini = 0.072\nsamples = 186\nvalue = [7, 179, 0]"] ;
1035 -> 1039 ;
1040 [label="issueArea <= 9.5\ngini = 0.413\nsamples = 24\nvalue = [7, 17, 0]"] ;
1039 -> 1040 ;
1041 [label="gini = 0.0\nsamples = 7\nvalue = [7, 0, 0]"] ;
1040 -> 1041 ;
1042 [label="gini = 0.0\nsamples = 17\nvalue = [0, 17, 0]"] ;
1040 -> 1042 ;
1043 [label="gini = 0.0\nsamples = 162\nvalue = [0, 162, 0]"] ;
1039 -> 1043 ;
1044 [label="minVotes <= 0.5\ngini = 0.385\nsamples = 77\nvalue = [20, 57, 0]"] ;
994 -> 1044 ;
1045 [label="caseOrigin <= 62.5\ngini = 0.408\nsamples = 28\nvalue = [20, 8, 0]"] ;
1044 -> 1045 ;
1046 [label="gini = 0.0\nsamples = 8\nvalue = [0, 8, 0]"] ;
1045 -> 1046 ;
1047 [label="gini = 0.0\nsamples = 20\nvalue = [20, 0, 0]"] ;
1045 -> 1047 ;
1048 [label="gini = 0.0\nsamples = 49\nvalue = [0, 49, 0]"] ;
1044 -> 1048 ;
1049 [label="issue <= 50165.0\ngini = 0.349\nsamples = 40\nvalue = [9, 31, 0]"] ;
945 -> 1049 ;
1050 [label="gini = 0.0\nsamples = 9\nvalue = [9, 0, 0]"] ;
1049 -> 1050 ;
1051 [label="gini = 0.0\nsamples = 31\nvalue = [0, 31, 0]"] ;
1049 -> 1051 ;
1052 [label="respondent <= 325.5\ngini = 0.204\nsamples = 304\nvalue = [35, 269, 0]"] ;
944 -> 1052 ;
1053 [label="gini = 0.0\nsamples = 13\nvalue = [13, 0, 0]"] ;
1052 -> 1053 ;
1054 [label="certReason <= 3.5\ngini = 0.14\nsamples = 291\nvalue = [22, 269, 0]"] ;
1052 -> 1054 ;
1055 [label="issueArea <= 7.5\ngini = 0.378\nsamples = 87\nvalue = [22, 65, 0]"] ;
1054 -> 1055 ;
1056 [label="gini = 0.0\nsamples = 54\nvalue = [0, 54, 0]"] ;
1055 -> 1056 ;
1057 [label="adminAction <= 35.0\ngini = 0.444\nsamples = 33\nvalue = [22, 11, 0]"] ;
1055 -> 1057 ;
1058 [label="issue <= 85090.0\ngini = 0.391\nsamples = 15\nvalue = [4, 11, 0]"] ;
1057 -> 1058 ;
1059 [label="gini = 0.0\nsamples = 4\nvalue = [4, 0, 0]"] ;
1058 -> 1059 ;
1060 [label="gini = 0.0\nsamples = 11\nvalue = [0, 11, 0]"] ;
1058 -> 1060 ;
1061 [label="gini = 0.0\nsamples = 18\nvalue = [18, 0, 0]"] ;
1057 -> 1061 ;
1062 [label="gini = 0.0\nsamples = 204\nvalue = [0, 204, 0]"] ;
1054 -> 1062 ;
1063 [label="gini = 0.0\nsamples = 10\nvalue = [10, 0, 0]"] ;
929 -> 1063 ;
1064 [label="respondent <= 332.5\ngini = 0.319\nsamples = 632\nvalue = [126, 506, 0]"] ;
928 -> 1064 ;
1065 [label="issue <= 90260.0\ngini = 0.248\nsamples = 578\nvalue = [84, 494, 0]"] ;
1064 -> 1065 ;
1066 [label="petitioner <= 360.0\ngini = 0.141\nsamples = 446\nvalue = [34, 412, 0]"] ;
1065 -> 1066 ;
1067 [label="petitioner <= 5.5\ngini = 0.108\nsamples = 437\nvalue = [25, 412, 0]"] ;
1066 -> 1067 ;
1068 [label="gini = 0.0\nsamples = 6\nvalue = [6, 0, 0]"] ;
1067 -> 1068 ;
1069 [label="majOpinAssigner <= 102.5\ngini = 0.084\nsamples = 431\nvalue = [19, 412, 0]"] ;
1067 -> 1069 ;
1070 [label="gini = 0.0\nsamples = 5\nvalue = [5, 0, 0]"] ;
1069 -> 1070 ;
1071 [label="issue <= 10070.0\ngini = 0.064\nsamples = 426\nvalue = [14, 412, 0]"] ;
1069 -> 1071 ;
1072 [label="lcDisagreement <= 0.5\ngini = 0.5\nsamples = 12\nvalue = [6, 6, 0]"] ;
1071 -> 1072 ;
1073 [label="gini = 0.0\nsamples = 6\nvalue = [6, 0, 0]"] ;
1072 -> 1073 ;
1074 [label="gini = 0.0\nsamples = 6\nvalue = [0, 6, 0]"] ;
1072 -> 1074 ;
1075 [label="caseOrigin <= 23.5\ngini = 0.038\nsamples = 414\nvalue = [8, 406, 0]"] ;
1071 -> 1075 ;
1076 [label="lawType <= 4.0\ngini = 0.444\nsamples = 24\nvalue = [8, 16, 0]"] ;
1075 -> 1076 ;
1077 [label="gini = 0.0\nsamples = 8\nvalue = [8, 0, 0]"] ;
1076 -> 1077 ;
1078 [label="gini = 0.0\nsamples = 16\nvalue = [0, 16, 0]"] ;
1076 -> 1078 ;
1079 [label="gini = 0.0\nsamples = 390\nvalue = [0, 390, 0]"] ;
1075 -> 1079 ;
1080 [label="gini = 0.0\nsamples = 9\nvalue = [9, 0, 0]"] ;
1066 -> 1080 ;
1081 [label="yearOfCaseInitiate <= 2012.5\ngini = 0.471\nsamples = 132\nvalue = [50, 82, 0]"] ;
1065 -> 1081 ;
1082 [label="lcDisposition <= 2.5\ngini = 0.451\nsamples = 70\nvalue = [46, 24, 0]"] ;
1081 -> 1082 ;
1083 [label="adminAction <= 54.5\ngini = 0.393\nsamples = 26\nvalue = [7, 19, 0]"] ;
1082 -> 1083 ;
1084 [label="gini = 0.0\nsamples = 19\nvalue = [0, 19, 0]"] ;
1083 -> 1084 ;
1085 [label="gini = 0.0\nsamples = 7\nvalue = [7, 0, 0]"] ;
1083 -> 1085 ;
1086 [label="lcDisposition <= 7.0\ngini = 0.201\nsamples = 44\nvalue = [39, 5, 0]"] ;
1082 -> 1086 ;
1087 [label="gini = 0.0\nsamples = 39\nvalue = [39, 0, 0]"] ;
1086 -> 1087 ;
1088 [label="gini = 0.0\nsamples = 5\nvalue = [0, 5, 0]"] ;
1086 -> 1088 ;
1089 [label="caseSource <= 24.5\ngini = 0.121\nsamples = 62\nvalue = [4, 58, 0]"] ;
1081 -> 1089 ;
1090 [label="gini = 0.0\nsamples = 4\nvalue = [4, 0, 0]"] ;
1089 -> 1090 ;
1091 [label="gini = 0.0\nsamples = 58\nvalue = [0, 58, 0]"] ;
1089 -> 1091 ;
1092 [label="lcDisposition <= 8.5\ngini = 0.346\nsamples = 54\nvalue = [42, 12, 0]"] ;
1064 -> 1092 ;
1093 [label="vote <= 3.5\ngini = 0.444\nsamples = 18\nvalue = [6, 12, 0]"] ;
1092 -> 1093 ;
1094 [label="petitioner <= 205.5\ngini = 0.32\nsamples = 15\nvalue = [3, 12, 0]"] ;
1093 -> 1094 ;
1095 [label="gini = 0.0\nsamples = 7\nvalue = [0, 7, 0]"] ;
1094 -> 1095 ;
1096 [label="majVotes <= 6.5\ngini = 0.469\nsamples = 8\nvalue = [3, 5, 0]"] ;
1094 -> 1096 ;
1097 [label="gini = 0.0\nsamples = 5\nvalue = [0, 5, 0]"] ;
1096 -> 1097 ;
1098 [label="gini = 0.0\nsamples = 3\nvalue = [3, 0, 0]"] ;
1096 -> 1098 ;
1099 [label="gini = 0.0\nsamples = 3\nvalue = [3, 0, 0]"] ;
1093 -> 1099 ;
1100 [label="gini = 0.0\nsamples = 36\nvalue = [36, 0, 0]"] ;
1092 -> 1100 ;
1101 [label="lcDispositionDirection <= 2.5\ngini = 0.298\nsamples = 9819\nvalue = [8031, 1788, 0]"] ;
927 -> 1101 ;
1102 [label="issue <= 80055.0\ngini = 0.238\nsamples = 8991\nvalue = [7751, 1240, 0]"] ;
1101 -> 1102 ;
1103 [label="decisionDirectionDissent <= 0.5\ngini = 0.119\nsamples = 5711\nvalue = [5349, 362, 0]"] ;
1102 -> 1103 ;
1104 [label="firstAgreementPresent <= 0.5\ngini = 0.103\nsamples = 5651\nvalue = [5342, 309, 0]"] ;
1103 -> 1104 ;
1105 [label="caseSource <= 15.0\ngini = 0.444\nsamples = 42\nvalue = [14, 28, 0]"] ;
1104 -> 1105 ;
1106 [label="gini = 0.0\nsamples = 11\nvalue = [11, 0, 0]"] ;
1105 -> 1106 ;
1107 [label="caseSource <= 166.0\ngini = 0.175\nsamples = 31\nvalue = [3, 28, 0]"] ;
1105 -> 1107 ;
1108 [label="gini = 0.0\nsamples = 28\nvalue = [0, 28, 0]"] ;
1107 -> 1108 ;
1109 [label="gini = 0.0\nsamples = 3\nvalue = [3, 0, 0]"] ;
1107 -> 1109 ;
1110 [label="term <= 2000.5\ngini = 0.095\nsamples = 5609\nvalue = [5328, 281, 0]"] ;
1104 -> 1110 ;
1111 [label="adminActionState <= 50.5\ngini = 0.076\nsamples = 5070\nvalue = [4870, 200, 0]"] ;
1110 -> 1111 ;
1112 [label="majOpinWriter <= 93.0\ngini = 0.07\nsamples = 4982\nvalue = [4800, 182, 0]"] ;
1111 -> 1112 ;
1113 [label="respondent <= 132.5\ngini = 0.018\nsamples = 1643\nvalue = [1628, 15, 0]"] ;
1112 -> 1113 ;
1114 [label="respondent <= 130.5\ngini = 0.064\nsamples = 453\nvalue = [438, 15, 0]"] ;
1113 -> 1114 ;
1115 [label="caseOrigin <= 50.5\ngini = 0.031\nsamples = 445\nvalue = [438, 7, 0]"] ;
1114 -> 1115 ;
1116 [label="issue <= 55115.0\ngini = 0.403\nsamples = 25\nvalue = [18, 7, 0]"] ;
1115 -> 1116 ;
1117 [label="gini = 0.0\nsamples = 18\nvalue = [18, 0, 0]"] ;
1116 -> 1117 ;
1118 [label="gini = 0.0\nsamples = 7\nvalue = [0, 7, 0]"] ;
1116 -> 1118 ;
1119 [label="gini = 0.0\nsamples = 420\nvalue = [420, 0, 0]"] ;
1115 -> 1119 ;
1120 [label="gini = 0.0\nsamples = 8\nvalue = [0, 8, 0]"] ;
1114 -> 1120 ;
1121 [label="gini = 0.0\nsamples = 1190\nvalue = [1190, 0, 0]"] ;
1113 -> 1121 ;
1122 [label="yearOfDecision <= 1975.5\ngini = 0.095\nsamples = 3339\nvalue = [3172, 167, 0]"] ;
1112 -> 1122 ;
1123 [label="lawType <= 1.5\ngini = 0.218\nsamples = 834\nvalue = [730, 104, 0]"] ;
1122 -> 1123 ;
1124 [label="gini = 0.0\nsamples = 12\nvalue = [0, 12, 0]"] ;
1123 -> 1124 ;
1125 [label="yearOfDecision <= 1967.5\ngini = 0.199\nsamples = 822\nvalue = [730, 92, 0]"] ;
1123 -> 1125 ;
